/* Auto-generated by ml_training/rl/export_policy_c.py — DO NOT EDIT */
/* Student MLP (INT8 Symmetric): 16D input, 3 actions */
/* Total params: 5,443 */
#pragma once

#include <stdint.h>

#define STUDENT_STATE_DIM  16
#define STUDENT_ACTION_DIM 3
#define STUDENT_NUM_LAYERS 3
#define STUDENT_USE_INT8   1

#define STUDENT_INPUT_SCALE 6.06907845e-01f

/* Layer 0: [16] -> [64] */
#define LAYER0_IN  16
#define LAYER0_OUT 64
static const int8_t w0[1024] = {
    -73, -27, 32, 127, 124, 70, 80, 12,
    6, -40, -50, 127, -65, -83, -26, -111,
    -74, 127, 23, 42, -12, -4, 19, 11,
    2, 24, -31, 14, 11, 15, -4, -1,
    75, -127, -21, -43, 20, -2, -8, -20,
    -8, -53, 22, 4, -1, 8, -18, -5,
    127, -70, -28, -49, 11, -38, -31, -16,
    -39, -36, 20, -65, 21, 0, 10, 8,
    59, -127, -26, -25, -25, -26, -18, -17,
    -8, -55, 5, -16, -10, 8, 7, 5,
    68, -127, 7, -25, 35, 21, -13, 1,
    -1, -38, 47, 8, -8, 5, 13, -18,
    52, -127, 9, -26, 4, -19, -14, -18,
    7, -36, 33, -2, -16, 6, -17, 14,
    -90, 127, 11, 39, -45, -4, 0, 11,
    17, 36, -32, 1, -1, 4, 25, -19,
    105, -127, -46, -34, 33, 2, -40, -30,
    -42, -50, -2, -16, 18, -3, -18, 16,
    0, 86, -67, -34, -70, -64, -84, -92,
    -47, -91, -94, -127, 13, 5, -44, 38,
    -76, -15, -68, 43, 93, 43, -48, 99,
    -88, 86, 94, 83, -11, -127, -37, 108,
    106, -127, -20, -28, 37, 7, -13, -10,
    1, -31, 33, -10, 0, 4, -12, 9,
    -116, 127, 1, 40, -47, -5, 30, 7,
    13, 48, -47, -4, -7, 10, 10, -2,
    64, -127, -8, -37, 29, -15, -27, 3,
    -5, -54, 16, -13, -7, 4, -6, -1,
    -71, 127, 10, 16, -13, -9, -7, -7,
    -12, 7, -44, -14, 7, 3, -24, -1,
    127, -100, -52, 8, -63, 58, 91, -69,
    62, 81, 93, -106, 84, -122, 72, 99,
    -70, 127, 8, 14, -39, -23, 3, 4,
    -11, 27, -50, -24, 11, -2, 14, -2,
    -119, 127, -16, 53, -27, 11, 37, -15,
    -17, 68, 86, 48, 32, -103, 108, -112,
    -14, 26, 68, -29, -96, -38, 12, 34,
    -83, -100, 85, 122, 127, -104, 71, -20,
    7, 0, 29, 127, 21, -105, -72, -109,
    57, 58, 39, 21, 46, -60, 15, 2,
    102, -127, 16, -44, 52, 25, -3, 3,
    -4, -51, 34, 14, 0, 1, -5, -3,
    -59, -2, -1, 57, -114, -25, 127, -68,
    15, 68, -38, 95, -56, 5, 39, 23,
    -116, 127, 16, 49, -36, 25, 23, 22,
    28, 46, -30, 27, -21, 17, 1, -30,
    -82, 127, -19, 25, -55, -30, 5, 8,
    -4, 33, -59, -14, 15, -4, 12, 9,
    -118, 127, -13, 27, -58, -11, -1, -1,
    1, 47, -57, -8, -11, 7, 18, -3,
    -127, 112, 45, 42, 2, 36, 37, 37,
    38, 72, -20, 50, -23, 12, -7, -10,
    40, 27, 119, 116, -20, 61, 50, 93,
    -6, 120, 88, 112, -84, -127, -1, 107,
    -94, 125, 86, 61, -5, -81, -127, -34,
    -83, -13, 110, -79, -100, -88, -92, 14,
    72, -102, -34, 96, -20, -56, -127, -35,
    -107, 8, -106, 96, -25, -111, 23, -100,
    -19, 0, -98, 48, 37, 44, -124, -100,
    -100, -74, 112, -96, -111, -111, -6, 127,
    71, -23, -124, 51, 70, 66, 93, -127,
    4, -89, 62, -100, -49, 7, 99, 37,
    63, -127, -62, -50, -6, -63, -36, -23,
    -22, -73, -32, -81, 9, 9, 0, -9,
    -57, 71, 7, -127, -116, -21, 11, 82,
    -92, 95, -63, 4, -64, -10, -72, -42,
    55, -127, 2, -39, 27, 0, -14, -21,
    -9, -44, 15, 12, -10, 4, -29, 6,
    127, 82, 77, -71, -52, -53, 62, 79,
    117, 101, -120, -123, -97, -65, 25, 105,
    40, -127, -105, 24, -57, -7, -74, 73,
    -86, -32, 112, 95, 40, -106, -119, -9,
    -42, 127, 53, 82, -124, 43, 92, -1,
    3, 31, 33, 94, 11, -15, 21, 41,
    5, 69, 89, -57, -78, -110, -30, 30,
    -57, -110, -127, 74, -69, -75, -36, -69,
    -66, 127, -18, 29, -37, -16, -18, -10,
    -6, 25, -55, -24, 12, -2, 0, 9,
    96, -127, -19, -34, 23, -14, 3, -9,
    -22, -50, 20, -20, 1, 0, -12, 19,
    -28, -37, 105, -112, 36, 25, 107, 123,
    -54, -22, 98, 11, -127, -33, -109, -72,
    -13, -89, -63, -29, -91, -83, -60, -49,
    -66, -61, -79, -127, -1, 5, -18, -9,
    123, -127, -11, -43, 35, 2, -4, -13,
    -8, -30, 39, -7, 12, -1, 11, -13,
    76, -48, 127, -65, -112, 107, -31, -124,
    46, -62, 86, -95, -56, 8, 9, -84,
    14, -47, 116, -13, 35, -108, 93, -55,
    37, -127, -62, 71, -127, -106, -32, 97,
    -52, 127, 0, 18, -27, -12, 4, 2,
    -2, 32, -46, -9, 11, -3, -4, 10,
    -55, 127, -6, 21, -18, -4, 3, 7,
    -8, 6, -44, -19, 4, 5, -15, 3,
    -68, 127, 8, 23, -22, 7, 12, -1,
    19, 23, -22, -2, 2, 5, -16, -9,
    -91, 127, 6, 28, -29, 2, 2, 13,
    1, 44, -29, -13, 17, -3, -9, -21,
    71, 17, 81, -12, -41, -50, 81, 34,
    -106, 82, -78, -75, 102, -101, 121, 127,
    120, 49, -74, -24, -127, 124, -20, 99,
    -83, 15, -28, 29, -48, -73, -4, 59,
    86, -127, 4, -31, 19, -3, 2, 3,
    -1, -35, 46, 6, -3, 1, 5, 6,
    -44, -127, 29, 12, 73, 67, 22, 32,
    73, 72, 73, 106, -38, 16, 47, -1,
    94, -127, -16, -27, 36, 6, -8, 2,
    -10, -42, 40, 9, -10, 5, -7, 23,
    -57, 102, -6, -87, -117, -91, -85, 113,
    81, 0, 92, -53, 53, -127, -8, 116,
    127, 97, 40, 63, -13, 105, 13, -97,
    -120, -49, 109, 64, 42, -104, 16, -113,
    -60, 127, -30, -17, -82, -61, -38, -39,
    -28, -36, -66, -75, -5, 2, 17, 51,
    -64, 127, 12, 25, -22, 3, -1, 0,
    19, 28, -35, -2, 5, 7, 3, -21,
    -42, -49, -50, -71, 2, -85, -79, -80,
    40, -44, 42, 43, 80, -119, 127, -112,
    102, -127, -21, -40, 21, -1, -20, -30,
    -25, -49, 31, -15, 7, 4, -15, 14,
    76, -127, -25, -48, 33, -18, -33, -27,
    -13, -62, 32, -17, -13, 8, -27, -1,
    127, -95, -39, -38, 29, -50, -24, -19,
    -26, -61, 11, -77, 22, -5, 1, 18,
    6, 34, 117, 10, 33, -109, 26, 23,
    59, 59, 78, -45, -77, -97, 127, -102,
    -127, 68, 58, 35, 10, 24, 10, 17,
    50, 68, -12, 79, -28, 15, -19, -23,
};
static const int32_t b0[64] = {
    200, 2, -28, -39, -68, -21, -2, 33,
    -45, -99, -77, 1, 12, -37, 6, -195,
    14, -77, -162, 189, 8, -97, 52, 9,
    -16, 60, 83, -205, 184, -60, -170, -36,
    -150, -7, -77, 27, 38, 14, -18, -10,
    58, -98, -17, 166, 215, -2, 7, 30,
    31, 42, 107, 10, 111, -21, -208, 208,
    -56, 7, 123, -42, -37, -49, -176, 62,
};
static const int32_t mult0[64] = {
    30471, 26869, 18501, 24430, 26362, 20456, 16797, 32398,
    22282, 17356, 27939, 16393, 23511, 29859, 18170, 29143,
    32265, 30349, 27968, 29744, 18527, 30255, 25945, 16432,
    17127, 22967, 26517, 27690, 29347, 30722, 28637, 22415,
    27430, 19250, 29772, 30407, 23063, 29477, 30155, 16427,
    30398, 26416, 29197, 27071, 29357, 17692, 31973, 29070,
    29949, 30618, 28283, 18744, 16577, 16444, 30684, 28436,
    30819, 16785, 29248, 31439, 29626, 23701, 28267, 21475,
};
static const int32_t shift0[64] = {
    22, 19, 18, 19, 19, 18, 18, 19,
    19, 19, 22, 18, 19, 19, 18, 22,
    19, 22, 22, 22, 18, 22, 19, 18,
    18, 19, 22, 22, 22, 22, 22, 19,
    22, 18, 22, 22, 22, 22, 19, 18,
    22, 19, 19, 22, 22, 18, 19, 19,
    19, 22, 22, 18, 19, 18, 22, 22,
    19, 18, 22, 19, 19, 19, 22, 19,
};

/* Layer 1: [64] -> [64] */
#define LAYER1_IN  64
#define LAYER1_OUT 64
static const int8_t w1[4096] = {
    2, 23, 14, 38, -3, -55, -37, -52,
    52, -4, 24, 21, -23, 3, 37, -15,
    38, -3, -24, 16, 100, 1, -71, 81,
    -82, -83, -18, -3, -21, -30, -28, 4,
    3, -78, 4, -25, -5, 19, 46, 102,
    3, 106, 11, 13, 24, 50, -1, -1,
    51, 15, 19, 32, -127, -33, -9, -30,
    89, 9, -29, 33, -2, 71, -28, -111,
    -13, 23, -4, -13, -18, -105, -24, 92,
    -6, 9, 11, -23, 24, -25, 37, -11,
    67, 23, -6, -18, -127, -6, 42, 106,
    27, 26, 8, 4, 3, -5, 21, 17,
    23, -108, -17, 9, 22, 19, 50, -118,
    18, 75, -21, 11, 6, 62, 33, -2,
    124, 9, -12, -67, -27, -64, -4, -11,
    -5, 31, 18, -17, -33, 14, -5, -9,
    -16, -19, 12, -17, 25, 112, 10, -5,
    -17, 14, -14, -7, 4, 10, -13, 2,
    -36, -9, 19, -3, 78, 6, 3, -125,
    -79, 41, 0, -11, 4, -21, 18, 16,
    2, 66, 16, -17, -11, -4, -10, -20,
    -17, -127, 8, -1, -3, -32, -10, -6,
    -60, 4, -2, 45, 51, 24, 3, -12,
    -20, -13, 12, 9, 24, -7, 12, 31,
    -10, 28, -125, -11, 59, 10, -85, -11,
    61, -107, 52, 1, -11, -34, -67, 51,
    46, -63, 26, 61, 47, -74, 75, -41,
    68, 59, 36, -88, 107, 29, -46, 12,
    25, 51, -29, 43, 110, 1, -56, -107,
    -2, 11, -31, -27, 86, -17, -127, -100,
    76, 35, -19, -110, 76, -22, 108, -92,
    -40, -35, 70, -46, 37, -73, 15, -125,
    23, 9, 32, 8, 14, 65, 58, -74,
    33, 17, -18, 9, -19, 24, -14, 4,
    -54, 21, 8, 3, 122, 18, 1, -50,
    6, -32, 3, -11, 15, -6, -20, 17,
    19, 101, 1, 17, 3, -6, -35, 127,
    2, 79, -5, 22, -21, -28, -3, -15,
    -94, 8, -3, 21, -13, 98, 13, 22,
    -60, -32, -22, 25, 68, 39, 13, -7,
    -3, 1, 12, 17, -8, 69, 8, -29,
    10, 4, -11, 18, -8, -1, -13, -2,
    -15, 11, 7, -3, 127, -6, -9, -23,
    -84, -40, 5, 11, -7, 3, 6, -7,
    7, -29, 2, 8, -8, 4, -10, 64,
    -4, -24, 28, -3, -2, -19, 2, -6,
    -17, -11, -8, 37, -3, 29, 0, 3,
    -15, 5, -2, 19, 5, 30, 5, -34,
    -31, -48, 56, 24, 113, -85, -112, 97,
    -100, -67, 127, -86, 51, -103, -52, -7,
    -19, 57, -69, -108, 78, 15, 12, 58,
    18, -69, 35, 97, -91, 14, 60, 118,
    -90, -127, 107, 86, 47, -1, -58, 43,
    -96, -100, -99, -126, 69, 96, 36, 61,
    -119, -44, 38, 100, -36, 71, 55, -114,
    115, -58, 79, -114, -3, 33, 36, 78,
    1, 17, -6, 5, -4, 5, 5, 21,
    -5, 1, 15, 12, 13, 9, 13, 5,
    9, -1, -3, 6, -39, 1, 16, -8,
    -24, 36, -15, 11, 14, 2, 5, -11,
    6, -30, 4, -12, 11, -14, -4, -36,
    11, -127, 5, -3, -13, -5, 1, 17,
    10, 8, -6, 17, 37, -12, -4, -14,
    -30, 20, 0, 1, -3, -18, 13, 29,
    2, -57, -31, -51, -114, -88, 17, -118,
    44, -14, 55, -38, 126, -126, -104, 120,
    -74, -84, 3, -104, 19, -21, 105, -21,
    26, -83, -57, 64, -53, 120, -1, 42,
    107, 22, 125, 35, 33, -108, 78, -126,
    -79, 103, -97, -64, 127, 80, -11, -16,
    -67, -58, 5, -75, 109, -30, -86, 116,
    -34, 55, 33, -43, -27, 103, -125, 55,
    -86, 50, -72, -22, 13, -107, 0, -5,
    -125, -57, 63, -127, -58, -71, -31, 114,
    -28, -33, 92, -100, -113, -104, -68, -76,
    -108, 42, 34, -21, -58, -108, -108, -48,
    96, 29, 0, 9, 61, 55, 35, 59,
    -62, -113, 4, 106, -103, -16, -94, 15,
    31, -112, 37, -74, -56, -101, 63, 103,
    94, -80, 5, -85, 96, 85, 22, -55,
    -12, -4, 23, -3, -8, -3, 8, 14,
    9, 2, -1, -4, 17, -8, 22, 18,
    2, 7, -9, 22, -127, -12, 44, 11,
    -33, 45, 0, 0, -17, 9, 7, 16,
    12, -47, -7, 4, -7, -7, 13, -104,
    4, -110, 4, 16, -5, -4, -7, 14,
    57, 22, 14, 15, 7, -25, -16, 4,
    -46, -9, 16, -9, -6, -5, 19, 56,
    11, 36, -89, -35, 20, -42, -119, 94,
    -64, -106, 38, -27, 78, 99, -101, -15,
    -90, 104, -127, -35, 85, 121, 43, 99,
    -68, -92, -120, 75, 99, 29, -107, -74,
    -25, -124, 120, 43, -120, 39, 15, 77,
    -46, 91, 98, 22, -81, 65, -119, 70,
    -50, 76, 28, -49, 89, -113, -26, 108,
    13, 72, 105, -109, 107, 105, -78, 53,
    80, -56, 24, 31, 97, 122, -55, 9,
    24, -58, 17, -62, 127, -111, 16, 90,
    47, -14, -92, 77, -83, 8, -27, -36,
    53, -111, 15, -108, -97, 33, 108, 65,
    87, -83, -103, 100, -112, 97, -71, 37,
    -31, -9, -97, 112, 124, -10, 95, -35,
    -79, 20, -102, 45, 27, 20, 112, 32,
    -16, -109, 67, 57, -82, -35, 35, -18,
    -14, -12, 15, 10, 17, 6, 1, -12,
    10, 11, -7, -10, -8, -1, 2, 11,
    5, 7, 14, 8, 67, 8, 0, 15,
    37, -30, 13, -9, 5, 7, 11, 18,
    4, 31, -12, 7, -4, 8, 11, 68,
    12, 127, 10, -11, 0, 4, -3, -5,
    -26, -8, 6, -11, -24, 13, -3, 1,
    43, -15, -8, 19, 13, 7, -5, -19,
    3, 7, -1, -2, 7, 70, 2, -17,
    14, 3, 0, 16, -7, 6, -10, 0,
    -16, -3, 3, 9, 127, 1, -3, -35,
    -72, -24, 7, 0, -7, 4, -10, 3,
    10, 95, 8, -1, -3, -9, -8, 78,
    -4, 19, 39, -5, -6, -12, 2, 4,
    -20, -5, 4, 18, -27, 32, 0, -7,
    -29, -11, 3, 19, 28, 37, -2, -23,
    61, 68, 49, -123, 26, -117, -23, 98,
    -118, 108, -87, -108, -98, 56, -58, 125,
    57, -54, 21, 29, -7, -121, 70, 127,
    -64, 15, 66, 70, 119, -55, 3, 12,
    -7, 44, 67, -36, 40, -23, 18, -124,
    83, -89, 83, 70, 111, -115, 64, -94,
    -91, -13, -127, -28, 97, 63, 61, -60,
    16, -96, 78, -119, 7, -66, 59, 21,
    14, 28, -54, -63, -16, 119, 75, 73,
    -104, -92, 16, 73, -69, 103, -86, -123,
    87, 103, 127, -52, 59, 19, -71, -6,
    45, 64, 55, 94, 87, 102, -50, -123,
    69, -79, -55, -30, -75, 63, 14, 107,
    -75, 12, -1, 111, -41, -3, -38, 127,
    66, -11, 17, -1, -74, 80, -55, 76,
    -35, -64, -61, -30, -45, -81, -99, -35,
    -54, 69, -37, 54, -119, -112, -127, -118,
    85, -66, -46, -23, -76, 46, 27, 100,
    -19, -14, 65, -109, -17, 94, -112, -5,
    60, -58, 9, -102, 33, -78, 4, 67,
    52, -17, -5, -38, 28, -108, 71, -95,
    -11, -19, 83, 79, -26, -116, -1, -122,
    -98, 26, 110, 76, 2, -93, 100, -101,
    3, -43, 2, 8, 54, 3, -36, 13,
    68, 66, -106, -66, -52, 25, 46, -13,
    83, -89, 26, -77, 53, -4, -114, 63,
    34, 86, 22, 1, -82, -105, -46, 41,
    -97, -126, -44, 92, 54, 102, 17, -115,
    -52, -97, 24, 57, -62, -70, 62, -115,
    41, 109, -127, -9, -36, -25, 100, 5,
    91, -123, 97, 30, 53, 21, -76, 120,
    -12, 65, -22, 53, 30, -111, -85, -43,
    33, 9, 50, 5, -120, -77, -98, -114,
    85, 62, 49, -94, 60, -18, -110, 104,
    -85, 48, -77, 53, 78, 41, -85, 43,
    -70, 32, -33, -47, -12, -95, 62, -72,
    34, -59, -58, 5, -31, 35, -76, -46,
    -73, -127, 66, -9, -65, 59, -57, -10,
    -83, -6, 48, 66, -25, 78, 68, -63,
    -83, 57, 109, 61, -41, -27, 28, 59,
    -47, -72, 79, -47, -114, 1, 114, -80,
    70, -90, -97, -26, 41, 45, 76, -117,
    -37, 37, 40, -95, 32, -19, -91, -91,
    96, 73, 122, 44, 60, 15, 41, 33,
    86, -105, 59, 123, 18, 49, -19, 127,
    -124, -76, -47, 41, 32, -17, -35, 16,
    -113, 21, 76, 117, -89, 66, 48, 76,
    -31, -123, 43, 39, 73, 13, 19, 20,
    -112, 10, -27, -9, -61, 90, -115, -108,
    3, -124, 115, -127, 14, -88, 34, -14,
    32, -29, -110, -34, 33, -112, -102, -24,
    -67, 9, 42, 5, 117, -112, -70, 39,
    -91, 92, 40, -104, 2, -34, 77, -91,
    -65, 75, 17, -37, -76, -118, -77, -44,
    -104, 51, 26, 84, -126, -80, 1, 57,
    -74, 93, -34, 37, 13, -111, -44, 91,
    -8, 4, 6, 26, -14, -111, -33, -6,
    8, 19, 2, -15, 11, -14, 13, -19,
    15, -8, 0, -7, -65, -3, -3, 86,
    57, -9, 0, -14, 22, -1, 17, 9,
    -7, -69, -19, 14, -17, 11, 27, -24,
    20, 127, -12, -14, -1, 41, 10, -5,
    58, -6, -19, -10, -15, -36, -3, -17,
    23, 23, -7, 13, -22, 11, 16, -8,
    67, -115, -12, -102, 13, -73, -52, 29,
    -17, -62, 95, -97, -39, 74, -11, 39,
    125, 107, -3, -15, -27, -109, -5, 87,
    -92, 49, -120, -90, 110, -55, 72, -33,
    3, 19, 73, -103, -108, -79, -71, 81,
    34, 9, -29, 93, -70, -48, 52, 54,
    -10, 87, 0, -65, 127, -75, 95, -6,
    64, 45, -108, -17, -102, 0, -108, 79,
    -103, -52, -30, 60, -20, -67, 37, -116,
    18, 111, -38, 81, -109, -75, -39, -37,
    -81, -126, -99, -104, 51, 20, -53, -89,
    -109, -74, 93, 108, -28, 67, -74, -16,
    94, -94, 88, 42, 39, 125, 127, -30,
    49, 61, 8, -70, 22, 79, -15, -108,
    64, 12, -44, 83, -15, -64, 23, 81,
    3, -84, -123, -66, -44, -21, 21, 98,
    2, 0, 23, 10, -1, 78, -13, -37,
    8, -6, 13, 15, 5, 14, -9, 6,
    -3, -3, -8, 14, 127, -13, -25, -60,
    -63, -37, -9, 4, -2, 3, -6, 17,
    3, 87, 7, 13, 4, -12, 5, 76,
    -4, -5, 36, -2, -13, -24, 1, -13,
    -28, 10, -9, 32, -1, 24, 11, -1,
    -21, 4, -12, 17, 5, 14, 3, -5,
    -10, -1, 2, -2, 8, -27, 16, 13,
    -14, 12, -8, -3, 14, -7, 0, -5,
    5, -6, 4, 1, -57, 10, 20, 10,
    58, 14, 9, -7, -9, -9, -7, 3,
    3, 14, 10, 1, -6, -10, -6, -34,
    -1, 127, -26, -8, 7, -11, 8, 0,
    -11, -7, 8, -11, 12, -5, -9, -1,
    30, -5, 7, -7, 20, -15, 0, 6,
    20, 38, 31, -1, -73, -39, -36, -49,
    73, -127, -42, 43, 67, -81, -118, -37,
    -5, 33, 45, 15, 55, 38, -103, -108,
    -81, 9, 55, 103, 102, 41, -27, -12,
    -62, 54, -65, -26, 62, 65, -4, -34,
    -73, -66, -15, 91, -24, -71, -108, -40,
    65, -48, -39, 25, -65, 68, -26, 60,
    58, -27, 93, -50, -58, -55, -3, -40,
    -90, 56, -83, -33, 123, 78, 2, -76,
    87, 22, 52, -65, 33, -127, -64, -48,
    54, -49, -122, -112, 78, 29, 112, -13,
    -79, -89, 11, -41, 23, -86, -121, 3,
    117, -27, 9, 93, 113, -111, -125, 19,
    -65, -78, -34, 53, -31, -71, 100, 45,
    53, -49, -126, 53, -22, -121, -100, -73,
    -92, -76, 31, -61, -33, -12, 24, -22,
    -39, -31, -37, -97, 17, -7, -103, 76,
    -73, 79, 14, 57, 43, -73, 92, -19,
    20, 48, 36, -35, -1, 60, -106, -5,
    20, 17, 75, 103, -60, 61, -58, -21,
    -81, 86, -27, -81, 86, 91, 94, -48,
    26, -24, 4, -97, 100, -76, 53, -126,
    -110, 72, 0, 63, 9, 77, 5, 110,
    -96, 40, 61, 28, 69, -62, 89, -127,
    72, 21, -16, -89, 56, -49, -56, -67,
    125, -111, 13, -32, 59, -65, 26, -121,
    -113, 108, -46, -100, -38, -79, -57, -26,
    -54, 14, -19, -49, -12, -74, -98, -122,
    55, -69, -4, -105, 53, -9, 53, -49,
    17, -45, -88, -108, 6, 100, -57, -99,
    63, 124, -55, -35, 73, 127, -94, -62,
    -95, 30, -1, 4, 24, 122, -46, 60,
    -33, 59, 41, -126, -123, -49, -30, 61,
    43, 3, -98, 24, -79, -101, -85, -56,
    34, 64, -63, 45, -127, -34, -12, -112,
    28, -111, -86, 29, -91, 93, 29, -72,
    66, -53, 33, 2, 29, -79, 16, -103,
    -47, -64, 76, 37, -9, 81, -12, 82,
    -21, 77, 74, -61, -100, -6, -100, -86,
    -116, -109, -58, -113, 71, 70, 1, 16,
    9, 24, -8, -2, -6, -107, -36, 22,
    -2, 20, -16, -13, -2, -15, 0, 11,
    46, 3, -8, 7, -75, 1, -7, 127,
    71, -18, -15, -6, 7, 0, -3, -4,
    3, -80, 2, 10, 11, 7, 33, -46,
    15, 121, -5, 1, -3, 56, 7, 22,
    70, -11, 12, -38, -33, -53, 13, 9,
    57, 16, 7, 16, -17, 35, 0, -12,
    -62, -93, -32, -4, 89, -19, 67, 73,
    -101, -118, -80, 103, 114, -92, -50, 115,
    62, -82, -12, 127, -68, 57, -122, 29,
    -20, -76, -116, -115, 36, -46, 127, -100,
    105, 10, 67, -88, -33, 13, 21, 126,
    -120, -33, 51, -4, 124, -5, -62, -122,
    -27, -101, -22, -26, -80, 23, 69, -79,
    -88, 24, -50, 94, 103, 32, -77, -44,
    -6, 61, 64, 69, -116, 82, 42, -18,
    -124, -91, 65, 16, 20, -126, -16, 19,
    74, -58, -66, 73, 16, -49, -7, 47,
    15, -48, -44, 25, -18, -19, 15, -118,
    -99, 30, -15, -43, 9, -69, -90, -89,
    -76, -87, -64, 57, 49, 74, -64, -125,
    62, -90, -56, 56, 9, -92, -105, -62,
    -28, 66, -89, -99, 62, -127, 22, -17,
    -7, 8, 8, 15, -14, -35, -16, -16,
    18, -2, 17, 12, 2, -16, 12, 16,
    -5, -14, -9, 14, -58, -15, -9, -1,
    -65, -12, -2, 15, 4, -11, 10, -20,
    7, -27, 9, -9, -4, 7, 12, 5,
    16, -127, 0, 13, -6, 4, 13, 9,
    24, 12, 7, 28, -11, -31, 2, -17,
    -68, -9, -5, 14, -17, 3, -17, -4,
    -118, 63, -68, -56, 77, 100, -74, -80,
    -19, 47, -6, -52, -108, -100, 36, -101,
    -68, 41, -78, -90, -82, 105, 21, -127,
    -7, -111, -87, -2, -100, 8, -9, -46,
    116, 66, -20, -77, -28, -97, 90, -88,
    102, 2, 9, -52, 115, -81, 102, 92,
    -13, -26, -60, 44, -118, 106, -86, 65,
    -124, 39, -108, 5, -88, -113, 8, -25,
    85, -43, 41, -53, -35, -15, 65, -48,
    -51, -19, 98, 14, -5, 43, 59, 49,
    41, -55, -59, 98, -41, -7, -34, 53,
    -85, -39, 9, 83, 87, 36, 102, -94,
    99, 20, -96, -27, 25, -94, 59, -18,
    -21, -90, 65, -69, -2, 33, -127, -89,
    -88, 53, 5, 51, 9, -37, 50, 47,
    39, -1, -9, 30, -76, -53, -36, -46,
    -53, 56, -114, 56, -124, -87, -102, 123,
    126, -70, -53, 17, -113, 119, -28, 61,
    120, 103, -81, -32, 81, 85, -116, -121,
    13, 32, 26, -11, 117, 65, 92, -118,
    -106, -31, -75, -75, 7, 74, 86, -3,
    -115, -52, -127, -50, -81, -67, -17, 46,
    -74, -21, -77, 62, 115, 116, -26, 104,
    -5, 18, 35, -52, 7, 36, 125, -2,
    10, 0, 10, 1, 8, 110, 8, -1,
    -5, 1, -15, 21, -14, -1, -8, 2,
    -23, 12, 19, 5, 78, 1, 14, -127,
    -76, 33, 16, 1, -11, -9, -11, -10,
    -9, 73, -11, 11, -16, -4, -28, -1,
    1, -122, 18, 13, 2, -59, -14, 11,
    -69, 9, -5, 17, 32, 27, 16, -13,
    -45, 2, -10, -18, 13, -21, 16, 16,
    -69, -127, -87, -102, -82, -12, 75, 3,
    66, 111, -35, 98, -72, -46, 103, -93,
    -67, 102, 99, 7, -98, 89, 3, -73,
    -47, -25, 54, -10, 98, -97, -82, -79,
    -99, 11, -64, -47, 20, -33, -28, -103,
    77, 51, -86, -75, -82, -63, -108, 96,
    -23, -121, 107, -52, -94, 10, 62, -40,
    48, 117, 22, 85, 92, 109, 56, -94,
    8, -1, 5, 13, 8, -52, -20, -3,
    11, 14, -10, -4, 1, -2, -3, -4,
    28, 6, -7, 5, -27, -7, -3, 63,
    48, -5, 1, 5, -10, 1, 9, -3,
    1, -27, 10, -5, -9, -4, 14, -6,
    4, 127, 8, -5, 10, 28, 3, 12,
    28, 9, 3, -17, -17, -20, -3, -6,
    44, 7, 6, 1, 1, 27, 7, -20,
    117, -32, -62, 53, 72, -120, 46, 127,
    -82, 68, 57, -115, 23, -123, 124, 9,
    -75, -55, 87, 89, 82, 45, -46, 25,
    -95, -21, 33, -109, -24, 59, 42, 73,
    -122, 99, -4, 51, -74, 72, 3, 50,
    49, -83, 118, 115, 89, -47, -78, 95,
    -87, 76, -126, 38, 7, -119, 122, -17,
    -101, -116, 59, -79, -75, 61, -28, -8,
    -121, -124, 109, 108, -40, -49, -54, -30,
    41, -43, -93, -98, 114, -11, 29, 120,
    -13, 63, 109, 112, -102, -124, 33, -18,
    6, 103, -37, -56, -124, -24, -71, 20,
    -122, -17, 70, -92, 115, -48, -96, -124,
    -63, -127, -126, 111, 98, 50, 7, -44,
    4, -7, -38, -54, 42, -93, 65, 80,
    36, 82, -61, 22, -21, -107, 64, -16,
    127, 19, -21, -68, 2, -64, -48, -121,
    -79, 85, 114, -45, -89, -37, -106, -82,
    -122, 64, 17, -17, 58, 61, 108, 4,
    42, -42, -125, -51, -18, -31, 0, 94,
    -82, 126, 64, 98, 11, 38, 14, 61,
    -63, 48, -35, -81, 55, -86, 68, 63,
    93, 77, -44, -109, -39, -59, -101, -95,
    -47, -14, -18, -86, -18, 72, -72, 79,
    -106, -73, 114, -17, -28, -6, -69, 15,
    -70, 36, 66, -105, 60, 116, -110, 60,
    -8, 23, 14, 98, 27, -108, 41, -73,
    77, 102, 118, -48, 51, -122, -109, -10,
    -50, -88, -61, 96, -46, -84, -101, -95,
    -57, -73, -20, -85, -38, -103, 118, -95,
    -16, 73, 111, -18, -90, 52, 77, 88,
    92, -102, 127, -54, 109, -77, 26, 88,
    86, -77, -97, 29, 80, -103, 55, 118,
    -108, -52, 23, -41, -82, 9, -20, 22,
    38, 121, -62, 93, -70, 84, 20, 109,
    19, -104, -32, 81, 24, -84, 67, -78,
    2, 121, 121, 109, -14, 13, 98, 15,
    47, -52, -75, -28, -52, -118, -112, -8,
    -102, 119, 42, -12, -109, 32, -2, 112,
    -98, -55, -36, -21, 127, 22, -103, 85,
    -9, -10, 24, 10, 3, 61, 15, -27,
    29, -2, 11, 7, 2, 2, 6, -10,
    -13, -2, 5, 4, 127, 1, -17, -48,
    -73, -24, 9, 7, 2, -9, 0, 19,
    -6, 92, 3, -5, -10, -5, -17, 69,
    12, 6, 24, 8, 4, -15, -12, 6,
    -9, 3, 4, 45, -25, 35, 3, -1,
    -31, -13, -4, 21, 23, 38, 9, -9,
    123, -98, 38, 57, -116, 31, -23, -32,
    -111, -127, 123, 111, -79, 53, 45, 61,
    118, -46, -88, 50, 113, -59, 119, -69,
    -91, -88, 105, -50, -108, -45, -109, -83,
    -91, 90, 1, -24, -15, -78, -119, -81,
    22, -69, -85, -79, -76, 4, -89, 96,
    -98, -26, -108, -38, -96, 3, 56, 71,
    -70, 17, 124, -71, -29, 91, 18, -83,
    4, 14, -7, -15, -4, -22, -13, 38,
    -12, -8, -2, -15, 11, 5, -3, 7,
    3, -8, 6, -9, -127, 6, 22, 7,
    31, 34, 4, 4, 3, 4, 3, 3,
    2, -20, 7, 6, 5, -8, -2, -76,
    9, -19, -6, 10, -7, -3, 9, 7,
    25, -8, 0, -26, 7, -27, -6, -10,
    -25, 21, 7, -12, -11, -33, 3, 38,
    -17, 27, -24, 23, -12, -103, -65, 31,
    10, 12, 18, 9, -10, -33, 30, -7,
    50, -22, -13, 14, -84, 13, -3, 113,
    -87, 3, -4, 9, -8, -10, 16, 15,
    17, -106, 15, 18, -22, 13, 0, -95,
    -5, -62, 4, 4, 8, 40, 24, -14,
    127, -16, -2, -58, -24, -95, 2, -15,
    -2, 33, -17, 0, -23, 11, 7, 10,
    25, -82, -77, -38, 96, -22, 85, 12,
    90, 0, 76, -35, 44, -94, -108, -98,
    88, -33, 30, 34, 50, -39, -97, 79,
    -67, 13, -43, -74, -37, -23, 59, 31,
    -23, -96, -108, 77, -23, -83, 25, -87,
    40, -107, -127, -27, 97, 71, -91, -26,
    59, -12, 80, 22, -77, -66, -4, 42,
    -92, 41, 88, 67, -105, 43, 24, 77,
    -13, -8, -9, 13, 18, -9, -6, -2,
    26, 12, 7, 16, 9, 20, 7, 3,
    4, 6, -9, -8, 66, -10, -24, 42,
    33, -39, -7, 3, 7, 7, -2, 14,
    4, 24, -15, -8, 18, -1, -2, 57,
    8, 127, 3, 6, -2, 15, -10, 6,
    -20, 17, 14, -27, -11, 20, 4, -13,
    51, -17, 9, 12, 17, 15, 16, -8,
    97, 7, -49, -109, -69, -52, -125, 74,
    73, 10, 115, 113, 108, 110, 54, -99,
    -117, -112, 36, 39, 126, 108, -94, -53,
    101, -76, -37, 38, 123, -72, -111, -62,
    -17, 43, -61, -106, 93, 89, -7, -105,
    115, 24, -4, 17, -22, -119, -100, -98,
    -122, 127, -104, -63, -66, -111, 97, 97,
    -114, 64, -114, 35, 45, -76, -1, 58,
    -9, -14, -72, 18, -77, 49, -77, -82,
    126, 127, 118, -31, 56, -119, -72, 98,
    -18, 36, -29, -23, 6, -70, -33, 115,
    -24, -65, -40, -113, -113, -110, 90, -3,
    -59, -84, 107, 44, 70, -71, 5, -38,
    -77, -68, 79, 39, -1, -33, -106, -11,
    -1, 101, 57, 65, 85, -52, 101, 78,
    28, -98, -22, -108, 97, -117, -125, -84,
    12, 11, 9, 10, 6, 100, 12, -4,
    1, -18, -3, -9, -3, 16, -16, 6,
    -35, 1, 13, -9, 53, 4, -1, -108,
    -52, 11, -1, -8, 2, -1, 12, 12,
    3, 53, 8, -11, -1, 5, -11, 5,
    -7, -127, 7, -6, -15, -46, -19, 4,
    -57, -10, -3, 20, 40, 30, 12, -7,
    -13, -11, 3, 13, 25, -3, -6, 5,
    -65, -37, 80, -58, -58, 21, 4, -54,
    106, 7, 29, -118, -1, 58, 25, 113,
    -127, -78, -5, 71, -87, 19, 46, -63,
    -48, 56, -61, 120, -52, -36, -91, -61,
    -39, -117, 66, 50, -14, -56, -67, 99,
    -120, 56, 66, -108, -79, -78, -48, 76,
    -121, 119, -17, 60, -23, 48, 96, -103,
    -21, 8, 96, -43, -105, -106, -61, 41,
    13, -97, 13, 72, -93, -60, 10, 67,
    60, 51, 31, -126, -39, -67, -89, 17,
    -100, -64, -27, 40, 45, 87, 103, -4,
    -79, 51, 47, 107, -33, 59, -107, -126,
    -43, -115, 4, 11, 70, 100, 49, -98,
    27, 64, 29, -41, 112, 16, 95, 35,
    -24, 103, 99, -127, 102, -102, 27, -75,
    -43, -42, -105, 83, 97, 16, -95, -110,
    36, -79, -125, 83, -69, -7, 96, -85,
    63, -82, -100, -48, -106, -13, -92, 27,
    79, 107, 16, -90, -76, -23, -127, 83,
    -122, 72, 54, 120, 63, 103, 112, 2,
    52, -6, -108, 109, -46, -72, -16, 87,
    -116, -11, 9, -117, -55, 103, -37, -25,
    -4, 69, 116, -106, 49, 3, -116, 65,
    79, 50, 7, -101, -7, -79, 72, 30,
    101, -92, -100, -21, -36, -102, 50, 36,
    -28, 4, -110, 57, -12, 0, -7, 95,
    -75, 92, 109, 94, -87, 64, -71, -44,
    -82, -7, -36, -78, -127, -87, 105, -38,
    -9, 94, 99, -19, 14, -95, 83, -101,
    73, 114, 8, -71, 102, -28, -82, -2,
    -61, 34, 18, -103, 52, 39, 11, 84,
    -109, 114, -28, 62, 109, 68, 18, -102,
    -10, 28, 5, 7, -10, -85, -35, 34,
    -5, 3, 1, -15, 20, 11, 15, 18,
    25, 3, 5, 21, -127, -15, 18, 89,
    33, -20, 12, 11, 14, 3, 1, 0,
    -4, -92, -16, 20, 23, 22, 30, -95,
    16, 51, 7, 15, -13, 34, -8, 28,
    101, 21, -1, -32, -5, -46, -13, -7,
    -41, 6, 13, -11, -18, 29, -1, 4,
    -3, -15, 9, 13, 11, 20, 12, -23,
    14, 2, 1, 10, -14, 2, 2, -14,
    -4, -14, 14, 4, 106, 5, -31, -17,
    25, -31, 6, 10, -2, 9, 2, 18,
    8, 80, -2, -5, -15, -4, 17, 87,
    -10, 127, 11, 5, 10, 1, -1, -4,
    -31, 4, -11, -3, -20, 38, -10, 16,
    48, 6, -16, 12, 26, 20, 5, -20,
    -5, 1, -2, 6, 6, 58, 12, -35,
    15, 12, -6, 4, -8, 10, 9, 2,
    -19, -11, 4, -7, 127, -3, -26, 2,
    12, -33, -1, 1, -10, -4, 14, 7,
    -5, 73, -7, -1, 7, -8, 12, 60,
    -14, 112, 10, -3, -12, -3, 8, 5,
    -41, -5, 7, -14, -24, 22, -5, -7,
    38, -1, 6, 7, 23, 6, 0, -28,
    -123, 12, 92, -121, -4, -66, -42, 117,
    91, 41, 3, -5, -127, -97, -28, 121,
    75, 73, 30, 117, -75, -19, -18, -82,
    -102, -11, -106, -95, 20, -16, 31, 45,
    109, 50, -71, 123, 108, 61, 31, 36,
    60, 17, 27, -38, 35, -89, 88, 2,
    -26, -87, 59, 28, 5, -40, -67, 53,
    7, -88, 121, -113, 12, -90, -56, -88,
};
static const int32_t b1[64] = {
    -487, -110, 143, 268, -278, -11, 570, 336,
    -284, -112, 460, 233, -668, -429, -102, 688,
    -334, -291, 472, 414, 635, 459, -115, 626,
    464, -194, -180, -779, 694, 292, 673, -663,
    -114, 546, -378, 282, -721, -37, -527, 100,
    -494, -240, -396, -601, -57, 502, -383, -117,
    635, 116, 189, -811, -510, 343, 448, 78,
    -205, -195, 365, -25, -24, -365, -358, -753,
};
static const int32_t mult1[64] = {
    30780, 20296, 21593, 16653, 19341, 20377, 28612, 29393,
    29196, 32404, 19316, 29017, 29256, 16565, 18556, 28846,
    29379, 16430, 29316, 16737, 29230, 31716, 20736, 27786,
    29358, 32677, 22270, 17999, 29308, 30137, 28541, 17705,
    27103, 29350, 17260, 26823, 30665, 18406, 28645, 24530,
    29491, 21657, 28266, 29032, 28294, 28729, 29276, 32060,
    29272, 19349, 20203, 31765, 27032, 29145, 29405, 28109,
    31047, 32299, 29403, 29376, 21601, 28379, 31953, 30048,
};
static const int32_t shift1[64] = {
    23, 22, 22, 24, 22, 21, 25, 22,
    25, 25, 22, 25, 25, 21, 21, 25,
    25, 24, 25, 24, 25, 25, 22, 25,
    25, 22, 21, 24, 25, 25, 25, 24,
    22, 25, 24, 22, 25, 24, 25, 22,
    25, 21, 25, 25, 25, 25, 25, 22,
    25, 21, 22, 25, 22, 25, 25, 22,
    25, 25, 25, 25, 22, 22, 22, 25,
};

/* Layer 2: [64] -> [3] */
#define LAYER2_IN  64
#define LAYER2_OUT 3
static const int8_t w2[192] = {
    92, 47, -127, 34, 26, 78, 1, -68,
    10, -9, -44, -5, 10, 97, 76, 3,
    -24, -18, -12, -2, 27, -5, 44, -10,
    0, 41, 91, -7, 0, -21, -1, -20,
    44, -9, 6, -49, 20, 10, 10, -108,
    -16, 41, 13, 29, 13, 12, -18, 37,
    14, -29, -14, 20, 59, 11, -12, -77,
    5, -27, 9, 8, 23, 68, 27, -17,
    -3, 15, 5, 4, -44, -127, -5, 13,
    -2, -2, 8, 3, 0, -19, -96, 2,
    4, -3, -3, 3, 5, -4, 6, 4,
    -3, -48, -3, -1, -3, -4, -4, -5,
    2, -2, 2, 8, 3, 1, -5, 17,
    -2, -3, -1, -4, -2, 0, 0, -67,
    -5, 32, 4, -2, -15, -3, -3, 21,
    4, 0, 0, 4, 8, -11, -22, 1,
    -62, -81, 49, 3, 23, 13, -5, -1,
    -7, 7, -23, 3, -1, -1, 16, -3,
    4, 4, -4, -2, -4, 3, -24, 7,
    0, 21, -71, 4, 3, 4, -1, 3,
    -95, -6, -6, -32, -1, 5, 5, 49,
    3, -32, -7, 4, -8, -3, 4, 25,
    3, -93, -127, 4, -6, -7, -1, 45,
    2, -1, -3, 7, -57, 10, 2, -1,
};
static const int32_t b2[3] = {
    -625, 123, 66,
};
static const int32_t mult2[3] = {
    18520, 24361, 18658,
};
static const int32_t shift2[3] = {
    25, 23, 23,
};
