/* Auto-generated by ml_training/rl/export_policy_c.py — DO NOT EDIT */
/* Student MLP (FP32): 16D input, 3 actions */
/* Total params: 5,443 */
#pragma once

#define STUDENT_STATE_DIM  16
#define STUDENT_ACTION_DIM 3
#define STUDENT_NUM_LAYERS 3
#define STUDENT_USE_INT8   0

/* Layer 0: [16] -> [64] */
#define LAYER0_IN  16
#define LAYER0_OUT 64
static const float w0[1024] = {
    -1.42166018e-01, -5.33140302e-02,  6.22228086e-02,  2.47895360e-01,  2.41756320e-01,  1.36817604e-01,  1.56844676e-01,  2.35748887e-02,
     1.09142661e-02, -7.76190162e-02, -9.82708931e-02,  2.47581542e-01, -1.27675444e-01, -1.62679255e-01, -5.03967702e-02, -2.16577232e-01,
    -1.42949092e+00, -8.66296351e-01, -7.40865827e-01,  2.27119282e-01, -7.67117858e-01, -7.39818752e-01, -6.72203779e-01, -7.82578647e-01,
    -9.06598032e-01, -9.66773406e-02, -9.36910391e-01, -3.91540557e-01,  5.12230843e-02,  2.01167181e-01, -1.50297716e-01,  1.77419737e-01,
    -2.20426381e-01, -6.07055783e-01, -1.19528580e+00, -6.05330765e-01,  7.96990767e-02, -7.39795789e-02, -7.83497810e-01, -1.00292504e+00,
    -7.68843114e-01, -6.65154874e-01,  7.65586644e-02,  2.33905271e-01, -4.99236770e-02,  2.09344506e-01, -2.86629647e-01,  1.82945896e-02,
     3.04438829e+00,  3.39085937e+00,  2.43974298e-01, -1.86488581e+00,  1.79735601e+00,  5.45458555e-01,  9.53661501e-02,  2.85708070e-01,
    -1.99173519e-04, -1.58030164e+00,  1.86766899e+00,  3.14383566e-01,  1.72798082e-01, -5.97999198e-03,  4.23238546e-01, -2.33992624e+00,
     4.20201570e-01,  1.37234107e-01,  6.25843287e-01, -1.23664387e-01, -1.30986050e-01, -1.67148426e-01,  5.57935715e-01,  5.66456079e-01,
     6.85894549e-01, -5.50448716e-01,  1.05436794e-01, -2.14239597e-01, -1.28979087e-01,  9.61493030e-02,  1.28167018e-01, -1.98672250e-01,
    -7.65706738e-03,  6.30755663e-01,  8.65624368e-01,  4.60041672e-01, -7.99062997e-02,  2.16861561e-01,  4.73565400e-01,  7.60086417e-01,
     7.15790629e-01,  2.78613597e-01,  1.79432482e-02, -1.31111160e-01, -1.54113233e-01,  6.70835376e-02,  4.43252325e-01, -4.57105815e-01,
    -1.72080863e-02,  1.57215655e-01,  1.05709302e+00,  4.71636623e-01, -4.36957657e-01, -2.75296777e-01,  5.63147247e-01,  5.01366436e-01,
     9.34918463e-01,  3.91234219e-01, -6.39681742e-02, -1.24438666e-02, -2.76954859e-01,  1.14995480e-01, -1.41042590e-01,  2.56616533e-01,
     2.32948005e-01,  4.32936788e-01,  9.69611168e-01,  3.31742316e-01, -3.85648400e-01, -8.49968046e-02,  6.13964915e-01,  7.94466019e-01,
     8.99070024e-01,  1.36550978e-01, -1.62705988e-01, -2.11508378e-01,  2.42539309e-02, -6.63794577e-03,  1.97365180e-01, -2.93310821e-01,
    -2.70425618e-01, -3.38428259e-01, -1.00074434e+00, -5.40604889e-02,  3.51108313e-01,  2.13880271e-01, -8.53840888e-01, -7.36476123e-01,
    -8.74585927e-01, -5.37112653e-02, -1.86518691e-02,  3.15137327e-01,  2.45964631e-01,  8.13825149e-03, -1.95832089e-01,  8.97734836e-02,
    -1.84724569e+00, -1.61818957e+00,  8.81730735e-01,  1.63784659e+00, -1.14362299e+00, -3.15401971e-01,  4.35364187e-01,  3.62270713e-01,
     7.64245272e-01,  1.44161832e+00, -1.30445397e+00, -5.55903018e-01, -2.63838354e-03,  8.53461549e-02, -6.01974726e-01,  2.47633457e+00,
    -1.35601670e-01, -2.59926319e-02, -1.20845437e-01,  7.63300061e-02,  1.65825248e-01,  7.76815414e-02, -8.60397220e-02,  1.76663607e-01,
    -1.57357097e-01,  1.53231204e-01,  1.68619782e-01,  1.48686975e-01, -2.03967094e-02, -2.27289617e-01, -6.60857856e-02,  1.93302482e-01,
     5.80700561e-02, -7.77482092e-01, -9.53515053e-01, -7.09777921e-02,  3.39647681e-01,  1.42103642e-01, -7.05272257e-01, -6.52897775e-01,
    -4.71612900e-01,  9.95371677e-03,  2.51969397e-01,  7.19201788e-02, -7.10068084e-03,  1.09248266e-01, -6.71634972e-02,  2.87370294e-01,
     4.27701563e-01,  2.22437710e-01,  6.16692066e-01,  2.29031652e-01, -1.31867647e-01,  2.72758193e-02,  9.35192764e-01,  6.60468996e-01,
     7.41216600e-01,  1.95986792e-01, -1.06289446e-01, -1.85339704e-01, -5.66350557e-02,  9.40958336e-02,  4.33592945e-01,  5.13579011e-01,
     4.49859232e-01, -5.42169333e-01, -8.14213514e-01, -8.64308774e-01,  7.88900137e-01, -7.75009617e-02, -1.00547600e+00, -5.45286477e-01,
    -6.66233599e-01, -1.18567002e+00,  4.81691748e-01, -1.25655264e-01, -7.54624829e-02,  1.17176525e-01, -2.59735554e-01, -3.83161306e-01,
    -3.23794037e-01, -2.11850315e-01, -7.30744362e-01, -1.47521645e-01,  3.14426661e-01, -1.03429392e-01, -7.95462072e-01, -8.05623293e-01,
    -8.90517592e-01, -3.93066078e-01, -1.06944211e-01, -3.83717865e-02,  1.24299511e-01,  7.15500936e-02, -1.32242411e-01, -3.97136569e-01,
     2.37088948e-01, -1.86531693e-01, -9.68156457e-02,  1.57957077e-02, -1.18492872e-01,  1.08078629e-01,  1.69537455e-01, -1.29382432e-01,
     1.14863962e-01,  1.50740087e-01,  1.74249113e-01, -1.98238522e-01,  1.56546891e-01, -2.27304786e-01,  1.34421140e-01,  1.83971852e-01,
    -3.06508601e-01, -8.93250585e-01, -4.75584447e-01, -2.07447559e-01, -1.24140896e-01, -2.66397625e-01, -4.95995402e-01, -4.87307429e-01,
    -7.27329314e-01, -6.51847646e-02, -1.54871896e-01, -1.81760192e-01,  2.02835098e-01, -5.96216992e-02,  1.10519931e-01,  1.18257821e-01,
    -2.30586886e-01,  2.46897966e-01, -3.15096080e-02,  1.02863014e-01, -5.18199205e-02,  2.17303932e-02,  7.25527704e-02, -2.90248990e-02,
    -3.22155654e-02,  1.31691277e-01,  1.66907310e-01,  9.41940844e-02,  6.22101724e-02, -2.01208621e-01,  2.10878074e-01, -2.17070580e-01,
    -2.49595642e-02,  4.59810495e-02,  1.22297764e-01, -5.16233146e-02, -1.71736836e-01, -6.80636764e-02,  2.18920708e-02,  6.00402057e-02,
    -1.49109811e-01, -1.79822892e-01,  1.52483881e-01,  2.19283313e-01,  2.27527559e-01, -1.85834706e-01,  1.27799571e-01, -3.65954638e-02,
     1.32311583e-02,  3.65853310e-04,  5.49083352e-02,  2.41979897e-01,  4.03264165e-02, -2.00352073e-01, -1.38119936e-01, -2.07726896e-01,
     1.08789742e-01,  1.10062957e-01,  7.48835206e-02,  3.94983292e-02,  8.72060061e-02, -1.14594400e-01,  2.89974809e-02,  3.45510244e-03,
     3.06076050e-01,  6.53817654e-01,  1.08354509e+00, -3.14756446e-02,  1.11935914e-01,  1.98979586e-01,  7.18464255e-01,  8.28980923e-01,
     6.91632628e-01, -3.53246219e-02, -3.79777491e-01, -2.81221922e-02, -1.07417963e-01,  4.09869328e-02,  2.51068562e-01, -1.91774398e-01,
    -1.13781005e-01, -3.36709619e-03, -1.33383274e-03,  1.10601187e-01, -2.20518708e-01, -4.86871898e-02,  2.46132404e-01, -1.32337987e-01,
     2.97056139e-02,  1.31320000e-01, -7.34912157e-02,  1.83617473e-01, -1.09425873e-01,  9.55423713e-03,  7.46211410e-02,  4.42247689e-02,
    -3.94666106e-01,  8.20371449e-01,  5.08367836e-01,  4.85444367e-01, -7.73887455e-01, -4.83591184e-02,  6.13174379e-01,  6.01416767e-01,
     6.79398119e-01,  3.30556273e-01, -6.87196612e-01, -2.38639116e-01, -2.74670184e-01,  1.95702374e-01,  2.76478324e-02, -1.88742012e-01,
    -4.03029501e-01, -7.68266380e-01, -8.95599663e-01, -4.92161922e-02, -1.91673204e-01, -1.46921068e-01, -4.48014259e-01, -3.97173345e-01,
    -5.98728001e-01,  6.48270994e-02, -7.55982324e-02,  2.68018454e-01,  2.85593271e-01, -9.23842043e-02,  2.35504732e-01,  3.62142593e-01,
     3.71828377e-01,  1.25633895e-01,  6.72388256e-01,  1.29845172e-01, -1.20155700e-01, -1.50876967e-02,  5.94005823e-01,  5.94026566e-01,
     6.27519071e-01,  3.16285461e-01, -1.00668594e-01, -2.35281259e-01, -1.67034984e-01,  7.51541853e-02, -6.86422512e-02,  8.37600902e-02,
     1.87562183e-01,  6.28990769e-01,  8.23002338e-01,  2.10160226e-01, -2.84800287e-02, -1.17306057e-02,  7.55725563e-01,  7.55730987e-01,
     7.66607642e-01,  3.48879695e-01, -3.46880734e-01, -2.59149492e-01, -2.04290301e-01,  1.10324174e-01, -6.73242509e-02,  6.81637675e-02,
     6.72379732e-02,  4.54821885e-02,  2.02192247e-01,  1.96731985e-01, -3.42283547e-02,  1.03632450e-01,  8.44204426e-02,  1.57223791e-01,
    -9.36660171e-03,  2.04341173e-01,  1.49074793e-01,  1.89712435e-01, -1.42415524e-01, -2.15723664e-01, -1.99490786e-03,  1.81388676e-01,
    -1.66462928e-01,  2.20918030e-01,  1.52463287e-01,  1.08665615e-01, -9.61640477e-03, -1.44067734e-01, -2.25267142e-01, -6.06841147e-02,
    -1.48099929e-01, -2.32161283e-02,  1.94737554e-01, -1.40377820e-01, -1.76936358e-01, -1.55924886e-01, -1.63913697e-01,  2.41504312e-02,
     1.35433704e-01, -1.91947758e-01, -6.38471544e-02,  1.80774152e-01, -3.81596684e-02, -1.06170893e-01, -2.38749892e-01, -6.57725930e-02,
    -2.00533301e-01,  1.43696368e-02, -1.99076802e-01,  1.79656416e-01, -4.75483239e-02, -2.08669603e-01,  4.30031419e-02, -1.87830210e-01,
    -3.79622579e-02, -1.87456608e-05, -1.93704635e-01,  9.49265957e-02,  7.22189248e-02,  8.74949396e-02, -2.44922429e-01, -1.97547674e-01,
    -1.96207941e-01, -1.45954221e-01,  2.20553130e-01, -1.89591676e-01, -2.18096673e-01, -2.18074501e-01, -1.26841366e-02,  2.49935299e-01,
     4.35760379e-01,  5.28298199e-01,  6.05377138e-01,  3.53162110e-01,  1.60538107e-01,  2.18462616e-01,  9.14792478e-01,  5.11770546e-01,
     7.51395881e-01,  1.05944082e-01,  9.30170864e-02, -1.87264249e-01, -1.30059510e-01,  4.24636677e-02,  3.07038575e-01,  6.54990748e-02,
     5.99445820e-01, -2.62919813e-01, -9.04583514e-01, -6.94182515e-01,  1.05030835e+00,  1.19887106e-01, -5.57232499e-01, -4.12164032e-01,
    -3.94439638e-01, -8.78645301e-01,  7.26926684e-01,  5.88775761e-02,  1.00741737e-01,  1.26826033e-01,  2.62179345e-01, -1.62004024e-01,
    -9.99648869e-02,  1.23915017e-01,  1.14383698e-02, -2.23149002e-01, -2.03551173e-01, -3.77324224e-02,  2.01539099e-02,  1.43270910e-01,
    -1.62438512e-01,  1.67050093e-01, -1.10734701e-01,  7.72601366e-03, -1.11659706e-01, -1.75452828e-02, -1.26428723e-01, -7.32847750e-02,
     4.69676733e-01,  3.71703207e-01,  8.16777885e-01, -2.01830044e-01,  2.28159130e-01, -3.68580371e-02,  5.37735939e-01,  4.02423829e-01,
     6.48849487e-01, -2.42609769e-01, -1.66297331e-01,  8.14914629e-02, -1.41067669e-01,  7.91341215e-02, -1.23227172e-01, -3.27655315e-01,
     2.42209196e-01,  1.56232476e-01,  1.47453696e-01, -1.36012316e-01, -9.97783542e-02, -1.01386666e-01,  1.18096471e-01,  1.50429040e-01,
     2.22240120e-01,  1.93331003e-01, -2.28410363e-01, -2.34042943e-01, -1.84848398e-01, -1.24233395e-01,  4.81444299e-02,  2.00999886e-01,
     7.73002803e-02, -2.47367740e-01, -2.04162240e-01,  4.64788377e-02, -1.10534966e-01, -1.34574473e-02, -1.44054830e-01,  1.42133325e-01,
    -1.66772425e-01, -6.19686246e-02,  2.18395054e-01,  1.84502244e-01,  7.80086219e-02, -2.07381725e-01, -2.32248157e-01, -1.75786912e-02,
    -5.82388222e-01, -7.28096068e-01, -7.80412614e-01, -5.90509214e-02, -3.01693946e-01, -1.11404926e-01, -6.29317880e-01, -7.66487837e-01,
    -7.59974420e-01, -1.67373836e-01, -3.70056741e-02,  3.08616739e-02,  8.77172798e-02, -1.09912874e-02, -9.44028795e-02,  2.49880403e-01,
     8.85644555e-03,  1.30794078e-01,  1.67368323e-01, -1.07729137e-01, -1.46842927e-01, -2.07450539e-01, -5.69432676e-02,  5.57727814e-02,
    -1.07063740e-01, -2.08356529e-01, -2.39807189e-01,  1.40421242e-01, -1.30170733e-01, -1.41395092e-01, -6.79572821e-02, -1.30425006e-01,
    -8.63382593e-02, -7.39755511e-01, -9.79489803e-01, -3.21198925e-02,  9.74218398e-02, -3.62812206e-02, -8.96218240e-01, -7.71746099e-01,
    -7.09435225e-01, -1.38162374e-01, -1.68621317e-02, -2.36214437e-02,  2.06285685e-01, -5.57804946e-03, -2.50062905e-02,  1.48803890e-01,
    -1.15620233e-01, -1.21856928e-01, -1.01695812e+00, -4.67782944e-01, -9.69758164e-03, -1.88898876e-01, -7.01809764e-01, -9.14340615e-01,
    -1.12810063e+00, -4.49143440e-01, -1.09394183e-02,  6.65821582e-02, -3.88723165e-02,  8.13995600e-02, -8.45730007e-01, -6.81225806e-02,
    -5.49701452e-02, -7.11226165e-02,  2.04762816e-01, -2.18814969e-01,  7.07426667e-02,  4.82841730e-02,  2.08527654e-01,  2.39789546e-01,
    -1.04751080e-01, -4.30752337e-02,  1.91507101e-01,  2.18997300e-02, -2.47301668e-01, -6.34396076e-02, -2.12677866e-01, -1.40888244e-01,
    -3.42845023e-01, -3.34912181e-01, -7.55631387e-01,  8.75979438e-02, -1.29558846e-01,  1.20711669e-01, -6.99981034e-01, -5.52609265e-01,
    -7.78261364e-01, -2.52581779e-02,  2.18759298e-01,  1.97759438e-02,  1.31691605e-01,  4.77165766e-02,  2.31806114e-01,  1.34306237e-01,
     1.50931597e-01, -5.25188088e-01, -6.58372283e-01, -5.20016849e-01,  3.20232540e-01,  1.12718314e-01, -5.45120001e-01, -6.69821262e-01,
    -6.07368827e-01, -2.25562826e-01,  3.43970537e-01,  1.81023970e-01,  1.59800693e-01,  1.28955254e-02, -3.59576978e-02, -2.11783335e-01,
     1.32487923e-01, -8.38842988e-02,  2.20234573e-01, -1.12739623e-01, -1.93465889e-01,  1.85762674e-01, -5.43864667e-02, -2.15302408e-01,
     7.95790255e-02, -1.07689619e-01,  1.48433656e-01, -1.65577263e-01, -9.74133909e-02,  1.41078234e-02,  1.58851743e-02, -1.45721436e-01,
     2.61363387e-02, -8.80850554e-02,  2.17926323e-01, -2.37207413e-02,  6.55617416e-02, -2.02929288e-01,  1.74910456e-01, -1.02614552e-01,
     6.87950850e-02, -2.38826305e-01, -1.15665436e-01,  1.33340776e-01, -2.38298208e-01, -1.99615389e-01, -6.00418448e-02,  1.81490988e-01,
    -1.88183263e-01, -6.57807827e-01, -7.05840409e-01, -6.24852888e-02,  8.75975862e-02, -3.61126661e-02, -5.12169838e-01, -5.65141082e-01,
    -6.26084685e-01,  1.42141908e-01, -1.08174123e-01,  1.80856153e-01,  2.02548325e-01, -5.29299304e-02,  6.21216334e-02,  8.52253381e-03,
    -2.99583405e-01,  7.80126154e-02,  8.66774023e-01,  5.54593801e-01, -3.14229667e-01, -1.62096500e-01,  8.57850015e-01,  9.24701035e-01,
     6.78477407e-01,  3.13575804e-01, -7.09121346e-01, -4.31084037e-01,  1.21982828e-01,  5.83272129e-02, -1.22683816e-01,  4.21855748e-01,
    -7.10222840e-01, -1.44530818e-01, -1.10516441e+00, -9.12234783e-02, -6.21991038e-01, -4.09175068e-01, -8.42291236e-01, -1.04696190e+00,
    -7.39369750e-01, -1.92494720e-01, -4.94344205e-01, -4.42744881e-01,  3.98838334e-02,  1.04646519e-01, -4.21655148e-01, -4.06360850e-02,
    -6.07159197e-01, -5.76333880e-01, -8.04958761e-01, -2.96237618e-01, -8.58002305e-02, -4.13899217e-03, -7.81668663e-01, -6.03191733e-01,
    -7.93304324e-01, -1.44529179e-01,  4.52079549e-02, -1.09304875e-01,  2.84248620e-01, -2.51009520e-02, -2.25828409e-01, -5.56749701e-01,
     1.39737636e-01,  3.35990787e-02,  1.58699542e-01, -2.31550336e-02, -8.00114870e-02, -9.84993875e-02,  1.58742994e-01,  6.63640499e-02,
    -2.06920147e-01,  1.61364138e-01, -1.53421283e-01, -1.46870434e-01,  2.00109184e-01, -1.98571056e-01,  2.37273335e-01,  2.49084830e-01,
     2.17039436e-01,  8.91448259e-02, -1.33256823e-01, -4.25808430e-02, -2.30088294e-01,  2.24786013e-01, -3.64947915e-02,  1.78833812e-01,
    -1.50926828e-01,  2.63423622e-02, -5.01177907e-02,  5.27709126e-02, -8.71516466e-02, -1.32076442e-01, -7.65597820e-03,  1.07751757e-01,
     4.15635556e-01,  4.33149874e-01,  9.78241980e-01,  2.33249366e-01, -2.20981240e-01, -8.94324929e-02,  8.70037973e-01,  8.79315078e-01,
     8.04899335e-01,  2.80142397e-01,  1.64385349e-01,  8.85119885e-02, -1.43936798e-01,  6.12813234e-02,  2.51448512e-01, -9.92560983e-02,
     1.30363896e-01,  5.60754061e-01,  5.27247429e-01, -2.10067391e-01,  1.77303985e-01,  1.26700968e-01,  3.28748018e-01,  4.20026034e-01,
     7.66803801e-01,  1.63989235e-02,  4.06174660e-02,  2.16071773e-03, -2.66868860e-01,  1.38634115e-01,  3.28811735e-01, -4.23049331e-02,
     4.84659195e-01,  4.50318873e-01,  6.26947999e-01,  3.15749019e-01,  1.72545612e-01,  1.24760546e-01,  6.73386931e-01,  8.47166896e-01,
     6.36534035e-01,  1.77419901e-01,  1.03190072e-01,  1.07036367e-01, -2.69111693e-01,  9.96314734e-02,  1.66404471e-01,  4.70443487e-01,
    -1.11208051e-01,  2.00064808e-01, -1.12452209e-02, -1.70642257e-01, -2.30859280e-01, -1.79362237e-01, -1.66400433e-01,  2.21952915e-01,
     1.58892393e-01,  1.57982111e-04,  1.81730628e-01, -1.03938371e-01,  1.03241384e-01, -2.49623656e-01, -1.60142481e-02,  2.28533119e-01,
     2.31338888e-01,  1.76991880e-01,  7.20628798e-02,  1.15572780e-01, -2.40719318e-02,  1.91714138e-01,  2.45141387e-02, -1.77060038e-01,
    -2.18019038e-01, -8.94453228e-02,  1.98903292e-01,  1.17231280e-01,  7.57805407e-02, -1.89651608e-01,  2.92566717e-02, -2.05662847e-01,
     3.54100645e-01,  9.46687639e-01,  8.85091364e-01,  3.18107307e-01, -2.09155262e-01,  5.72401732e-02,  6.08848274e-01,  5.96441567e-01,
     7.72174716e-01,  2.38965675e-01,  1.71652466e-01, -1.04115278e-01, -1.03311360e-01,  8.74623284e-02,  2.58756012e-01,  7.75666386e-02,
     2.46276692e-01,  6.72366798e-01,  8.26983631e-01, -2.25509331e-02, -2.50855416e-01, -1.66115329e-01,  4.79266465e-01,  4.90101099e-01,
     8.14800918e-01, -1.00684851e-01, -4.81804043e-01, -4.49650645e-01,  4.99086715e-02,  4.78046387e-02,  5.29756472e-02, -6.20790005e-01,
    -7.84877837e-02, -9.17194486e-02, -9.35332179e-02, -1.32244438e-01,  3.90747190e-03, -1.59765691e-01, -1.47566974e-01, -1.49499178e-01,
     7.51831830e-02, -8.33105445e-02,  7.87315667e-02,  8.13999176e-02,  1.50032431e-01, -2.22286850e-01,  2.37945974e-01, -2.09932745e-01,
    -1.04007609e-01, -3.42988461e-01, -1.03732109e+00, -4.30015892e-01,  1.92717239e-01,  1.78785875e-01, -8.39584231e-01, -9.91396546e-01,
    -9.14864838e-01, -3.96567672e-01,  3.72279823e-01,  2.59226978e-01,  2.23017181e-03,  1.08224548e-01,  1.11373231e-01,  1.87482275e-02,
    -2.08195001e-01, -2.77442694e-01, -8.38436007e-01, -4.36902195e-01,  4.63595092e-01, -3.03092040e-02, -9.35985208e-01, -8.50299954e-01,
    -6.41216218e-01, -5.36675334e-01,  4.21383977e-01,  1.17843293e-01, -2.61891931e-01,  1.99142829e-01, -7.00639725e-01, -1.64502170e-02,
    -3.44745666e-01, -6.57893240e-01, -8.34794939e-01, -3.01721543e-01,  1.85534894e-01, -2.86196738e-01, -7.00486720e-01, -6.34562969e-01,
    -7.19032824e-01, -3.76622498e-01,  3.47116590e-02, -1.96779579e-01,  1.44497365e-01, -1.58873331e-02, -1.09073937e-01,  2.17486113e-01,
     1.04022324e-02,  6.12857342e-02,  2.11045325e-01,  1.78798437e-02,  5.95532954e-02, -1.96595132e-01,  4.78548110e-02,  4.22610044e-02,
     1.07091129e-01,  1.07497722e-01,  1.41740888e-01, -8.13986063e-02, -1.39208496e-01, -1.75708801e-01,  2.29962617e-01, -1.84394389e-01,
     3.41333717e-01,  2.68313557e-01,  8.45784783e-01,  2.83408035e-02,  1.52716562e-01, -2.42546618e-01,  4.14691508e-01,  4.97773647e-01,
     8.63121271e-01,  1.09878957e-01, -2.03378737e-01, -1.17336266e-01, -2.33348042e-01,  1.38635367e-01, -1.12658795e-02, -1.14631824e-01,
};
static const float b0[64] = {
     2.37180442e-01, -9.09729660e-01, -9.46638227e-01,  1.88239262e-01,  2.37832770e-01,  4.76421058e-01,  7.86683917e-01,  9.46870685e-01,
    -7.10053980e-01,  6.44737840e-01, -8.36197734e-02, -4.70263928e-01,  6.63635015e-01, -9.38498139e-01, -6.01104021e-01, -2.21297622e-01,
    -4.13951367e-01, -9.11558568e-02, -1.76582009e-01,  2.18433470e-01,  8.69168997e-01, -1.13691002e-01,  7.27585554e-01, -4.36094165e-01,
     4.45797533e-01,  7.51017511e-01,  8.51148963e-02, -2.20435470e-01,  2.09965527e-01, -7.14646876e-02,  5.55143476e-01, -3.92880380e-01,
    -1.59451753e-01,  7.33461797e-01, -8.85722935e-02,  3.14436853e-02, -7.30278254e-01,  1.57653093e-02, -7.78217316e-01, -8.56600344e-01,
     6.87392354e-02, -6.91627681e-01, -6.37231112e-01,  1.75024509e-01,  2.45946914e-01, -6.10972106e-01,  8.78647566e-01, -7.54719555e-01,
    -5.17055988e-01,  4.95845973e-02,  1.18092686e-01,  9.44445729e-01,  7.17154264e-01,  5.98890007e-01, -2.47888654e-01,  2.30018646e-01,
     6.75192475e-01,  5.61635554e-01,  1.40334815e-01, -9.26762223e-01, -7.79046774e-01, -7.69348323e-01, -1.93591446e-01,  7.23985970e-01,
};

/* Layer 1: [64] -> [64] */
#define LAYER1_IN  64
#define LAYER1_OUT 64
static const float w1[4096] = {
     9.67210531e-03,  8.09181407e-02,  2.75089201e-02,  3.81627940e-02, -7.62060459e-04,  9.89815686e-03, -2.19656732e-02,  1.39545975e-02,
     6.34328416e-03, -8.45353976e-02,  9.87365842e-02,  4.79808748e-02, -3.72205749e-02, -1.06598409e-02,  1.08912505e-01, -6.19590580e-02,
     1.65572632e-02, -1.43763274e-02, -1.00912690e-01,  6.56515658e-02,  8.83253440e-02,  4.81545925e-03, -6.13272376e-02, -2.91887764e-02,
    -1.05422951e-01,  7.31481463e-02, -7.29102194e-02, -1.32783800e-02, -8.71926695e-02, -1.22530296e-01, -9.25340280e-02, -3.32870446e-02,
     1.03934556e-02, -5.88062294e-02,  1.67849958e-02, -1.02301314e-01, -2.50385646e-02,  7.68330544e-02,  6.52974471e-02,  8.61706361e-02,
     1.15189701e-02, -1.27250150e-01, -1.31564796e-01,  5.46465963e-02,  9.93247777e-02, -2.20216741e-03, -2.19456181e-02, -1.82553995e-02,
    -1.11120664e-01,  6.17175698e-02,  8.01582187e-02,  1.13446936e-01, -1.26224160e-01, -6.33619055e-02, -3.59295905e-02, -1.22658208e-01,
    -4.16317061e-02,  3.50628383e-02, -1.17560402e-01,  4.39185016e-02,  7.29930773e-02, -5.32771125e-02, -1.16671056e-01, -7.42681250e-02,
    -6.92377687e-02,  1.63021162e-02, -2.16581058e-02, -1.32822737e-01, -1.16158515e-01, -7.24905506e-02,  9.01858583e-02,  9.41543803e-02,
    -9.89830270e-02, -2.31505856e-02,  6.00587130e-02, -8.32959563e-02, -2.62748753e-03, -1.18829876e-01,  6.60331920e-02, -5.84103316e-02,
     2.54366044e-02,  1.23845473e-01, -3.44894677e-02, -9.98244584e-02,  7.06497282e-02, -3.18260491e-02,  9.47157741e-02, -1.85709875e-02,
    -6.48524761e-02,  4.53896485e-02,  4.57782894e-02,  2.27771401e-02,  1.71905607e-02, -2.84783989e-02, -1.72208771e-01,  7.17913080e-03,
     1.23226494e-01, -6.30445406e-02, -9.40308273e-02,  4.89578992e-02,  8.71232748e-02,  1.02718875e-01,  5.84685914e-02, -6.54698089e-02,
     9.91956294e-02,  7.69555941e-02, -1.30284220e-01,  6.10192418e-02,  3.24718356e-02,  3.69039625e-02,  8.30149576e-02, -1.08529128e-01,
     7.79183432e-02,  4.75107878e-02, -6.38146847e-02, -8.14158991e-02, -7.71560073e-02, -5.00254035e-02, -2.09316611e-02, -5.79257756e-02,
     7.72347376e-02, -1.64702989e-03,  9.96753722e-02, -7.45827630e-02,  1.02019068e-04,  3.85205224e-02, -2.78709680e-02, -1.07126914e-01,
    -9.01137441e-02, -1.32037640e-01,  1.20808119e-02, -1.03492528e-01,  8.60889480e-02, -5.19406572e-02, -9.68373343e-02, -6.33610934e-02,
    -6.15130030e-02,  8.47557560e-02, -7.85998404e-02, -1.05486557e-01, -9.14143119e-03,  1.63785536e-02, -6.21586815e-02,  1.04769319e-02,
    -7.60843307e-02, -5.41876107e-02,  1.10309392e-01, -1.84661299e-02,  3.25611308e-02,  3.43815684e-02, -9.19912383e-02, -1.25081569e-01,
    -8.54117721e-02,  9.33441073e-02, -4.35620546e-04, -6.12881184e-02,  2.39583552e-02, -1.22330710e-01,  3.32674794e-02,  7.06564784e-02,
     9.99273360e-03,  4.70990799e-02,  9.30864960e-02, -9.80253667e-02, -7.71958306e-02, -2.30168104e-02,  1.76321175e-02, -1.65664390e-01,
    -9.57782418e-02,  4.97973226e-02, -8.91132001e-03, -4.60124016e-03, -1.99600309e-02, -8.83729197e-03, -7.11999983e-02, -5.21240011e-02,
    -7.67717361e-02,  2.53775120e-02, -1.21641606e-02,  9.25452113e-02,  6.84489980e-02, -1.23442434e-01,  1.91773474e-02, -6.68418109e-02,
     6.70341700e-02, -9.09823850e-02,  6.81988448e-02,  2.71656923e-02, -4.01153322e-03,  4.96387817e-02,  6.96514696e-02,  6.52623177e-03,
    -1.16365403e-02,  4.91360165e-02, -1.20698638e-01,  5.13673900e-03,  8.21494609e-02,  1.54320803e-02, -7.11004287e-02,  4.00154339e-03,
     8.45250785e-02, -1.00250937e-01,  5.80171198e-02,  1.83468442e-02,  5.11025218e-03, -1.84308719e-02, -5.74568287e-02,  5.70065230e-02,
     6.86458498e-02, -7.02119768e-02,  2.94991732e-02,  6.81212991e-02,  6.57169595e-02, -8.22752118e-02,  1.00979164e-01, -2.90445928e-02,
     9.46137831e-02,  8.62004906e-02,  3.97581905e-02, -9.82708633e-02,  1.19023860e-01,  3.27647030e-02, -7.46360198e-02,  3.00687253e-02,
     2.77186334e-02,  1.66031383e-02, -3.28554064e-02,  4.80055362e-02,  1.17294163e-01,  1.46529078e-03, -4.48447876e-02, -9.04009491e-02,
    -2.08891928e-03,  3.03910058e-02, -1.79731809e-02, -2.98905224e-02,  9.57558900e-02, -4.14097030e-03, -1.24336377e-01, -9.34621394e-02,
     9.63766873e-02,  3.84955406e-02, -2.15131789e-02, -1.03934743e-01,  1.02769852e-01, -1.07245706e-02,  1.20186463e-01, -1.02604106e-01,
    -2.57903300e-02, -2.22829189e-02,  7.82383829e-02, -3.31182666e-02,  6.58885837e-02, -6.08055443e-02,  1.66676790e-02, -1.24109499e-01,
     1.20035946e-01,  1.28976226e-01,  1.64050862e-01, -5.69967151e-01,  9.17977747e-03, -3.73899281e-01, -6.54881001e-02, -3.08968097e-01,
     2.34308243e-01,  1.22829311e-01, -9.39493626e-02, -2.76408158e-03, -6.82621375e-02,  5.99090643e-02,  3.94621398e-03,  2.07899809e-02,
     2.15520486e-02,  1.10330313e-01,  4.37313616e-02,  1.31823868e-02, -4.70272303e-01,  9.17928815e-02,  4.61837798e-02,  4.45446163e-01,
     3.88750248e-02, -2.31160745e-01,  1.31515563e-02, -5.71974814e-02,  8.01604837e-02, -3.13995034e-02, -4.55431104e-01,  8.21035504e-02,
     1.00509733e-01, -4.55257177e-01,  4.82641160e-03,  8.76868516e-02,  1.07355356e+00, -3.24952155e-02,  1.98381413e-02,  3.60051692e-01,
     1.24134719e-02,  1.82323873e-01, -3.53142284e-02,  1.12906992e-01, -1.06163859e-01,  1.67514220e-01, -9.73381754e-03,  1.95095483e-02,
     1.24143444e-01,  4.09552008e-02, -1.65313929e-02, -3.91576231e-01, -1.09055325e-01, -1.22454755e-01,  6.93496764e-02,  1.15002900e-01,
    -9.57316607e-02, -1.35335475e-01, -1.15182042e-01,  1.24163724e-01,  2.00353295e-01,  3.45311791e-01,  6.71020448e-02, -1.55581921e-01,
    -2.92074978e-02,  4.35373671e-02,  3.89992297e-02, -2.39435986e-01, -1.13151819e-01, -9.34605896e-02,  9.97211859e-02, -2.04369202e-01,
     1.47714857e-02,  2.13853568e-01, -1.15942568e-01,  1.49994701e-01,  8.16319585e-02, -2.59159505e-01, -1.43205017e-01, -2.05582678e-02,
    -6.89968616e-02,  1.21777415e-01,  7.36762732e-02, -2.79803276e-02, -5.57221770e-01, -6.32101446e-02,  3.66849340e-02,  6.51657820e-01,
    -1.05087504e-01, -1.56594634e-01,  4.92928028e-02,  1.19874582e-01, -8.10539573e-02,  3.51208448e-02,  7.08959997e-02, -1.49348512e-01,
     7.11657852e-02, -6.33110523e-01,  2.41195858e-02,  8.96541774e-02,  7.81378567e-01,  4.12114561e-02,  2.62730736e-02,  1.42469621e+00,
    -4.58967686e-02,  1.17945194e-01, -6.39729202e-02, -3.23146731e-02, -2.18790770e-02,  8.27519223e-02,  8.25092569e-02, -7.06231892e-02,
    -4.07310218e-01, -1.17257774e-01, -9.08490717e-02, -1.44115552e-01,  3.71382944e-02,  1.45944193e-01, -3.76033783e-03,  3.31825316e-02,
    -2.24582572e-02,  3.64540587e-03, -2.26719379e-02,  1.30000472e-01, -2.86036497e-03,  1.04607254e-01,  5.04626483e-02, -2.30695680e-01,
    -2.92896926e-02, -6.61093965e-02,  3.34048718e-02,  2.66616326e-03,  8.81099552e-02, -1.01247415e-01, -1.27026409e-01,  7.24330917e-02,
    -1.15798019e-01, -8.39511827e-02,  1.21562630e-01, -1.02401607e-01,  2.85926405e-02, -1.19090371e-01, -7.00962767e-02, -6.64742291e-03,
    -3.82898636e-02,  5.41104376e-02, -6.64390922e-02, -1.03083491e-01,  5.41730262e-02,  1.47367418e-02, -9.20022465e-03,  3.51274014e-02,
    -3.11714108e-03, -8.59605297e-02,  3.32751125e-02,  9.29949880e-02, -8.72411132e-02,  1.30755007e-02,  3.73176336e-02,  9.23599005e-02,
    -8.63467008e-02, -1.41541928e-01,  1.02682069e-01,  8.25568289e-02,  2.47234758e-02, -8.07896256e-04, -7.58642033e-02,  4.11649942e-02,
    -9.16388929e-02, -1.15694180e-01, -1.14865154e-01, -1.20132625e-01,  6.59835190e-02,  7.13294819e-02,  1.44825289e-02,  3.79727371e-02,
    -1.34339854e-01, -4.22648638e-02,  3.60434353e-02,  7.52152205e-02, -5.47074005e-02,  4.80918437e-02,  5.27016073e-02, -1.08911291e-01,
     8.94777179e-02, -7.59066492e-02,  7.57988989e-02, -1.29101008e-01, -2.29280982e-02,  1.09295137e-02,  3.42348069e-02,  5.47181107e-02,
     8.24597478e-03,  1.30730733e-01, -1.08292975e-01, -2.70958155e-01, -5.64871132e-02,  3.02932352e-01,  1.29300952e-01,  2.63816029e-01,
    -8.11605006e-02,  7.11467043e-02,  1.18859038e-01, -2.93033533e-02,  6.13881163e-02, -1.83220878e-01,  7.71721974e-02,  3.85608375e-02,
     3.81626971e-02, -9.07619298e-03, -2.25883275e-02,  4.67392206e-02,  2.66549587e-01,  6.80117309e-03,  1.91507787e-01, -3.82342860e-02,
     8.27673599e-02,  2.17207536e-01, -1.19140938e-01,  8.76531303e-02,  1.11609370e-01,  1.84171349e-02,  3.19207483e-03, -1.77674979e-01,
     4.97279465e-02, -3.05985566e-02,  2.76317745e-02, -9.83164012e-02, -5.70126057e-01, -1.13894314e-01, -6.70699030e-02, -4.06513751e-01,
     8.34804773e-02, -1.35982692e-01, -1.30859688e-01, -2.58210301e-02, -1.03221118e-01, -9.05437395e-02,  2.24208161e-02,  1.37507096e-01,
     7.85490349e-02,  6.21495843e-02, -5.03747910e-02,  4.52474616e-02,  8.60926732e-02, -6.38335198e-02, -3.30325514e-02, -1.07789353e-01,
     5.04548959e-02,  1.61334395e-01, -1.55034661e-03, -1.06671415e-01, -2.86206365e-01, -2.70671695e-01,  1.03465647e-01,  1.14231616e-01,
     2.24813819e-03, -6.35500923e-02, -3.46861109e-02, -4.98644859e-02, -1.13889106e-01, -8.59912336e-02,  1.52866831e-02, -1.16767757e-01,
     3.87950428e-02, -2.29392629e-02,  5.32318652e-02, -4.16743606e-02,  1.17239192e-01, -1.23454481e-01, -1.04742922e-01,  1.17143527e-01,
    -7.33390450e-02, -8.18122029e-02,  3.31361592e-03, -1.01503834e-01,  1.76656153e-02, -2.01158375e-02,  9.89207029e-02, -2.29215324e-02,
     2.39972398e-02, -8.27520192e-02, -5.54011613e-02,  6.27572834e-02, -5.16231656e-02,  1.17424116e-01, -2.21996731e-03,  3.58944386e-02,
     1.04655966e-01,  2.16275752e-02,  1.21983856e-01,  3.45342606e-02,  3.13083231e-02, -1.05403498e-01,  7.31951445e-02, -1.23495951e-01,
    -7.70492554e-02,  9.61524546e-02, -9.68892351e-02, -6.24885261e-02,  1.24042690e-01,  7.61387572e-02, -1.80672426e-02, -1.92861278e-02,
    -6.63283989e-02, -5.63713163e-02,  4.45181131e-03, -7.51000568e-02,  1.05085015e-01, -3.11648026e-02, -8.36235285e-02,  1.13349289e-01,
    -3.64103317e-02,  5.01232445e-02,  3.21345478e-02, -4.49579656e-02, -2.59746015e-02,  9.94778648e-02, -1.22295111e-01,  5.16227707e-02,
    -9.28360075e-02,  8.57950151e-02, -4.67025936e-02,  8.28178227e-03,  4.60550189e-02, -1.15913630e-01, -3.34933400e-04,  2.64052153e-02,
    -1.04183346e-01, -3.02301943e-02,  6.79021329e-02, -1.06020078e-01, -3.10653150e-02, -4.49845791e-02, -1.87778473e-03,  1.23528153e-01,
     1.86136365e-03, -3.55966687e-02,  9.92445201e-02, -1.08410865e-01, -1.22174412e-01, -1.12484738e-01, -4.15823609e-02, -5.07867783e-02,
    -1.16597086e-01,  4.54650521e-02,  3.72625589e-02, -2.29886472e-02, -6.24895394e-02, -1.16892561e-01, -1.17314696e-01, -2.08357573e-02,
     1.03679255e-01,  3.13208550e-02, -1.60932541e-06,  9.53061879e-03,  6.61597699e-02,  5.93799353e-02,  6.99726641e-02,  6.43911511e-02,
    -6.68032914e-02, -1.23012111e-01,  3.64589542e-02,  1.14510641e-01, -1.11274362e-01,  1.38892978e-02, -7.01890439e-02,  4.84718829e-02,
     6.49635196e-02, -1.21032268e-01,  4.01701778e-02, -8.04247409e-02, -6.06893301e-02, -1.09915793e-01,  6.78848624e-02,  1.11480460e-01,
     1.02140918e-01, -5.55493534e-02,  4.97378409e-03, -6.06269240e-02,  1.04166314e-01,  1.24251559e-01,  2.35783160e-02, -5.97491860e-02,
    -6.45065010e-02, -6.96543008e-02,  4.44001220e-02, -5.63424826e-01, -3.65943573e-02, -4.51358268e-03,  3.82847816e-01, -8.43674093e-02,
    -2.78005078e-02,  2.77663022e-01, -6.86681271e-03, -2.91121396e-04,  2.05589190e-01, -2.31636748e-01, -6.16025366e-02,  9.18606818e-02,
    -8.70385095e-02,  3.81970108e-02, -4.41308916e-02,  1.15499198e-01,  1.13334604e-01, -6.14159554e-02,  1.50850818e-01,  2.45856583e-01,
     1.69205785e-01,  2.51653850e-01,  1.84199214e-03,  2.25855410e-03, -8.93878043e-02,  4.57131863e-02,  4.69287485e-01,  2.63313055e-02,
     6.01992458e-02, -1.57783687e-01, -3.52468491e-02,  1.88136101e-02, -8.76373529e-01, -3.76866460e-02,  3.06243673e-02, -6.81998730e-02,
     2.31285542e-02,  3.00889648e-02, -1.99117035e-01,  8.06163400e-02, -2.75570452e-02, -1.73162803e-01,  1.77104324e-02, -4.05340306e-02,
    -7.36323833e-01,  1.12330511e-01,  7.44345933e-02,  2.30393365e-01,  4.09564860e-02,  6.73884332e-01, -8.50872397e-02,  2.01827586e-02,
     1.08678937e-01, -2.01780543e-01,  8.02502334e-02, -9.13179815e-02, -1.22969918e-01, -5.14580756e-02,  9.88372862e-02,  2.10795194e-01,
     1.09569579e-02,  3.31157334e-02, -8.83883983e-02, -3.53278443e-02,  1.81688443e-02, -4.37389426e-02, -1.16734140e-01,  8.99511278e-02,
    -6.39394075e-02, -1.04554355e-01,  3.69387716e-02, -2.76867542e-02,  7.43774772e-02,  9.43226516e-02, -1.00030988e-01, -1.41931623e-02,
    -8.91742408e-02,  1.01439759e-01, -1.23284653e-01, -3.36526334e-02,  8.12082812e-02,  1.17190167e-01,  4.01440002e-02,  9.43180397e-02,
    -6.79643154e-02, -9.06569064e-02, -1.16270304e-01,  7.24676996e-02,  9.64434296e-02,  2.80016959e-02, -1.09826401e-01, -7.33824074e-02,
    -2.45700479e-02, -1.22011967e-01,  1.16762951e-01,  4.16944027e-02, -1.18428148e-01,  3.80825698e-02,  1.29905557e-02,  7.47934282e-02,
    -4.43591028e-02,  8.66475999e-02,  9.32667330e-02,  2.10407078e-02, -7.90385157e-02,  6.14280105e-02, -1.17173597e-01,  6.61156848e-02,
    -4.99001406e-02,  7.40437508e-02,  2.68601328e-02, -4.90311794e-02,  8.51890370e-02, -1.09832853e-01, -2.51583010e-02,  1.05101079e-01,
     1.12379417e-02,  6.80591166e-02,  1.02406248e-01, -1.07375778e-01,  1.02524757e-01,  9.99180302e-02, -7.58594871e-02,  5.00073731e-02,
     7.80465454e-02, -6.40051737e-02,  1.58064123e-02,  1.43715525e-02,  8.50697383e-02,  8.84489194e-02, -4.42933291e-02, -1.76597573e-02,
     1.12583693e-02, -5.80329150e-02,  1.67201012e-02, -6.83245212e-02,  1.09298795e-01, -1.10570446e-01,  3.71171325e-03,  8.83786678e-02,
     3.07402276e-02, -1.34300590e-02, -8.97032171e-02,  7.53333569e-02, -1.10963523e-01,  8.23836029e-03, -3.72966491e-02, -7.25980848e-02,
     5.49113490e-02, -1.10646859e-01,  1.51353776e-02, -1.05949342e-01, -9.53829736e-02,  3.20982933e-02,  7.77919665e-02,  4.84228171e-02,
     8.48662257e-02, -7.47872293e-02, -1.00489885e-01,  9.75995213e-02, -1.02972142e-01,  9.50163603e-02, -8.29678699e-02,  1.85900927e-02,
    -3.01478356e-02, -2.41657719e-02, -1.09718531e-01,  1.09653041e-01,  1.20964929e-01, -2.91080885e-02,  8.43701065e-02, -3.96523885e-02,
    -1.15592279e-01,  1.91575438e-02, -9.96590555e-02,  2.04266999e-02,  1.27045205e-02,  3.24705280e-02,  1.09505966e-01,  3.13393176e-02,
    -2.72759162e-02, -1.21774904e-01,  6.58477396e-02,  4.63558175e-02, -6.84658885e-02, -3.64918970e-02,  3.46901864e-02, -2.56244354e-02,
    -1.20373473e-01, -1.13329001e-01,  1.15355112e-01, -3.19556855e-02,  1.05370253e-01, -1.93853915e-01, -3.16975296e-01, -5.18933535e-02,
     1.15852073e-01,  4.24053594e-02, -6.17991388e-02, -5.63996993e-02, -7.00261146e-02, -6.37559891e-02,  3.09223887e-02,  9.32744294e-02,
     8.01242292e-02,  5.79744130e-02,  1.24125332e-01,  7.02259243e-02, -3.69013458e-01,  6.68962002e-02, -2.15443186e-02,  2.84738213e-01,
    -7.01633515e-03, -2.23149493e-01,  1.14156991e-01, -7.55209774e-02,  4.51400876e-02,  5.97526878e-02,  4.73522395e-02,  1.63306013e-01,
     3.77039760e-02, -2.64642447e-01, -1.06537998e-01,  6.34611398e-02,  5.76380789e-01,  6.87020868e-02,  1.18279815e-01,  1.81178693e-02,
     1.08501315e-01,  1.27882391e-01,  1.97080046e-01, -1.01431280e-01, -4.54470515e-04,  1.89147368e-01, -4.51233089e-02, -6.60528988e-02,
     4.84275110e-02, -7.22198188e-02,  4.87841070e-02, -1.03688873e-01, -9.81972218e-02, -2.38245755e-01, -3.07508260e-02,  6.30880892e-03,
     3.96567993e-02, -1.22423515e-01, -6.69456720e-02,  1.79013729e-01,  7.68846571e-02,  1.06317177e-02, -4.72491384e-02, -1.12753578e-01,
     3.19370329e-02,  1.32284284e-01, -1.94999129e-02, -5.91318846e-01,  3.18633616e-02, -4.37581509e-01, -1.70815885e-01, -1.33692935e-01,
     9.35687199e-02,  9.92868394e-02, -4.71200049e-03,  1.05356567e-01,  3.27253640e-02,  9.24528949e-03, -3.33102234e-02, -2.03540921e-03,
     4.46362644e-02, -2.83209085e-02,  3.37706953e-02,  8.60019177e-02, -5.81969678e-01,  9.96433198e-03,  9.89832357e-02,  3.70618641e-01,
    -1.76887035e-01, -5.96195534e-02,  6.56645745e-02,  2.12112069e-03, -7.32862651e-02,  3.77011597e-02, -4.21301544e-01, -4.62168129e-03,
     1.01247445e-01, -3.30994546e-01,  8.28735381e-02, -9.98806953e-03,  1.03636491e+00, -8.82809609e-02,  8.61761197e-02,  5.29840112e-01,
    -3.86951268e-02,  1.61130816e-01,  1.46687225e-01, -5.06374538e-02, -6.05103374e-02,  1.53055057e-01,  3.85788232e-02,  1.12945661e-01,
     4.23695445e-02, -4.83031273e-02,  3.54999006e-02, -4.25910652e-01, -1.85754567e-01, -9.74220112e-02,  3.47587466e-03, -7.23943859e-02,
    -9.56982523e-02, -1.18430816e-01,  3.01628113e-02,  1.72334641e-01,  2.87655264e-01,  3.45739484e-01, -2.35716552e-02, -1.53003991e-01,
     5.89832067e-02,  8.34241882e-02,  4.54785414e-02, -4.29001719e-01,  6.53335452e-02, -1.20378792e-01,  5.03468215e-01,  9.86840278e-02,
    -2.17094421e-01,  2.72342026e-01, -8.43798816e-02, -9.11571756e-02, -4.60786968e-02,  3.99496518e-02, -1.19505011e-01,  1.20790318e-01,
    -3.11520040e-01, -5.25382310e-02,  2.00186819e-02,  2.78420895e-02,  3.54157388e-01, -1.17006451e-01,  2.21717060e-01, -5.29855371e-01,
     1.79230317e-01,  3.23781520e-01,  6.32993579e-02,  6.77942187e-02,  1.15191206e-01, -5.32438904e-02,  2.14234442e-01, -5.38811758e-02,
    -6.56798482e-03,  4.73752558e-01,  6.43613338e-02, -3.45210880e-02, -8.50932598e-01, -2.24314630e-02, -1.36329159e-01, -4.57027107e-01,
     8.00897181e-02, -1.64990559e-01, -7.83804953e-02,  6.74257576e-02,  1.06869072e-01, -5.49765229e-01,  1.21233158e-01, -7.41562545e-02,
    -6.64618671e-01, -1.24431252e-02, -1.22434378e-01,  2.36963034e-01,  2.31180847e-01,  5.52501261e-01,  5.87666631e-02, -5.78156114e-02,
     9.92502123e-02, -1.01820305e-01,  7.54999816e-02, -1.90969169e-01,  2.74399757e-01, -2.35359341e-01,  5.69856763e-02,  2.55367070e-01,
     1.36909485e-02,  2.75517404e-02, -5.34175634e-02, -6.15451932e-02, -1.54363364e-02,  1.16723344e-01,  7.36952573e-02,  7.19875842e-02,
    -1.02144480e-01, -9.05782729e-02,  1.55268461e-02,  7.15193897e-02, -6.81061447e-02,  1.01044938e-01, -8.44091624e-02, -1.20999858e-01,
     8.55176747e-02,  1.01518154e-01,  1.24821499e-01, -5.07837683e-02,  5.81354797e-02,  1.83393806e-02, -7.02575594e-02, -6.20628893e-03,
     4.44683135e-02,  6.30279034e-02,  5.41041642e-02,  9.26420391e-02,  8.52210075e-02,  9.98287201e-02, -4.90037650e-02, -1.21247843e-01,
     6.82015419e-02, -7.77039081e-02, -5.40864766e-02, -2.90837586e-02, -7.41530657e-02,  6.19555265e-02,  1.36976689e-02,  1.05177775e-01,
    -7.33677894e-02,  1.20315999e-02, -1.02220476e-03,  1.08654112e-01, -4.07567918e-02, -2.65038013e-03, -3.75537127e-02,  1.24379009e-01,
     6.50582016e-02, -1.03864819e-02,  1.69129819e-02, -1.12780929e-03, -7.24027753e-02,  7.89348185e-02, -5.43920398e-02,  7.50018358e-02,
    -3.43636423e-02, -6.28100038e-02, -6.00432009e-02, -2.92901844e-02, -4.45457846e-02, -7.94930160e-02, -9.72456783e-02, -3.45089287e-02,
    -5.97637594e-02,  9.71090123e-02,  2.01815385e-02, -7.31733665e-02, -1.13621704e-01, -3.04148227e-01, -3.30182880e-01, -2.21075386e-01,
     2.00715050e-01, -1.45467231e-03, -5.05104065e-02,  5.65543994e-02, -3.61417048e-02,  7.96568692e-02,  5.83284870e-02,  1.09795332e-01,
     2.41503213e-02, -1.57613158e-02,  7.09212571e-02, -1.20347604e-01, -2.79550135e-01,  1.03471130e-01, -1.92350879e-01,  2.64240474e-01,
     6.96239695e-02, -1.38418570e-01,  9.64462757e-03, -1.12227395e-01,  3.60444933e-02, -8.53946656e-02, -9.18449908e-02,  1.39021441e-01,
     5.70997894e-02, -1.90483600e-01, -5.75563312e-03, -4.20003980e-02,  8.34555686e-01, -1.18714690e-01,  1.90118626e-01,  5.43075264e-01,
    -1.22273713e-02,  3.65315862e-02,  1.74858481e-01,  8.69760662e-02, -2.81375796e-02,  1.44928973e-02,  3.12898979e-02, -1.27651870e-01,
    -1.90390609e-02,  2.87729204e-02,  1.21165857e-01, -3.52063514e-02, -1.53754214e-02, -8.84303600e-02,  1.09654292e-01, -1.11154690e-01,
     1.96850356e-02, -4.79675569e-02,  2.06519663e-03,  1.09771840e-01,  2.32002273e-01,  1.58990830e-01, -3.99181247e-02, -4.57010455e-02,
     6.66260719e-02,  4.47106995e-02, -1.15480326e-01, -7.68482387e-02, -5.93920201e-02,  1.80389620e-02,  4.51817364e-02, -2.30744798e-02,
     6.68851063e-02, -1.01600938e-01,  2.55699903e-02, -8.68354589e-02,  3.54151316e-02, -4.17356985e-03, -1.25495449e-01,  6.17624521e-02,
     2.51394659e-02,  8.39795470e-02,  2.16228217e-02,  1.02251768e-03, -8.52782428e-02, -1.02775067e-01, -5.36775067e-02,  2.83749718e-02,
    -9.52900648e-02, -1.26725882e-01, -4.30433899e-02,  8.98788869e-02,  5.28264493e-02,  1.00462362e-01,  1.22372275e-02, -1.32845178e-01,
    -5.06409258e-02, -9.48101133e-02,  2.38642097e-02,  5.55598140e-02, -6.10980392e-02, -6.81616068e-02,  4.86506112e-02, -1.12933010e-01,
     4.06131148e-02,  9.15707946e-02, -1.35436073e-01, -9.18224454e-03, -3.57177854e-02, -3.35269906e-02,  7.92707503e-02, -3.65240243e-03,
     7.87184387e-02, -1.20140135e-01,  9.47886854e-02,  2.29451600e-02,  4.72115241e-02,  2.07999945e-02, -7.42900670e-02,  1.17991000e-01,
    -2.42197737e-02,  4.80334908e-02, -2.17796266e-02,  4.19017002e-02,  2.98451483e-02, -1.12474039e-01, -8.33330005e-02, -4.62315939e-02,
     3.64511013e-02, -5.10870153e-03,  4.28378507e-02, -5.23928832e-03, -1.46587580e-01, -1.20725200e-01, -1.20137095e-01, -1.31132245e-01,
     8.84209946e-02,  6.21654987e-02,  5.52194864e-02, -1.16446733e-01,  5.90479039e-02, -3.79580483e-02, -1.31862774e-01,  1.16356358e-01,
    -9.54900756e-02,  5.34035563e-02, -8.62125605e-02,  5.93010783e-02,  7.35594034e-02,  4.61610258e-02, -1.05025627e-01,  5.42800128e-02,
    -7.54849389e-02,  2.62086280e-02, -3.70739996e-02, -5.21139950e-02, -1.35156959e-02, -1.06919155e-01,  4.53564785e-02, -9.20541883e-02,
     3.82731557e-02, -7.56976232e-02, -6.49635345e-02,  5.11346757e-03, -5.16327769e-02,  3.96276414e-02, -8.75105560e-02, -5.65605760e-02,
    -8.22008252e-02, -1.47186205e-01,  6.44550472e-02, -1.00042075e-02, -7.30027258e-02,  6.60647377e-02, -7.31769726e-02, -2.16072444e-02,
    -9.93280262e-02, -6.68902695e-03,  5.41896820e-02,  5.75941019e-02, -4.73763272e-02,  7.47416317e-02,  7.66228884e-02, -7.00485557e-02,
    -8.40077698e-02,  5.41043356e-02,  1.21948481e-01,  5.83504997e-02, -5.77456653e-02, -3.23791392e-02,  3.18993181e-02,  4.74044085e-02,
    -4.62161601e-02, -7.02475607e-02,  7.71036148e-02, -4.58332300e-02, -1.11686915e-01,  1.06082857e-03,  1.11444250e-01, -7.77878761e-02,
     6.81068003e-02, -8.76832157e-02, -9.51943994e-02, -2.57787704e-02,  3.99672687e-02,  4.41685766e-02,  7.45264888e-02, -1.14221156e-01,
    -3.57966721e-02,  3.58551741e-02,  3.89781296e-02, -9.28629935e-02,  3.14964950e-02, -1.83013082e-02, -8.87415260e-02, -8.85744840e-02,
     9.42867845e-02,  7.18636364e-02,  1.19424298e-01,  4.34159636e-02,  5.86270690e-02,  1.44588202e-02,  4.00290787e-02,  3.25383991e-02,
     8.44766051e-02, -1.02883920e-01,  5.72672486e-02,  1.19820923e-01,  1.78729296e-02,  4.80513573e-02, -1.88866109e-02,  1.24188006e-01,
    -1.21324107e-01, -7.44652748e-02, -4.59670871e-02,  3.98756415e-02,  3.12834233e-02, -1.66479200e-02, -3.41515988e-02,  1.55778229e-02,
    -1.10036716e-01,  2.09278762e-02,  7.40616024e-02,  1.14844620e-01, -8.73488635e-02,  6.47745132e-02,  4.66116667e-02,  7.47634321e-02,
    -3.06262821e-02, -1.20063916e-01,  4.22574282e-02,  3.76675129e-02,  7.11948723e-02,  1.29003674e-02,  1.87122673e-02,  1.98645890e-02,
    -1.18353933e-01, -4.77460027e-03, -4.31509987e-02, -2.50778887e-02, -7.79431388e-02,  8.25170502e-02, -9.97711420e-02, -1.28283232e-01,
    -1.08561395e-02, -1.45568386e-01,  1.22369185e-01, -1.48693517e-01,  1.46841491e-03, -1.05686821e-01,  2.10598856e-02, -1.45292133e-02,
     1.93591695e-02, -3.12799066e-02, -1.17065981e-01, -3.63061428e-02,  2.19137631e-02, -1.19064003e-01, -1.21840373e-01, -4.10855822e-02,
    -8.10616463e-02, -2.23300746e-03,  4.49480563e-02,  5.28812408e-03,  1.24318719e-01, -1.18639722e-01, -1.04321517e-01,  2.61816792e-02,
    -9.62985009e-02,  8.81356150e-02,  4.27411497e-02, -1.10489368e-01,  1.71329081e-03, -3.58055830e-02,  6.77530020e-02, -7.59071708e-02,
    -6.91234916e-02,  6.70307651e-02,  2.61370582e-03, -3.90055180e-02, -8.06287378e-02, -1.40168846e-01, -9.59391743e-02, -6.11232556e-02,
    -1.27790406e-01,  5.43910116e-02,  2.75265276e-02,  7.83909708e-02, -1.44123390e-01, -6.45435005e-02,  5.50553203e-04,  6.01581782e-02,
    -6.68826699e-02,  8.38428810e-02, -3.63190025e-02,  2.43805461e-02,  3.22057158e-02, -1.32983282e-01, -4.64707911e-02,  8.40760842e-02,
    -4.50056493e-02,  4.80097905e-02,  9.97085050e-02,  2.12357387e-01,  1.83680262e-02,  3.74210440e-02,  3.28530222e-01, -2.56473962e-02,
    -8.06946233e-02,  1.07470714e-01,  1.01604760e-02, -1.97780672e-02,  1.05305143e-01,  4.68603447e-02,  3.75452675e-02, -1.05216220e-01,
    -1.18152358e-01, -4.48624045e-02, -7.32287765e-04, -3.63668054e-02,  4.44631487e-01, -1.84247792e-02,  1.55262038e-01, -3.35644692e-01,
     1.77416369e-01,  2.30016798e-01, -1.61945820e-04, -7.87840784e-02,  1.24754950e-01, -5.69070876e-03,  3.32662374e-01,  5.33855297e-02,
    -3.86774093e-02,  2.22406507e-01, -1.07043236e-01,  7.58250207e-02, -4.63139832e-01,  5.95870316e-02, -1.84016563e-02, -4.55263942e-01,
     1.11432776e-01, -1.13948248e-01, -9.47604775e-02, -7.93115795e-02, -6.94215298e-03, -1.80621132e-01,  7.93033242e-02,  4.42590145e-03,
    -2.86316156e-01, -3.06079537e-02, -1.03797495e-01,  2.84748644e-01,  2.42515564e-01,  3.68197203e-01, -1.38960779e-02, -9.42903906e-02,
     2.80857068e-02,  1.36492521e-01, -4.12195921e-02,  9.49537903e-02,  6.78460300e-02, -6.57636002e-02,  8.85204822e-02,  2.35911667e-01,
     6.19093031e-02, -1.06666476e-01, -1.11931711e-02, -9.51701105e-02,  1.17360651e-02, -6.77871406e-02, -4.85553294e-02,  2.73703933e-02,
    -1.59115791e-02, -5.77542335e-02,  8.79784226e-02, -9.01388973e-02, -3.59247178e-02,  6.89298511e-02, -1.01252198e-02,  3.60476971e-02,
     1.16028488e-01,  9.96673703e-02, -3.09337676e-03, -1.40653104e-02, -2.47011483e-02, -1.01074591e-01, -4.73102927e-03,  8.11387300e-02,
    -8.55303109e-02,  4.59946245e-02, -1.11262143e-01, -8.34758878e-02,  1.01867184e-01, -5.09614050e-02,  6.68239444e-02, -3.05221975e-02,
     2.32693553e-03,  1.75189823e-02,  6.81016445e-02, -9.58093256e-02, -1.00547791e-01, -7.36532360e-02, -6.60520345e-02,  7.54786581e-02,
     3.17918956e-02,  8.70996714e-03, -2.66968459e-02,  8.64775628e-02, -6.54763728e-02, -4.50364202e-02,  4.83977199e-02,  4.99738455e-02,
    -9.71104205e-03,  8.07825178e-02, -3.90335917e-04, -6.01259172e-02,  1.18050545e-01, -6.96130395e-02,  8.81940573e-02, -5.49812615e-03,
     5.90477884e-02,  4.20564264e-02, -1.00596577e-01, -1.55124068e-02, -9.43978131e-02, -8.42660666e-05, -1.00420475e-01,  7.35955983e-02,
    -1.01091757e-01, -6.68670759e-02, -4.37119640e-02,  2.06207647e-03, -3.78258452e-02, -1.15248196e-01,  3.38052697e-02, -1.55558586e-01,
    -9.03023989e-04,  9.99409854e-02, -3.71887535e-02,  6.37441650e-02, -1.24551214e-01, -7.86841214e-02, -5.84742166e-02, -3.67060304e-02,
    -1.21118829e-01, -1.23569638e-01, -9.72206593e-02, -1.02040619e-01,  2.14134939e-02,  1.92659348e-02, -6.69191182e-02, -1.22673549e-01,
    -1.12733439e-01, -8.49047899e-02,  9.11787152e-02,  1.06463566e-01, -2.77613848e-02,  6.54481649e-02, -9.42513347e-02, -3.43927257e-02,
     9.21370387e-02, -1.02613568e-01,  8.60995501e-02,  4.13992405e-02,  2.93946918e-02,  1.22502655e-01,  1.04482435e-01, -2.17232294e-02,
     4.79651392e-02,  4.00451571e-02, -1.44695817e-02, -6.92314208e-02,  2.14555711e-02,  3.59431505e-02, -3.15774567e-02, -1.18776940e-01,
     2.31364667e-02,  1.15242898e-02, -4.33292687e-02,  6.05794415e-02, -3.12572643e-02, -6.96849450e-02,  2.29855329e-02,  7.96885341e-02,
    -1.58326291e-02, -1.14120208e-01, -1.20564789e-01, -8.24706480e-02, -3.48427854e-02, -3.75303514e-02,  2.06581354e-02,  8.27181116e-02,
     1.32010132e-02,  3.26898769e-02,  2.26028666e-01, -1.19537357e-02,  3.88720408e-02, -1.64835736e-01,  2.45014559e-02, -2.63114244e-01,
    -1.92116071e-02, -2.59209680e-03,  1.10284805e-01,  1.74054950e-01,  1.91446915e-01,  2.86492765e-01, -5.52072451e-02,  4.85868156e-02,
     2.46222271e-03, -2.46668309e-02, -6.91337734e-02,  1.18462279e-01,  9.75008011e-02, -1.16596743e-01, -1.58060417e-01, -2.82758892e-01,
     9.90958065e-02, -2.08542012e-02, -8.15360695e-02,  3.74520421e-02, -1.54798627e-02,  2.45587528e-02,  2.57203013e-01,  2.08535269e-01,
     2.54148990e-02,  2.95465887e-01,  6.19070083e-02,  1.12492144e-01,  8.50225627e-01, -1.04164720e-01,  1.22488506e-01, -3.51643622e-01,
    -3.67849320e-02,  4.38913591e-02,  1.75687686e-01, -1.95822716e-02, -1.16533265e-01, -2.12376550e-01,  6.09987155e-02, -9.26373526e-02,
    -4.98416305e-01,  8.78609121e-02, -8.11539590e-02,  5.36623001e-02,  2.58174360e-01,  4.15544182e-01,  9.45848376e-02, -8.74061882e-03,
     3.49992514e-02,  3.50715332e-02, -1.06985122e-01,  2.10750610e-01,  3.03407818e-01,  8.42628554e-02,  2.57424265e-02,  1.77448630e-01,
    -1.22663319e-01,  7.15338439e-03, -4.81789373e-02, -4.99451190e-01,  2.93694735e-02,  4.19430574e-03,  4.14313674e-01,  5.24225868e-02,
    -1.43585101e-01,  2.81196624e-01, -9.08309519e-02,  4.76995558e-02,  1.98608220e-01, -3.54563177e-01, -1.03750646e-01, -6.41348213e-02,
     7.99015909e-02, -7.48426467e-02,  4.20704037e-02,  1.20610148e-02,  2.86143601e-01,  1.14570573e-01,  1.43921122e-01, -4.42287279e-03,
     1.07003994e-01,  2.12597147e-01,  1.07357815e-01, -8.48584175e-02, -1.07408285e-01, -1.08708486e-01,  2.97667950e-01, -4.69588339e-02,
     3.66718173e-02,  1.09411972e-02,  1.21706933e-01,  1.55235976e-02, -1.13984764e+00, -1.13681152e-01, -1.40484139e-01, -2.01098278e-01,
    -1.08842701e-02,  7.42628127e-02, -2.64812350e-01, -9.82114524e-02,  8.16526711e-02, -1.94713309e-01,  1.77902862e-01, -3.30064110e-02,
    -7.31880546e-01, -8.89176577e-02,  9.17200893e-02,  3.47049922e-01,  2.26490051e-01,  5.71729779e-01, -1.02567807e-01, -1.15013570e-02,
     1.04490034e-01, -1.31423444e-01,  8.26164633e-02, -1.03981078e-01, -1.42748822e-02, -1.17890567e-01, -4.30825353e-03,  1.55424895e-02,
     2.46624500e-02,  4.36225310e-02,  3.43258344e-02, -3.95802828e-03, -9.00849476e-02, -4.87938263e-02, -4.46512476e-02, -5.89867346e-02,
     8.62697437e-02, -1.55421689e-01, -5.09008467e-02,  4.99770194e-02,  7.80035406e-02, -9.99973044e-02, -1.44390330e-01, -4.44902033e-02,
    -7.36362953e-03,  3.92282754e-02,  5.46391904e-02,  1.83960348e-02,  6.45242110e-02,  4.62206900e-02, -1.25547037e-01, -1.30874425e-01,
    -9.75499526e-02,  1.01790242e-02,  6.60601556e-02,  1.24100208e-01,  1.22689441e-01,  4.93602157e-02, -6.30855933e-02, -1.66102108e-02,
    -7.50180185e-02,  6.41629770e-02, -7.78876841e-02, -3.09523344e-02,  7.43741542e-02,  7.77736008e-02, -6.33614790e-03, -1.18715763e-02,
    -8.82436931e-02, -8.10407251e-02, -2.04046238e-02,  1.09074965e-01, -2.89220363e-02, -8.78346637e-02, -1.32805958e-01, -5.00301011e-02,
     7.71535337e-02, -5.73836863e-02, -4.70402986e-02,  2.87805442e-02, -7.96871930e-02,  8.00852627e-02, -3.12899351e-02,  7.28202015e-02,
     6.78956211e-02, -3.50669138e-02,  1.11826763e-01, -6.29035160e-02, -4.12797928e-02, -6.84405416e-02, -3.73925269e-03, -4.99457531e-02,
    -8.78136754e-02,  2.72599831e-02, -1.09508567e-01, -6.08147159e-02,  9.31307450e-02,  4.81781214e-02, -2.70452294e-02, -1.02540419e-01,
     5.72409295e-02, -6.41982025e-03,  5.05571663e-02, -9.19469520e-02,  4.83373506e-03, -1.52875185e-01, -9.11296830e-02, -4.71647978e-02,
     2.44197212e-02, -4.77761924e-02, -1.19892716e-01, -1.09755710e-01,  4.81631532e-02,  2.82873064e-02,  8.15299824e-02, -4.11966145e-02,
    -1.05442464e-01, -1.15330227e-01,  1.08918101e-02, -4.04898822e-02,  2.23334879e-02, -8.42200220e-02, -1.46605968e-01, -2.51267664e-02,
     1.14558861e-01, -5.84924929e-02,  8.77225399e-03,  9.09571797e-02,  8.08635801e-02, -1.09235540e-01, -1.50675729e-01, -1.28602693e-02,
    -6.34707958e-02, -1.04728587e-01, -6.11221492e-02,  5.18079698e-02, -3.04347277e-02, -9.79747325e-02,  7.04895109e-02,  1.67901888e-02,
     2.33525839e-02, -4.81426865e-02, -1.23159960e-01,  2.37762872e-02, -4.99183126e-02, -1.49788186e-01, -9.81659442e-02, -7.18832463e-02,
    -1.18655026e-01, -1.02194645e-01,  3.00005227e-02, -8.74355584e-02, -6.41470328e-02, -4.02988233e-02,  2.32101828e-02, -5.03058955e-02,
    -3.92767787e-02, -3.86363268e-02, -4.44227457e-02, -9.85591784e-02,  1.16165681e-02, -2.75501497e-02, -1.13451891e-01,  7.24808201e-02,
    -8.10412765e-02,  6.98212907e-02,  1.41348094e-02,  4.87851426e-02,  3.53438817e-02, -7.70429447e-02,  8.82828683e-02, -1.96483433e-02,
     1.71205252e-02,  4.81414944e-02,  3.66048217e-02, -3.50157768e-02, -8.19043815e-03,  6.00382239e-02, -1.13273084e-01, -1.81810707e-02,
     1.12170186e-02,  8.85192398e-03,  7.59335905e-02,  1.03781566e-01, -6.02285266e-02,  6.12678379e-02, -1.08346164e-01, -2.72090752e-02,
    -8.18237066e-02,  8.13245252e-02, -2.70504206e-02, -8.18411708e-02,  7.82459825e-02,  9.16210860e-02,  8.89241770e-02, -6.82013854e-02,
     2.57834345e-02, -2.98283566e-02, -1.26083998e-03, -9.79911089e-02,  1.01055056e-01, -8.21599513e-02,  4.58277613e-02, -1.32127374e-01,
    -1.11236110e-01,  7.25073665e-02,  4.87580895e-04,  5.86207472e-02,  2.88895797e-03,  2.98412871e-02,  5.35316765e-03,  1.10854670e-01,
    -1.02089293e-01,  3.50058004e-02,  6.17948622e-02,  2.25563776e-02,  6.43490627e-02, -6.77506030e-02,  8.96151513e-02, -1.36665866e-01,
     6.90885186e-02,  2.03702748e-02, -1.55481547e-02, -8.53020549e-02,  5.37294000e-02, -4.67222780e-02, -5.37094623e-02, -6.36378974e-02,
     1.19039655e-01, -1.05671570e-01,  1.28466040e-02, -3.01498771e-02,  5.66389412e-02, -6.16553724e-02,  2.45250314e-02, -1.15188554e-01,
    -1.08033493e-01,  1.03387669e-01, -4.38820422e-02, -9.54278558e-02, -3.61944884e-02, -7.53270537e-02, -5.47952503e-02, -2.44165212e-02,
    -5.19468188e-02,  1.37636960e-02, -1.80222541e-02, -4.67925817e-02, -1.17820352e-02, -7.02587515e-02, -9.35064256e-02, -1.16039589e-01,
     5.29747158e-02, -6.56968355e-02, -4.04348969e-03, -1.00523070e-01,  5.03311157e-02, -8.76793265e-03,  5.08983433e-02, -4.71392423e-02,
     1.57875717e-02, -4.33497876e-02, -8.41358304e-02, -1.02952614e-01,  5.92829287e-03,  9.58279520e-02, -5.48179746e-02, -9.42918360e-02,
     5.99787235e-02,  1.18748382e-01, -5.27937561e-02, -3.33562344e-02,  6.95498288e-02,  1.21261761e-01, -9.00999159e-02, -5.96415848e-02,
    -9.08525735e-02,  2.87167281e-02, -1.12460554e-03,  4.25685942e-03,  2.29025036e-02,  1.16857812e-01, -4.43953723e-02,  5.76152802e-02,
    -3.85747999e-02,  1.29894555e-01,  1.59030318e-01, -9.35999304e-02, -1.55244663e-01, -5.50483644e-01, -1.49618670e-01, -1.78609490e-01,
     2.02519476e-01,  7.68397376e-02, -1.15923434e-01,  1.05858549e-01, -9.26402509e-02, -1.70358468e-03, -1.59403831e-02, -6.58297390e-02,
     9.09316987e-02,  7.54616708e-02, -7.44004846e-02,  5.31697869e-02, -7.63299227e-01, -4.01353985e-02, -7.23098740e-02,  1.46460235e-01,
     4.85872646e-04, -2.30143100e-01, -1.01600572e-01,  3.46792638e-02, -1.07538670e-01,  1.09725416e-01, -3.48228365e-01, -4.87861484e-02,
     7.83201158e-02, -3.17778707e-01,  3.88198048e-02,  1.87805295e-03,  8.68790805e-01, -9.35179144e-02,  1.75418615e-01,  6.78171396e-01,
    -5.59034199e-02,  1.36824278e-03,  1.58801496e-01,  4.39555794e-02, -1.03796422e-02,  2.36980319e-01,  1.78220011e-02,  1.85794592e-01,
     2.08822846e-01,  9.16582048e-02,  8.75647813e-02, -4.34920371e-01, -2.38882303e-01, -1.74585089e-01, -1.18511394e-01, -1.01639301e-01,
    -1.82071730e-01, -1.32775173e-01, -6.92190379e-02, -1.62134618e-02,  3.09602231e-01,  3.74781311e-01,  1.73991919e-03, -8.72587040e-02,
     6.77553564e-02,  1.52150273e-01, -7.98543319e-02, -5.39172709e-01, -1.04497774e-02,  2.38371000e-01,  2.31890768e-01,  1.73427403e-01,
    -1.85669020e-01,  2.51956403e-01, -1.14400759e-01, -5.39759398e-02, -1.32273039e-04, -3.17699969e-01, -1.44231230e-01,  7.83336014e-02,
    -5.30442595e-03,  1.91155672e-02, -5.56934327e-02,  5.01232147e-02,  4.02707845e-01,  6.79442286e-03,  1.23665437e-01, -4.45149578e-02,
     2.57646233e-01,  1.67945430e-01, -1.06837258e-01, -4.48542386e-02,  5.05680740e-02, -2.85075605e-03,  2.94661582e-01, -1.28918320e-01,
     2.47163326e-02, -7.43405707e-03,  1.63708031e-02,  7.15310425e-02, -8.50372612e-01,  4.78983372e-02, -5.53804524e-02, -8.68122160e-01,
     1.06865928e-01,  2.92785857e-02, -1.52804121e-01,  7.66259432e-03, -2.12018937e-02, -8.71305019e-02,  7.31794238e-02,  9.46118459e-02,
    -3.95736456e-01, -8.14104378e-02,  8.97302032e-02,  2.25028679e-01,  5.61431535e-02,  2.94707805e-01,  9.75946188e-02,  6.31618798e-02,
     2.11366758e-01,  4.94360738e-02,  5.42022884e-02,  3.42943184e-02, -1.78816736e-01, -6.22153059e-02,  3.61549854e-03,  1.53344616e-01,
    -6.10668808e-02, -9.14406925e-02, -3.17412466e-02, -4.08305228e-03,  8.70533884e-02, -1.86379403e-02,  6.53436333e-02,  7.18683302e-02,
    -9.89971608e-02, -1.15945607e-01, -7.85601884e-02,  1.00718796e-01,  1.11985341e-01, -9.05748904e-02, -4.91408706e-02,  1.12766027e-01,
     6.12134039e-02, -8.01201910e-02, -1.21659487e-02,  1.24237373e-01, -6.63448125e-02,  5.61130792e-02, -1.19811743e-01,  2.88865566e-02,
    -1.99048966e-02, -7.45365769e-02, -1.14168078e-01, -1.13217145e-01,  3.49259228e-02, -4.47899550e-02,  1.24699309e-01, -9.85285640e-02,
     1.03068620e-01,  1.01699531e-02,  6.56835437e-02, -8.65132064e-02, -3.23771089e-02,  1.32443458e-02,  2.01470405e-02,  1.23817325e-01,
    -1.17934540e-01, -3.24970633e-02,  4.96739447e-02, -3.59444320e-03,  1.21673524e-01, -4.98856604e-03, -6.07842356e-02, -1.19352579e-01,
    -2.64331400e-02, -9.86874104e-02, -2.19081938e-02, -2.58400291e-02, -7.82639682e-02,  2.22507864e-02,  6.75957352e-02, -7.75977224e-02,
    -8.61268044e-02,  2.31273025e-02, -4.87255454e-02,  9.21606421e-02,  1.00736126e-01,  3.17393392e-02, -7.56402165e-02, -4.30467874e-02,
    -7.49079883e-03,  7.74127766e-02,  8.07332322e-02,  8.63437057e-02, -1.27045289e-01,  7.01808631e-02,  4.91023213e-02, -1.47120934e-02,
    -1.36793539e-01, -9.80520472e-02,  7.55558312e-02,  2.47475281e-02,  2.98911463e-02, -1.38613760e-01, -1.23819942e-02,  2.25132704e-02,
     9.16920155e-02, -6.74554557e-02, -7.66366571e-02,  8.40196162e-02, -6.43386086e-03, -5.65791577e-02, -2.19006301e-03,  6.06951825e-02,
    -7.58485496e-03, -7.99507722e-02, -5.08611500e-02,  2.85432190e-02, -2.08558142e-02, -2.14219242e-02, -7.57346582e-03, -1.29948795e-01,
    -1.14039451e-01,  3.44364047e-02, -1.74970776e-02, -5.02145290e-02, -1.36712426e-02, -7.93534666e-02, -9.75272208e-02, -1.03229925e-01,
    -8.76454562e-02, -9.38224196e-02, -6.76307008e-02,  6.59339577e-02,  5.65004796e-02,  9.15361494e-02, -6.68988749e-02, -1.38145626e-01,
     7.80850574e-02, -1.03771418e-01, -6.49733990e-02,  6.97555095e-02, -1.42847104e-02, -1.05813637e-01, -1.21107414e-01, -7.18306452e-02,
    -2.60829423e-02,  8.28061327e-02, -1.02600977e-01, -1.08192250e-01,  7.21313357e-02, -1.40221417e-01,  2.59746313e-02, -4.45704870e-02,
    -4.69807386e-02,  1.13010801e-01,  1.02525882e-01,  1.91279218e-01, -2.88049188e-02,  3.14205587e-01, -2.28592768e-01,  1.55866727e-01,
     1.76672712e-01, -1.74907312e-01,  1.23550937e-01,  1.76455156e-04, -5.46988882e-02, -1.16687536e-01,  2.25435168e-01,  1.13048539e-01,
    -9.27842688e-03, -1.02920890e-01, -6.69199228e-02,  1.01627573e-01, -8.99909362e-02, -1.05590627e-01,  1.65546149e-01,  3.03293001e-02,
    -8.93501490e-02, -1.58912331e-01, -1.71967000e-02,  1.10187143e-01,  3.07564288e-02, -7.57374316e-02, -2.93944508e-01, -1.09621629e-01,
     4.86316681e-02,  1.10684723e-01,  6.35027289e-02, -6.73848391e-02, -1.08759832e+00,  5.22186160e-02,  1.43697247e-01,  6.14387393e-01,
     1.11677572e-01,  1.21123604e-01,  5.73578551e-02,  9.21676457e-02, -4.30814624e-02,  2.08139569e-01,  5.86712174e-02,  1.48634136e-01,
     8.85610521e-01,  8.63404423e-02,  4.81678993e-02,  5.21009192e-02, -1.13582417e-01, -8.81179988e-01,  1.47302002e-02, -1.23500273e-01,
    -5.74173070e-02,  5.55734709e-02, -3.49611938e-02,  6.68481663e-02, -1.31611809e-01, -1.70675039e-01, -1.19350076e-01, -1.68603193e-02,
    -1.20891199e-01,  3.31925973e-02, -1.00155145e-01, -8.68119895e-02,  4.82140407e-02,  6.58466965e-02, -1.06850371e-01, -1.13013864e-01,
    -5.01646511e-02,  1.74056515e-02, -5.76972961e-03, -8.41951072e-02, -1.42199665e-01, -1.31643414e-01,  6.38811942e-03, -1.03163585e-01,
    -9.99402106e-02,  4.15656865e-02, -7.96603113e-02, -9.21280533e-02, -1.21037453e-01,  1.07768133e-01, -9.34803952e-03, -1.61092505e-01,
    -3.79705690e-02, -1.45452157e-01, -8.92756730e-02, -1.64398551e-03, -1.02672666e-01,  8.02476704e-03, -4.08141725e-02, -7.80425146e-02,
     1.18910238e-01,  3.69579755e-02, -2.03233957e-02, -7.87799060e-02, -5.87366149e-02, -9.91546959e-02,  6.19925633e-02, -8.98204893e-02,
     1.04307815e-01, -2.87151020e-02, -2.14246772e-02, -5.32463342e-02,  1.17512092e-01, -1.13877155e-01,  7.37661421e-02,  6.31860197e-02,
    -4.24595699e-02, -2.64595151e-02, -6.11636639e-02,  1.46377292e-02, -1.52531400e-01,  7.69697949e-02, -8.85579139e-02,  6.69178665e-02,
    -1.57959864e-01,  8.62996560e-03, -1.10669523e-01, -2.51894016e-02, -8.96177813e-02, -1.46261871e-01,  7.73279369e-03, -5.69827892e-02,
     1.04691327e-01,  3.85498628e-02,  1.61010280e-01, -5.55801034e-01, -3.19419429e-02, -3.04095328e-01, -7.74009228e-02, -2.25602135e-01,
     8.02576318e-02,  9.03277844e-02,  1.20784745e-01,  1.06447540e-01,  2.92564537e-02,  9.60322693e-02,  1.50969669e-01,  6.04510009e-02,
     1.70149505e-01, -6.79762810e-02, -7.22041577e-02,  1.20895237e-01, -5.04933178e-01, -9.04266536e-03, -4.64316234e-02,  4.45524663e-01,
    -1.50612637e-01, -1.39026687e-01,  1.06022209e-02,  1.02536172e-01,  1.07067212e-01,  4.39561903e-02, -1.67668805e-01, -6.97962716e-02,
     1.21945053e-01, -2.68849283e-01, -1.17915481e-01, -3.37899327e-02,  1.09230733e+00, -1.15970805e-01,  2.27175266e-01,  5.88841796e-01,
    -2.55320519e-02, -2.64951233e-02,  1.48718864e-01, -8.55085552e-02, -2.81736255e-03,  2.15008840e-01, -1.04089439e-01, -9.05190501e-03,
     1.03874914e-01,  6.47309422e-02,  5.98579645e-03, -1.94563091e-01, -4.76194769e-02, -2.31907189e-01,  6.14306927e-02,  5.78981191e-02,
     1.84137896e-02,  1.18663972e-02, -1.15671158e-02,  1.65969059e-01,  1.00941636e-01,  2.05414236e-01, -4.37232256e-02, -1.52200386e-01,
    -5.04084975e-02,  5.40514737e-02, -1.08821273e-01,  5.40473759e-02, -1.19286254e-01, -8.35961998e-02, -9.74656940e-02,  1.18146569e-01,
     1.20613262e-01, -6.67710304e-02, -5.06145954e-02,  1.67539269e-02, -1.08007729e-01,  1.13872528e-01, -2.73034275e-02,  5.82533032e-02,
     1.15118876e-01,  9.86989439e-02, -7.77094960e-02, -3.07225138e-02,  7.78689533e-02,  8.11175853e-02, -1.11553147e-01, -1.15526095e-01,
     1.20319426e-02,  3.05408388e-02,  2.45718956e-02, -1.05164945e-02,  1.12420663e-01,  6.20552897e-02,  8.85312408e-02, -1.12639800e-01,
    -1.01811633e-01, -2.93206871e-02, -7.19803572e-02, -7.20795244e-02,  6.26415014e-03,  7.04854131e-02,  8.24163854e-02, -3.30942869e-03,
    -1.09827086e-01, -5.00196069e-02, -1.21700510e-01, -4.77330536e-02, -7.73417950e-02, -6.43922538e-02, -1.58959925e-02,  4.42450643e-02,
    -7.04812706e-02, -2.01750249e-02, -7.33428895e-02,  5.93275875e-02,  1.09864846e-01,  1.11392438e-01, -2.45793164e-02,  9.99521613e-02,
    -4.67644632e-03,  1.76221132e-02,  3.34104598e-02, -5.02720773e-02,  6.84182346e-03,  3.43096107e-02,  1.19610518e-01, -2.15066969e-03,
     6.88448101e-02,  2.82433368e-02,  8.54732022e-02,  1.26008794e-01,  3.19355796e-03, -5.58231592e-01, -2.42554501e-01, -2.28771135e-01,
     1.45463571e-01,  1.21688329e-01, -9.72460657e-02,  1.70279831e-01, -5.41624539e-02,  3.98105904e-02,  7.23204995e-03,  9.98774171e-03,
     8.26491565e-02,  8.06514919e-02,  1.24052867e-01,  3.04905772e-02, -5.23123741e-01,  3.32589447e-03, -9.50066447e-02,  3.34117919e-01,
    -7.09004626e-02,  5.33040892e-03,  1.02580070e-01,  6.01460040e-03, -7.07640797e-02, -5.96171021e-02, -2.58090436e-01, -2.74339467e-02,
    -5.69391102e-02, -2.64153302e-01, -6.92638010e-02,  7.20567852e-02,  7.33039498e-01, -2.58233249e-02,  8.06170106e-02,  1.21458924e+00,
     6.43885136e-03,  1.21947750e-01,  1.25575975e-01,  8.54942948e-02,  1.56190097e-02,  4.79877293e-02, -5.83430156e-02,  1.00585975e-01,
    -1.18669890e-01,  6.00236058e-02, -3.38456035e-02, -3.13453913e-01, -7.20786452e-02, -1.18400224e-01,  1.06590867e-01, -8.30628872e-02,
    -9.09255520e-02, -2.71077286e-02, -6.25326037e-02, -3.05577461e-02,  1.10071175e-01,  1.99548960e-01,  1.02659926e-01, -1.49637833e-01,
    -6.78810030e-02, -1.24102615e-01, -8.45210701e-02, -9.98278856e-02, -7.99067616e-02, -2.80967802e-02,  7.43045211e-02,  4.33933595e-03,
     6.61965013e-02,  1.10567860e-01, -3.40814590e-02,  9.79344472e-02, -7.02530146e-02, -4.37780619e-02,  1.02546647e-01, -9.17560011e-02,
    -6.50084540e-02,  1.00413233e-01,  9.75072086e-02,  6.99988008e-03, -9.57382545e-02,  8.75804424e-02,  4.14446322e-03, -6.49080202e-02,
    -4.53640930e-02, -2.38945447e-02,  5.28564751e-02, -9.47263837e-03,  9.69322920e-02, -9.58575457e-02, -9.69028398e-02, -7.69782066e-02,
    -9.77209955e-02,  1.14189433e-02, -6.29882514e-02, -4.61881906e-02,  2.10047010e-02, -3.23875695e-02, -2.59975549e-02, -1.01067826e-01,
     7.61835873e-02,  5.16193770e-02, -8.31318349e-02, -7.40049332e-02, -8.06411803e-02, -6.02044761e-02, -1.04942873e-01,  9.55028310e-02,
    -1.53849507e-02, -1.19441897e-01,  1.05377913e-01, -4.99476381e-02, -9.15902406e-02,  8.10986850e-03,  6.08579665e-02, -3.94475609e-02,
     4.88380715e-02,  1.16299495e-01,  2.21226811e-02,  8.48827288e-02,  9.13006589e-02,  1.09245010e-01,  5.50606847e-02, -9.18287858e-02,
     9.72193629e-02, -3.09071620e-03,  9.48603675e-02,  1.40466541e-01,  1.48663074e-01,  4.66744415e-02,  2.97093987e-01, -3.63499932e-02,
    -4.85401116e-02,  1.38495445e-01, -1.12158433e-01,  2.43399031e-02,  2.84693148e-02,  6.53562993e-02, -1.06822290e-01, -4.79846299e-02,
     5.95644489e-03,  6.81113303e-02, -8.29946250e-02,  5.63237518e-02,  4.47567254e-01, -7.87429512e-02,  1.48935303e-01, -2.28293940e-01,
     5.08139879e-02,  3.17143589e-01,  1.38074756e-02,  5.31258732e-02, -1.16938919e-01,  8.52531195e-03,  3.81487489e-01, -7.36715645e-02,
     7.71574676e-03,  2.89420724e-01,  1.15167499e-01, -6.17188066e-02, -4.76011515e-01, -4.93015349e-02, -1.03642046e-01, -5.05792737e-01,
     4.31983173e-02,  8.91707987e-02,  5.43041155e-02, -5.53315282e-02,  1.14385203e-01, -1.86799064e-01,  3.91932651e-02,  1.48301557e-01,
    -3.15487444e-01,  1.06934190e-01,  3.78556997e-02,  2.25199282e-01,  2.15959370e-01,  3.72877717e-01, -3.22082937e-02, -6.83401525e-02,
     1.78129256e-01,  5.43769859e-02,  6.85434341e-02,  4.72290814e-03,  1.81643456e-01,  9.48427245e-02,  8.26540887e-02,  1.25880763e-01,
     1.10339642e-01, -2.99920142e-02, -5.85479289e-02,  4.96609360e-02,  6.81799054e-02, -1.13730848e-01,  4.34782058e-02,  1.20090291e-01,
    -7.74867833e-02,  6.42360449e-02,  5.34947067e-02, -1.09151796e-01,  2.21548229e-02, -1.16040558e-01,  1.17584601e-01,  8.22763145e-03,
    -7.08520710e-02, -5.16986102e-02,  8.26745629e-02,  8.41006935e-02,  7.75133669e-02,  4.28015143e-02, -4.33996320e-02,  2.34777778e-02,
    -9.00796503e-02, -2.03088969e-02,  3.07588726e-02, -1.02879524e-01, -2.24208236e-02,  5.61451465e-02,  3.97429168e-02,  6.90218508e-02,
    -1.15157619e-01,  9.34362710e-02, -3.43033671e-03,  4.83747870e-02, -6.95744008e-02,  6.77872300e-02,  3.10471654e-03,  4.76067811e-02,
     4.59074825e-02, -7.86181390e-02,  1.11957878e-01,  1.08432367e-01,  8.39156955e-02, -4.47486490e-02, -7.38161951e-02,  8.97207707e-02,
    -8.22552890e-02,  7.23375380e-02, -1.19049370e-01,  3.62131894e-02,  6.27292693e-03, -1.12954453e-01,  1.15703270e-01, -1.62583888e-02,
    -9.50494409e-02, -1.09836027e-01,  5.54644316e-02, -7.43960589e-02, -7.13767707e-02,  5.74335903e-02, -2.67107636e-02, -7.51377642e-03,
    -1.17374465e-01, -1.49399385e-01,  7.52323270e-02,  7.44494051e-02, -6.95676580e-02, -7.86623135e-02, -5.24466932e-02, -5.98294437e-02,
     8.94649792e-03, -7.20116794e-02, -9.05261785e-02, -1.25521690e-01,  8.05483088e-02, -4.22532000e-02, -1.99390296e-03,  1.16189674e-01,
    -4.40016091e-02,  6.11650795e-02,  1.06095672e-01,  1.08349174e-01, -1.30406797e-01, -1.20050818e-01,  1.60623377e-03, -4.91707884e-02,
    -2.58164238e-02,  6.85552731e-02, -3.58220935e-02, -5.48023283e-02, -1.20767891e-01, -2.34627724e-02, -1.00463383e-01, -1.08330054e-02,
    -1.18967056e-01, -4.81866524e-02,  6.82227165e-02, -8.94188136e-02,  1.11515358e-01, -4.65808064e-02, -1.23903617e-01, -1.20870158e-01,
    -6.16137087e-02, -1.54837459e-01, -1.53641567e-01,  1.07888907e-01,  9.56117362e-02,  1.71025675e-02, -2.30239052e-02, -7.26086199e-02,
    -2.77043916e-02, -6.65067136e-03, -3.70469838e-02, -8.43343288e-02,  9.61237401e-03, -1.21486723e-01,  6.33344054e-02,  7.74027854e-02,
     3.05687683e-03,  4.97636385e-02, -5.90250343e-02, -8.76636989e-03, -2.04516202e-02, -1.35654926e-01,  6.18766993e-02, -4.68971133e-02,
     1.20211244e-01, -5.66275977e-03, -4.35759276e-02, -8.76116008e-02, -2.21661236e-02, -8.20288509e-02, -6.86089247e-02, -1.36640280e-01,
    -9.85437036e-02,  5.61007820e-02,  1.07495934e-01, -6.62461370e-02, -1.07688576e-01, -5.89744300e-02, -1.24033906e-01, -7.77732432e-02,
    -1.37777999e-01,  6.03517443e-02,  1.61501467e-02, -1.63280368e-02,  3.34105715e-02,  5.76427132e-02,  7.85669908e-02,  4.16392088e-03,
     1.60984304e-02, -6.32901266e-02, -1.18787840e-01, -4.83454317e-02, -1.68023854e-02, -2.90684700e-02, -2.12385710e-02,  6.49589300e-02,
    -7.75968134e-02,  9.73907709e-02,  6.03421181e-02,  9.26490277e-02, -9.03217122e-03,  3.64382714e-02, -1.02827391e-02,  3.55323926e-02,
    -6.00743294e-02,  2.19683927e-02, -5.60358018e-02, -7.64911920e-02,  5.24427891e-02, -1.02254592e-01,  4.05143388e-02,  3.61625142e-02,
     8.76528770e-02,  7.33380020e-02, -4.15558070e-02, -1.25223771e-01, -6.04855195e-02, -7.90372938e-02, -9.57438648e-02, -9.00151432e-02,
    -6.78817183e-02, -3.72464620e-02, -1.73233151e-02, -1.05039917e-01, -4.08736840e-02,  4.58522774e-02, -6.80654943e-02,  5.13339341e-02,
    -1.02348745e-01, -7.87926167e-02,  1.01768352e-01, -1.62820965e-02, -3.02197710e-02, -5.82103059e-03, -6.96938634e-02,  1.45664411e-02,
    -7.16902912e-02,  2.14591939e-02,  6.33471310e-02, -1.07017174e-01,  5.06830066e-02,  1.10055909e-01, -1.08475655e-01,  5.79797179e-02,
    -8.25009681e-03,  2.20669955e-02,  1.36107802e-02,  9.43246782e-02,  2.52073538e-02, -1.03987679e-01,  3.55751961e-02, -7.10858107e-02,
     7.21784607e-02,  9.47684869e-02,  1.13068864e-01, -4.63076383e-02,  4.93496358e-02, -1.16794512e-01, -1.05959274e-01, -1.65584460e-02,
    -4.79135364e-02, -8.55798945e-02, -5.89119047e-02,  9.25920755e-02, -4.50842120e-02, -8.08621943e-02, -9.95513201e-02, -9.22495201e-02,
    -5.43636084e-02, -7.43902549e-02, -2.09743101e-02, -8.17783326e-02, -3.64970565e-02, -9.95311365e-02,  1.06209613e-01, -9.50241089e-02,
    -1.54978782e-02,  6.99367672e-02,  1.06250435e-01, -1.89081747e-02, -8.90318975e-02,  4.62931320e-02,  7.37237930e-02,  8.43774229e-02,
     8.41606408e-02, -1.00237846e-01,  1.22059613e-01, -5.58646210e-02,  1.01362288e-01, -7.58431107e-02,  2.48715281e-02,  8.13198984e-02,
     8.39014500e-02, -7.51224905e-02, -9.45494324e-02,  2.82053053e-02,  7.81601518e-02, -1.00778684e-01,  5.37448376e-02,  1.15703255e-01,
    -1.05319455e-01, -5.12885898e-02,  2.29258388e-02, -4.00763899e-02, -8.02924633e-02,  8.67860019e-03, -1.98610574e-02,  2.13521123e-02,
     3.67747396e-02,  1.18872002e-01, -6.04942888e-02,  9.10599679e-02, -6.82211369e-02,  8.23744535e-02,  2.00414509e-02,  1.06659338e-01,
     1.89359486e-02, -1.01961732e-01, -3.10137272e-02,  7.89436549e-02,  2.31094807e-02, -8.20553899e-02,  6.55034930e-02, -7.63185620e-02,
     2.06878781e-03,  1.18760601e-01,  1.18629158e-01,  1.06360659e-01, -1.39659047e-02,  1.26686543e-02,  9.61598754e-02,  1.51226968e-02,
     4.56978083e-02, -5.04928678e-02, -7.34847337e-02, -2.78114527e-02, -5.07302731e-02, -1.15865633e-01, -1.09699652e-01, -8.07458162e-03,
    -9.96152610e-02,  1.16919383e-01,  4.11830395e-02, -1.18625164e-02, -1.07030481e-01,  3.09796631e-02, -1.88101828e-03,  1.09412670e-01,
    -9.63289142e-02, -5.42113632e-02, -3.48101705e-02, -2.09071189e-02,  1.24384850e-01,  2.16844380e-02, -1.00900173e-01,  8.32342803e-02,
    -7.74063468e-02, -7.09808543e-02,  1.53970286e-01, -1.77590936e-01,  2.29625803e-05, -3.41862679e-01, -1.30309254e-01, -7.90009871e-02,
     2.07807839e-01,  3.88404690e-02,  9.85190570e-02,  4.01858287e-03,  1.28645405e-01, -6.27095625e-02,  6.71281591e-02, -8.65717977e-02,
     3.23659331e-02, -1.68933421e-02,  4.01857048e-02,  3.30155045e-02, -2.07600757e-01,  1.11596584e-02, -1.13082193e-01,  1.27863705e-01,
    -7.31333792e-02, -8.65345895e-02,  8.06121677e-02,  6.10129386e-02,  1.29416287e-02, -7.81917572e-02,  7.95317173e-04,  1.66111305e-01,
    -5.42841405e-02, -1.01016127e-01,  2.91701555e-02, -4.02332097e-02,  8.15310419e-01, -4.34291512e-02,  2.17578164e-03,  3.66182774e-01,
     9.93557274e-02,  1.28247827e-01,  2.33926848e-02,  7.09247291e-02,  3.79375964e-02,  1.11892767e-01, -7.95053393e-02,  3.89105789e-02,
     5.96713386e-02,  2.32473016e-02,  3.57994437e-02, -6.75272420e-02, -1.10506222e-01,  5.79095893e-02,  2.17094421e-02, -8.63173604e-03,
    -3.22970264e-02, -1.19577460e-01, -3.54673713e-02,  1.42875329e-01,  2.04490826e-01,  2.42042661e-01,  7.76156038e-02, -1.95121877e-02,
     1.20768800e-01, -9.59059596e-02,  3.70675474e-02,  5.59243709e-02, -1.13814041e-01,  3.00586522e-02, -2.21627355e-02, -3.17200422e-02,
    -1.08952403e-01, -1.24365225e-01,  1.20144546e-01,  1.09061807e-01, -7.70632625e-02,  5.21344095e-02,  4.36262786e-02,  5.92603832e-02,
     1.15497380e-01, -4.49792743e-02, -8.64330679e-02,  4.88314629e-02,  1.11037403e-01, -5.73740005e-02,  1.16633266e-01, -6.73506260e-02,
    -8.91925991e-02, -8.59345347e-02,  1.03230596e-01, -4.90910411e-02, -1.06173784e-01, -4.40689772e-02, -1.06462061e-01, -8.15233141e-02,
    -8.90712440e-02,  8.86142254e-02,  1.05702877e-03, -2.31978744e-02, -1.45550519e-02, -7.65570104e-02, -1.16438434e-01, -7.88713694e-02,
     2.12737620e-02, -6.72802776e-02, -8.27776343e-02, -7.69989640e-02, -7.39874989e-02,  4.01118398e-03, -8.69458318e-02,  9.42167044e-02,
    -9.60675329e-02, -2.51067281e-02, -1.05601981e-01, -3.68157774e-02, -9.39271003e-02,  2.46885419e-03,  5.51464558e-02,  6.98092431e-02,
    -6.87033981e-02,  1.68131590e-02,  1.21818736e-01, -6.90426677e-02, -2.80788094e-02,  8.89439434e-02,  1.74819082e-02, -8.15099329e-02,
     3.97433192e-02,  6.65169731e-02, -8.71963874e-02, -1.41419247e-01, -8.19833055e-02,  5.99335209e-02, -1.37170643e-01, -2.95549608e-03,
    -3.06364223e-02, -1.02953784e-01, -1.78492963e-02, -1.30089879e-01, -1.47466306e-02,  6.28972575e-02, -1.11839011e-01,  7.40690380e-02,
    -6.74181208e-02, -8.69552940e-02,  6.22113794e-02, -9.02080238e-02, -9.58962552e-03,  6.72360957e-02, -5.70016615e-02, -5.82140870e-02,
     1.84743758e-02,  7.61465589e-03,  4.34914380e-02,  4.25310880e-02,  2.60263532e-02,  4.46771532e-02,  5.26561029e-03,  6.64570183e-03,
     1.69126391e-02,  7.99679533e-02,  6.96671754e-02,  6.45687580e-02,  1.59334447e-02, -8.57648551e-02, -5.15841320e-02,  1.13752317e-02,
     9.20236856e-02,  8.57871100e-02,  2.48301588e-02,  1.00306913e-01, -7.05464780e-02, -8.56966972e-02,  4.79415990e-02,  9.88861360e-03,
     5.17508201e-02, -8.64118785e-02,  3.59413028e-03, -1.15698338e-01, -1.48571357e-01, -1.45425955e-02, -6.39946461e-02, -9.84943658e-02,
    -9.71435457e-02,  8.46136510e-02,  7.53905028e-02, -6.70872703e-02, -9.52784792e-02, -1.24212340e-01,  3.02589983e-02,  8.61547068e-02,
    -9.45237726e-02,  1.05355240e-01, -1.22365959e-01,  1.72923625e-01, -1.87416058e-02,  2.36263767e-01,  1.18981488e-01,  3.68615910e-02,
    -5.81245907e-02,  4.35423665e-02,  9.91445929e-02,  3.91621590e-02, -1.07573047e-01, -1.32965490e-01,  7.25086927e-02, -3.73164415e-02,
     4.11010124e-02, -1.20126128e-01, -7.08523691e-02,  7.54650682e-02,  3.15200448e-01,  7.04727471e-02,  4.19829339e-02, -7.70557076e-02,
    -5.59348948e-02,  8.56939256e-02, -2.11824477e-02,  4.62289900e-02, -4.21556532e-02, -5.33004701e-02,  1.24141097e-01,  2.48248223e-02,
     9.17792767e-02,  2.04200149e-01,  8.37797672e-02,  9.99956131e-02, -7.81910360e-01,  7.03659356e-02, -1.92713991e-01, -3.45468700e-01,
    -2.68687904e-02,  1.75758936e-02, -7.63438493e-02,  2.04444081e-02,  4.33652848e-02, -1.77886158e-01,  9.43097323e-02, -1.10234670e-01,
     8.21890216e-03, -8.67973715e-02, -1.29517764e-02, -2.55276486e-02, -2.37480432e-04,  6.96884049e-03,  1.00915879e-02, -7.99923986e-02,
    -5.63036762e-02,  1.04913488e-01, -8.97040516e-02, -4.02551070e-02, -4.37267274e-02, -2.93779504e-02,  3.69201303e-02,  1.19051397e-01,
     2.61621624e-02, -8.41260925e-02, -7.95211270e-02, -3.80040370e-02,  1.04713343e-01, -3.81546095e-02,  9.00771767e-02,  1.53185092e-02,
     9.78711098e-02,  2.28009559e-03,  8.04065764e-02, -3.45799439e-02,  4.92952690e-02, -9.72609967e-02, -1.11625597e-01, -1.04165316e-01,
     9.62654054e-02, -3.48917395e-02,  3.23788971e-02,  3.63021344e-02,  3.89213189e-02, -4.10419554e-02, -1.00232504e-01,  8.65677372e-02,
    -6.95575252e-02,  1.88051835e-02, -4.53632921e-02, -7.91105330e-02, -3.89701128e-02, -2.41685808e-02,  4.90082167e-02,  3.57008725e-02,
    -2.47271210e-02, -1.02230921e-01, -1.14776492e-01,  8.19370151e-02, -3.89582254e-02, -8.87059122e-02,  2.88706459e-02, -9.21624154e-02,
     4.20655906e-02, -1.10919096e-01, -1.32269666e-01, -2.88194418e-02,  1.02697864e-01,  7.78459609e-02, -9.37006921e-02, -2.48709880e-02,
     6.54651448e-02, -1.29203796e-02,  8.53106380e-02,  2.49649454e-02, -7.98531249e-02, -7.05226511e-02, -4.04123962e-03,  4.50347215e-02,
    -9.54857841e-02,  4.60164808e-02,  9.38363820e-02,  7.38559514e-02, -9.50863436e-02,  4.85268980e-02,  2.54089832e-02,  8.41454715e-02,
    -9.17353332e-02, -4.17986028e-02, -1.49536468e-02,  7.21993577e-03,  1.54087424e-01, -1.86591119e-01,  5.13144806e-02, -6.14181012e-02,
     1.59906596e-01,  1.02517389e-01,  4.74880338e-02,  2.24406451e-01,  1.26862884e-01,  2.62455225e-01,  4.58956994e-02,  1.99440867e-02,
    -7.28961974e-02,  4.64620590e-02, -6.85938001e-02, -5.45454621e-02, -3.93183529e-03, -7.24613369e-02, -1.51618674e-01,  4.63612564e-02,
     4.71289083e-02, -6.92078099e-02, -4.88381684e-02,  1.90000236e-02,  4.73948568e-02,  5.34586012e-02,  1.69191420e-01,  1.44176528e-01,
     2.70049870e-02,  1.12821661e-01, -1.09770462e-01, -6.06206805e-02,  8.69197309e-01, -9.97436047e-03, -4.44330424e-02, -1.61766499e-01,
     5.83473891e-02, -2.18846425e-02,  8.52030590e-02,  4.14581299e-02, -1.63742304e-02, -3.62859629e-02, -5.88682108e-02,  5.06789647e-02,
    -3.60412419e-01,  1.24889180e-01,  9.81154144e-02, -3.68297435e-02,  2.25675523e-01,  2.85118878e-01,  3.10376287e-02, -9.59070474e-02,
     1.26093626e-01, -1.29595339e-01,  6.15613759e-02,  1.62806839e-01,  3.50247145e-01,  1.15852274e-01,  1.12354070e-01,  1.52102754e-01,
     9.46730673e-02,  7.22646713e-03, -4.73325402e-02, -1.05974406e-01, -6.68068081e-02, -5.11146486e-02, -1.22230887e-01,  7.18715787e-02,
     7.11797923e-02,  9.92064178e-03,  1.12142652e-01,  1.10233799e-01,  1.04947880e-01,  1.06902793e-01,  5.22059351e-02, -9.70029831e-02,
    -1.14250138e-01, -1.09083340e-01,  3.52939516e-02,  3.79660577e-02,  1.22846454e-01,  1.05109006e-01, -9.17251706e-02, -5.19852340e-02,
     9.83067900e-02, -7.38409907e-02, -3.59055847e-02,  3.66973728e-02,  1.20317698e-01, -7.01436400e-02, -1.08150050e-01, -6.04920685e-02,
    -1.66181624e-02,  4.18710113e-02, -5.96410781e-02, -1.03652611e-01,  9.02340412e-02,  8.68261456e-02, -7.06146657e-03, -1.02468818e-01,
     1.12396747e-01,  2.32536495e-02, -3.91976535e-03,  1.64059997e-02, -2.11723745e-02, -1.16213307e-01, -9.75521952e-02, -9.58745778e-02,
    -1.19014218e-01,  1.23826876e-01, -1.01222187e-01, -6.14675879e-02, -6.47284091e-02, -1.08634040e-01,  9.42506641e-02,  9.50303972e-02,
    -1.11630067e-01,  6.20169789e-02, -1.11286968e-01,  3.45304757e-02,  4.42010611e-02, -7.44018704e-02, -1.03272498e-03,  5.66365272e-02,
    -8.58868659e-03, -4.05946486e-02, -9.82551277e-02,  1.76255107e-02, -1.05469212e-01,  2.33616065e-02, -1.05040900e-01, -1.11807384e-01,
     9.61455107e-02,  9.94696617e-02,  1.16016746e-01, -5.76649196e-02,  2.84232069e-02, -1.48624778e-01, -9.97921005e-02,  9.60154086e-02,
    -4.81546745e-02,  3.54854763e-02, -2.85663605e-02, -2.25946605e-02, -2.48328652e-02, -6.93376660e-02, -6.08271770e-02,  8.40132385e-02,
    -5.30342571e-02, -9.28337127e-02, -3.89597714e-02, -1.10976219e-01, -1.10946462e-01, -1.08082384e-01,  5.88764772e-02, -2.93578878e-02,
    -5.83670437e-02, -1.13763228e-01,  1.05636224e-01,  4.32013869e-02,  3.79379466e-02, -6.99651390e-02, -2.33132504e-02, -6.87816590e-02,
    -7.61896223e-02, -9.43498090e-02,  4.87945005e-02,  3.80339175e-02, -1.39637291e-03, -6.32514432e-02, -1.30389169e-01, -3.99846546e-02,
    -3.16944309e-02,  9.94486213e-02,  5.64776808e-02,  3.44973952e-02,  5.36738746e-02, -8.00622851e-02,  9.89098251e-02,  7.64255971e-02,
    -2.82493245e-04, -1.25983998e-01, -2.12498456e-02, -1.34236380e-01,  6.54727519e-02, -1.44578740e-01, -1.22860461e-01, -1.12017646e-01,
     9.07671750e-02,  1.03260502e-01,  2.65542418e-01,  4.09631014e-01,  2.25208569e-02,  2.20486656e-01, -2.33803429e-02, -5.20877898e-01,
     2.27092169e-02, -2.80039847e-01, -2.63070762e-02,  1.10754194e-02, -1.12000093e-01,  4.63582218e-01,  1.35528482e-02,  4.72755134e-02,
    -1.63180083e-01,  4.33234870e-03,  9.68882889e-02, -6.61164522e-02, -2.76473105e-01,  3.13787758e-02,  5.32828607e-02, -7.10003138e-01,
     9.21997521e-03, -5.36193624e-02, -1.07906908e-02, -6.12227172e-02,  1.35511011e-02, -7.70089030e-03, -1.29697233e-01,  1.63028926e-01,
     2.48985142e-02,  2.14374602e-01,  5.95248789e-02, -7.89895952e-02,  2.01684043e-01,  3.54832560e-02,  1.20611172e-02,  1.18643904e+00,
    -5.63540757e-02,  3.10278125e-02,  1.04195252e-01, -4.19304967e-02, -1.10196650e-01, -2.41781950e-01, -3.09835434e-01,  1.10968731e-01,
     1.21707963e-02, -7.42006600e-02, -2.29189247e-02, -2.05257922e-01,  2.83079535e-01,  2.07011491e-01,  8.78356993e-02, -5.21710217e-02,
    -2.88486909e-02, -1.38384968e-01,  1.96494162e-02,  3.36012810e-01,  9.27002192e-01,  1.92560539e-01, -4.88431305e-02,  1.28450301e-02,
    -6.78785443e-02, -3.59892957e-02,  8.55697095e-02, -5.74641228e-02, -5.72857372e-02,  2.74370629e-02,  7.12148147e-03, -5.30762598e-02,
     1.12646081e-01,  1.02810776e-02,  3.04626375e-02, -1.20350391e-01,  1.27054891e-03,  6.28211647e-02,  2.83192955e-02,  1.17075652e-01,
    -1.29445493e-01, -8.09360594e-02, -5.48624992e-03,  7.40375519e-02, -8.73707086e-02,  1.92595720e-02,  5.01007400e-02, -6.32861778e-02,
    -4.76303548e-02,  6.10738471e-02, -6.36007190e-02,  1.24853015e-01, -5.44394702e-02, -3.73269320e-02, -7.90371150e-02, -6.03792183e-02,
    -4.03508991e-02, -1.18865594e-01,  6.85504973e-02,  5.17091751e-02, -1.22846253e-02, -5.79364151e-02, -6.69246390e-02,  1.04483113e-01,
    -1.24808311e-01,  6.02711327e-02,  7.16818646e-02, -1.12177223e-01, -8.18457454e-02, -7.81257153e-02, -4.71891314e-02,  8.14249516e-02,
    -1.23245046e-01,  1.23655170e-01, -1.79209262e-02,  6.50347844e-02, -2.12166216e-02,  5.33926859e-02,  9.95939523e-02, -1.06670260e-01,
    -1.92412287e-02,  1.06102452e-02,  9.98672247e-02, -4.20628637e-02, -1.06085964e-01, -1.07330143e-01, -6.29714727e-02,  4.48673218e-02,
     1.43777728e-02, -1.05135068e-01,  1.37354480e-02,  7.82099441e-02, -1.00096077e-01, -6.54463693e-02,  1.05913598e-02,  7.22684562e-02,
     6.48078099e-02,  5.56695126e-02,  3.33777368e-02, -1.36475638e-01, -4.23195288e-02, -7.26330355e-02, -9.60605219e-02,  1.85457766e-02,
    -1.08276337e-01, -6.87113851e-02, -2.91056782e-02,  4.32945341e-02,  4.85741980e-02,  9.41515565e-02,  1.11711860e-01, -4.01913654e-03,
    -8.51297826e-02,  5.49667925e-02,  5.03358394e-02,  1.15473092e-01, -3.52693349e-02,  6.38260245e-02, -1.21238992e-01, -1.35774747e-01,
    -4.69144434e-02, -1.24247864e-01,  3.95777822e-03,  1.22857690e-02,  7.58070573e-02,  1.08423710e-01,  5.29250316e-02, -1.05431117e-01,
     2.86578834e-02,  6.91601783e-02,  3.18541974e-02, -4.42310125e-02,  1.20768875e-01,  1.76817663e-02,  1.02814019e-01,  3.80651020e-02,
    -2.62485351e-02,  1.11628279e-01,  1.06550187e-01, -1.37117684e-01,  1.10183679e-01, -1.10677212e-01,  2.89136320e-02, -8.05987269e-02,
    -4.60738987e-02, -4.53417040e-02, -1.13949314e-01,  8.98357257e-02,  1.05298579e-01,  1.71633530e-02, -1.02728486e-01, -1.18779086e-01,
     3.54559124e-02, -7.81781822e-02, -1.22482643e-01,  8.17291737e-02, -6.79775178e-02, -7.37693906e-03,  9.48051363e-02, -8.35350901e-02,
     6.18044138e-02, -8.05305243e-02, -9.78754461e-02, -4.70567644e-02, -1.04270816e-01, -1.27841681e-02, -9.00038183e-02,  2.65274942e-02,
     7.81788081e-02,  1.04781583e-01,  1.58547908e-02, -8.89751017e-02, -7.46511966e-02, -2.25431621e-02, -1.24922633e-01,  8.12697709e-02,
    -1.19740516e-01,  7.06374943e-02,  5.33019900e-02,  1.17672667e-01,  6.16236180e-02,  1.01581708e-01,  1.10433474e-01,  2.17474997e-03,
     5.08403480e-02, -6.35620952e-03, -1.05884776e-01,  1.07649624e-01, -4.55182493e-02, -7.04400539e-02, -1.58865452e-02,  8.53523314e-02,
    -1.13994285e-01, -1.05803758e-02,  9.27023590e-03, -1.15563288e-01, -5.43551445e-02,  1.01615325e-01, -3.68829072e-02, -2.44876742e-02,
    -3.99956107e-03,  6.78901374e-02,  1.13942564e-01, -1.04024470e-01,  4.86894399e-02,  3.05706263e-03, -1.14378065e-01,  6.38474375e-02,
     7.81595409e-02,  4.91512567e-02,  7.07605481e-03, -9.94463414e-02, -6.92665577e-03, -7.72609860e-02,  7.08477199e-02,  2.90308893e-02,
     9.89693552e-02, -9.01272297e-02, -9.80541110e-02, -2.09427923e-02, -3.55563760e-02, -1.00686550e-01,  4.92026359e-02,  3.51369679e-02,
    -2.73505896e-02,  4.25265729e-03, -1.08093306e-01,  5.59210926e-02, -1.13512874e-02, -4.80562449e-04, -6.79810345e-03,  9.33117270e-02,
    -7.34919310e-02,  9.01648998e-02,  1.06762975e-01,  9.25724059e-02, -8.57491940e-02,  6.33367151e-02, -6.99550807e-02, -4.30226177e-02,
    -8.09649378e-02, -7.15175271e-03, -3.53794843e-02, -7.69243240e-02, -1.24809727e-01, -8.55319053e-02,  1.02891415e-01, -3.72779667e-02,
    -9.02536511e-03,  9.28294957e-02,  9.72447544e-02, -1.90953612e-02,  1.42477304e-02, -9.33958739e-02,  8.19853246e-02, -9.87699777e-02,
     7.13450313e-02,  1.11643285e-01,  8.11465085e-03, -6.98590875e-02,  9.97947007e-02, -2.72028595e-02, -8.04585367e-02, -2.01131403e-03,
    -5.99242002e-02,  3.31760049e-02,  1.75823420e-02, -1.00770652e-01,  5.08948863e-02,  3.82587016e-02,  1.08254850e-02,  8.25840384e-02,
    -1.06806576e-01,  1.11633927e-01, -2.76885927e-02,  6.10469282e-02,  1.07250005e-01,  6.68044090e-02,  1.77667737e-02, -1.00638017e-01,
    -5.88038862e-02,  1.51988149e-01,  8.98801982e-02,  6.21717051e-02,  3.79785933e-02,  1.79758206e-01,  4.44027543e-01,  3.37002124e-03,
    -1.53140545e-01,  4.39622775e-02,  7.54331052e-03,  2.03391677e-03,  1.36938035e-01,  1.97283030e-01, -2.46509002e-03,  1.02024838e-01,
    -1.63941354e-01,  1.47670209e-02,  2.97241211e-02,  1.21491849e-01,  3.10083449e-01, -8.66164416e-02,  1.95647851e-01, -2.88104564e-01,
     1.91213742e-01,  1.07824735e-01,  6.83654249e-02,  6.08103573e-02,  8.08094591e-02,  1.71802640e-02,  3.11378598e-01, -2.01419611e-02,
    -2.02774107e-02,  2.83246249e-01, -9.16535556e-02,  1.13938957e-01, -2.48646006e-01,  1.24911860e-01, -3.31038125e-02, -4.93190169e-01,
     8.99989754e-02, -5.50981164e-02, -3.49073149e-02,  8.45997334e-02, -7.44795948e-02, -2.70873100e-01, -4.33811992e-02,  1.54036373e-01,
    -3.42970997e-01,  1.19065687e-01, -6.24211133e-03,  2.87459850e-01,  3.05646718e-01,  5.31938910e-01, -7.77992606e-02, -4.19584662e-02,
     2.02434557e-03, -3.51475142e-02,  7.40310550e-02, -2.53751893e-02,  1.56703562e-01,  9.02812332e-02, -3.94229591e-03,  2.41572052e-01,
    -2.27561146e-02, -1.04233533e-01,  6.60405308e-02, -1.42420363e-02,  4.55380604e-02, -3.46892416e-01, -1.55093312e-01, -1.12365425e-01,
     1.21986926e-01, -8.71997792e-03,  8.98148119e-03,  1.16055511e-01, -7.77189508e-02, -1.01187201e-02,  2.62204465e-02, -1.03745133e-01,
    -1.00776870e-02, -1.07630566e-01,  1.05313867e-01,  2.98180282e-02, -3.64592403e-01,  3.91277969e-02, -2.35142261e-01,  9.19978917e-02,
    -2.63510272e-02, -1.58938363e-01,  4.69101667e-02,  7.95847178e-02, -1.86763704e-02,  6.85407817e-02, -2.76081879e-02,  1.53956145e-01,
     6.18882626e-02, -4.11655381e-02, -1.43066794e-02, -3.57310623e-02,  6.28568649e-01, -3.17998081e-02,  1.71797574e-01,  2.30220035e-01,
    -7.26917684e-02,  7.60112777e-02,  1.69403344e-01,  3.54233086e-02,  7.28496909e-02,  1.33828759e-01, -1.63941197e-02, -4.04410921e-02,
     1.68328322e-02,  3.28892320e-02, -8.54978561e-02, -6.36777431e-02, -1.32351285e-02, -1.93108693e-02, -7.74911642e-02,  1.20097771e-01,
     4.71616313e-02,  6.07398115e-02, -1.21771887e-01,  1.10449605e-01,  2.41902739e-01,  1.27733827e-01,  3.82107198e-02, -8.02863166e-02,
    -4.67587262e-02,  6.20381050e-02, -2.74546202e-02, -2.71865547e-01, -1.73228439e-02, -2.43706465e-01, -2.43138060e-01, -2.12210804e-01,
     2.10389867e-01,  1.45935506e-01, -5.21671772e-02,  4.64313440e-02, -3.00964732e-02, -1.78682636e-02,  1.32192135e-01,  1.85446143e-02,
    -1.24473299e-05, -9.45513695e-02,  3.43789756e-02, -5.85672259e-02, -2.84658372e-01, -2.86633223e-02, -2.10539401e-01,  4.82370377e-01,
    -1.36022359e-01, -2.41283923e-01, -9.33454931e-03,  5.57985902e-03, -8.28166753e-02, -3.22508216e-02, -7.94505700e-02,  4.99111824e-02,
    -4.29838896e-02, -2.53825366e-01, -6.21447712e-02, -5.12003899e-03,  9.89733398e-01, -6.82357997e-02,  2.27493137e-01,  5.12797773e-01,
    -1.17011338e-01,  1.41232297e-01,  1.41247436e-01, -2.38091648e-02, -1.05070204e-01,  2.60429949e-01,  9.97149572e-02,  9.06101465e-02,
     1.09125845e-01, -4.06764895e-02,  5.57799041e-02, -3.15900892e-01, -1.63061619e-01, -2.74634272e-01, -4.58915681e-02, -5.86601198e-02,
    -1.48253478e-02,  3.05805113e-02,  5.16193807e-02,  5.65145127e-02,  1.67258248e-01,  1.17360845e-01, -1.54328346e-03, -2.37882197e-01,
    -1.23441577e-01, -1.81902498e-02,  6.28843382e-02, -1.24816455e-01, -3.28997113e-02, -9.66824740e-02, -7.51115456e-02,  9.14811417e-02,
     6.17292337e-02,  1.05175013e-02,  2.58372724e-03, -3.58128473e-02, -1.57831728e-01, -1.17903851e-01, -5.48597835e-02,  1.21250823e-01,
     5.22099845e-02,  7.36289918e-02,  3.01772207e-02,  1.17628798e-01, -1.05762832e-01, -1.87680423e-02, -4.84952591e-02, -1.11172378e-01,
    -1.34699747e-01, -4.21130471e-02, -1.06715381e-01, -9.54888165e-02,  1.97162926e-02, -1.55931860e-02,  1.62987038e-02,  1.68993268e-02,
     1.09102249e-01,  2.04848237e-02, -7.10781813e-02,  1.23613834e-01,  7.77136013e-02,  6.12130314e-02,  4.07067547e-03,  4.10529505e-03,
     6.04388714e-02, -1.16426386e-02, -8.38272215e-04, -3.82021517e-02,  3.54056209e-02, -1.17169522e-01,  5.80812059e-02, -2.62961220e-02,
    -5.02399951e-02, -8.75283778e-02,  5.95008582e-02, -2.32648417e-05, -2.45723426e-02, -4.17201146e-02, -6.72384202e-02,  5.29861450e-02,
    -2.16528885e-02, -1.17444701e-01,  1.22100338e-01, -1.42439231e-01, -1.36785181e-02, -1.16791263e-01, -5.62510788e-02, -1.20145559e-01,
};
static const float b1[64] = {
    -1.06026843e-01, -1.12680487e-01, -4.72406521e-02,  6.61971569e-02, -6.09826207e-01, -4.73175436e-01,  6.87095001e-02,  1.93688214e-01,
    -4.60292548e-02,  1.14163160e-02,  3.65160584e-01,  3.51838693e-02, -1.17262617e-01, -5.02313077e-01, -7.08155751e-01,  7.28681266e-01,
    -5.34532070e-02, -4.92804199e-01,  7.16648400e-02,  7.05016851e-02,  1.01190031e-01,  6.70484081e-02,  4.91894215e-01,  9.48766917e-02,
     5.12958653e-02, -4.11464758e-02,  6.56010687e-01, -1.53541759e-01,  8.25979933e-02,  3.84136327e-02,  1.04807168e-01, -7.76741982e-01,
     6.11652732e-01,  8.74123424e-02, -6.50484338e-02, -2.32186422e-01, -1.51567698e-01, -6.15111589e-01, -8.23470801e-02, -6.50691569e-01,
    -7.83812627e-02,  4.99734014e-01, -6.10548556e-02, -1.26815394e-01, -2.76468955e-02,  7.80381635e-02, -6.12103790e-02, -5.36762536e-01,
     1.01464733e-01,  2.95904987e-02,  4.17151451e-01, -1.38001636e-01, -1.77460983e-01,  5.45842499e-02,  4.12763245e-02, -9.46690500e-01,
    -3.21901664e-02, -3.43003310e-02,  5.85494787e-02, -3.99214029e-03,  5.25666237e-01, -4.04112518e-01, -5.67638993e-01, -1.53929874e-01,
};

/* Layer 2: [64] -> [3] */
#define LAYER2_IN  64
#define LAYER2_OUT 3
static const float w2[192] = {
    -2.70331372e-02,  1.50883542e-02, -8.71354416e-02,  1.12398945e-01,  4.16023135e-01, -1.02372801e+00, -1.60091761e-02, -4.21758711e-01,
     4.13242131e-02, -8.99201632e-03, -1.04772437e+00, -1.93906333e-02, -1.71968387e-03,  1.62292570e-02,  1.88979194e-01,  9.18025449e-02,
    -9.85900313e-02,  2.00428441e-02, -5.41208088e-02,  4.38958853e-02,  1.09032333e-01, -4.56853881e-02,  2.99919724e-01, -3.90718728e-02,
    -3.20639871e-02,  4.36615169e-01, -5.58216453e-01, -3.16165909e-02,  2.69230418e-02, -8.68996903e-02, -2.20493972e-03,  3.63891274e-01,
    -3.74601960e-01, -3.78909707e-02,  2.95629762e-02, -7.79913247e-01,  5.48022538e-02,  4.75579172e-01,  3.96856815e-02, -1.81094214e-01,
    -6.40581101e-02,  1.63208276e-01,  5.09124994e-02,  8.74475911e-02,  4.76901270e-02,  4.85694222e-02, -7.40324259e-02,  1.82801634e-02,
     5.50608635e-02, -2.35910891e-04, -7.09982142e-02,  9.15733874e-02,  2.69832611e-01,  4.64124382e-02, -1.71194654e-02, -9.90818322e-01,
     1.81600563e-02, -1.11713842e-01,  3.49915773e-02,  3.26403379e-02,  3.01385969e-01,  9.50817689e-02, -1.01816067e-02, -4.97129597e-02,
     4.24778052e-02,  5.13593033e-02, -8.83989111e-02,  1.05755530e-01, -1.55998647e+00, -1.68451350e-02, -7.95878023e-02,  7.69306421e-01,
    -4.22865562e-02, -7.64975995e-02,  9.10613894e-01,  7.21312091e-02,  1.12691689e-02, -3.13604295e-01, -1.53044403e+00,  7.50206470e-01,
     7.67444372e-02, -7.06101835e-01, -7.84288347e-02,  7.78448060e-02,  1.11078843e-01, -9.28004757e-02,  1.61066845e-01,  7.64402300e-02,
    -1.94310378e-02, -3.93586457e-01,  1.08517396e+00, -3.91287766e-02, -3.35349813e-02, -8.99598897e-02, -9.39527750e-02, -1.99913740e+00,
     7.50900209e-01, -4.21775877e-02,  9.80983023e-03,  5.60110867e-01,  3.83496955e-02, -1.38843501e+00, -1.11781195e-01, -1.17360044e+00,
    -4.73593250e-02, -7.31039979e-03, -2.77458429e-02, -6.28319085e-02, -3.76149602e-02, -4.12995042e-03,  2.96641886e-03, -8.10918689e-01,
    -1.12457111e-01,  1.03384711e-01,  2.28875084e-04, -7.06722140e-02, -3.19912732e-01, -6.83589578e-02, -9.18237418e-02,  2.91056424e-01,
     7.75010586e-02, -1.03701614e-02, -9.11165774e-03,  7.66713917e-02,  7.88833946e-02, -5.65453209e-02, -7.62732506e-01,  3.00699063e-02,
    -1.30839035e-01,  9.59842093e-03,  1.07274942e-01,  9.22350734e-02,  7.95058131e-01,  1.08358109e+00, -9.20167044e-02, -8.17937016e-01,
    -1.07489251e-01,  1.10545352e-01, -2.45119557e-01,  4.49615829e-02,  1.05701657e-02,  2.81562239e-01,  8.30582321e-01, -1.16341317e+00,
     6.60234541e-02,  6.40611649e-01, -5.44579141e-02, -1.32416347e-02, -7.06648976e-02,  5.24837449e-02, -3.69959086e-01,  1.12681791e-01,
     2.84381825e-02, -1.16809174e-01, -9.16410387e-01,  7.27273449e-02,  1.40305692e-02,  6.11504018e-02, -2.33692527e-02,  1.05754626e+00,
    -8.21390331e-01, -9.80170518e-02, -7.62725025e-02,  1.30938932e-01,  2.01878622e-02,  7.57914364e-01,  8.35320055e-02,  1.30665791e+00,
     3.96835357e-02, -2.03690127e-01, -1.22137010e-01,  5.98706007e-02, -1.24248691e-01, -4.47720885e-02,  5.82718700e-02,  5.09782732e-01,
     5.44199049e-02, -1.34395324e-02, -2.09817693e-01,  6.93037286e-02, -6.73812106e-02, -1.22686639e-01, -5.11493459e-02,  1.27814126e+00,
     9.73735563e-03, -1.28708156e-02, -5.34229875e-02,  1.19548291e-01, -3.54928732e-01,  2.34811887e-01,  4.00538057e-01, -4.04732861e-02,
};
static const float b2[3] = {
     1.93148002e-01,  2.93184072e-01, -3.46799046e-01,
};
