/* Auto-generated by ml_training/rl/export_policy_c.py — DO NOT EDIT */
/* Student MLP: 16D input, 3 actions */
/* Hidden sizes: [64, 64] */
/* Total params: 5,443 */
/* Accuracy: 0.9778 */
#pragma once

#define STUDENT_STATE_DIM  16
#define STUDENT_ACTION_DIM 3
#define STUDENT_NUM_LAYERS 3

/* Layer 0: [16] -> [64] */
#define LAYER0_IN  16
#define LAYER0_OUT 64
static const float w0[1024] = {
    -1.42166018e-01, -5.33140302e-02,  6.22228086e-02,  2.47895360e-01,  2.41756320e-01,  1.36817604e-01,  1.56844676e-01,  2.35748887e-02,
     1.09142661e-02, -7.76190162e-02, -9.82708931e-02,  2.47581542e-01, -1.27675444e-01, -1.62679255e-01, -5.03967702e-02, -2.16577232e-01,
    -1.01887178e+00,  1.74873030e+00,  3.18734705e-01,  5.81035018e-01, -1.61147967e-01, -6.04232401e-02,  2.57344365e-01,  1.46969497e-01,
     2.29322314e-02,  3.32032621e-01, -4.26161379e-01,  1.90550968e-01,  1.47129059e-01,  2.01232269e-01, -5.75913824e-02, -1.46899754e-02,
     1.41704655e+00, -2.40821409e+00, -4.01094973e-01, -8.07979643e-01,  3.85701597e-01, -4.21299376e-02, -1.60918832e-01, -3.80347520e-01,
    -1.46287456e-01, -9.95894253e-01,  4.08315390e-01,  8.43528435e-02, -2.67560072e-02,  1.60049230e-01, -3.35957944e-01, -9.02165771e-02,
     1.58999801e+00, -8.74067545e-01, -3.52596372e-01, -6.09436512e-01,  1.42946944e-01, -4.75845814e-01, -3.91154915e-01, -2.00815052e-01,
    -4.86693352e-01, -4.53416020e-01,  2.52344340e-01, -8.12054932e-01,  2.59095758e-01,  5.40980138e-03,  1.22075789e-01,  9.90694240e-02,
     7.97661364e-01, -1.71574235e+00, -3.51146489e-01, -3.32836747e-01, -3.44456792e-01, -3.45115095e-01, -2.39144608e-01, -2.30624512e-01,
    -1.11166291e-01, -7.38187611e-01,  6.68823123e-02, -2.12520555e-01, -1.39591411e-01,  1.07021473e-01,  8.87160823e-02,  6.60345405e-02,
     1.42648888e+00, -2.66271520e+00,  1.50314271e-01, -5.15398681e-01,  7.30556488e-01,  4.38128769e-01, -2.72803247e-01,  1.37204956e-02,
    -3.05734836e-02, -8.02852333e-01,  9.75670159e-01,  1.72657475e-01, -1.66188911e-01,  1.06955573e-01,  2.62805939e-01, -3.78586113e-01,
     8.98860633e-01, -2.18645287e+00,  1.50494874e-01, -4.50158298e-01,  7.55762011e-02, -3.27193946e-01, -2.49599397e-01, -3.11378837e-01,
     1.22182049e-01, -6.20293975e-01,  5.66370964e-01, -2.89064217e-02, -2.78497130e-01,  1.04853429e-01, -2.98633844e-01,  2.40236834e-01,
    -1.49900091e+00,  2.10855937e+00,  1.78974926e-01,  6.44068658e-01, -7.53363132e-01, -7.31896162e-02,  3.62530281e-03,  1.84126824e-01,
     2.88745403e-01,  6.05058491e-01, -5.25522470e-01,  1.84791461e-02, -1.76560003e-02,  6.04525395e-02,  4.07454014e-01, -3.10093522e-01,
     1.20449317e+00, -1.45020056e+00, -5.21799803e-01, -3.89132053e-01,  3.71194243e-01,  2.31733248e-02, -4.56034809e-01, -3.38670343e-01,
    -4.76784915e-01, -5.68338335e-01, -2.83861104e-02, -1.80387720e-01,  2.01936364e-01, -3.05281151e-02, -2.05680281e-01,  1.86964601e-01,
    -3.85982427e-03,  7.61759460e-01, -5.99614739e-01, -3.03046077e-01, -6.25908911e-01, -5.73047459e-01, -7.44219363e-01, -8.17311525e-01,
    -4.15283322e-01, -8.11129570e-01, -8.35153043e-01, -1.12959421e+00,  1.13205865e-01,  4.61124927e-02, -3.90836298e-01,  3.35484922e-01,
    -1.35601670e-01, -2.59926319e-02, -1.20845437e-01,  7.63300061e-02,  1.65825248e-01,  7.76815414e-02, -8.60397220e-02,  1.76663607e-01,
    -1.57357097e-01,  1.53231204e-01,  1.68619782e-01,  1.48686975e-01, -2.03967094e-02, -2.27289617e-01, -6.60857856e-02,  1.93302482e-01,
     1.78135002e+00, -2.13386536e+00, -3.42341393e-01, -4.71118331e-01,  6.21352315e-01,  1.13911450e-01, -2.24649251e-01, -1.72276378e-01,
     8.98846705e-03, -5.29192924e-01,  5.49708486e-01, -1.70459151e-01, -1.82155438e-03,  7.44363591e-02, -2.02718616e-01,  1.52210981e-01,
    -1.39831054e+00,  1.53017330e+00,  1.29538644e-02,  4.78017181e-01, -5.69786370e-01, -5.64106628e-02,  3.56015444e-01,  8.12876299e-02,
     1.62050545e-01,  5.74235380e-01, -5.66891134e-01, -4.65126373e-02, -7.96358660e-02,  1.22636139e-01,  1.21577695e-01, -1.98522098e-02,
     9.86083806e-01, -1.94328499e+00, -1.16426401e-01, -5.63722014e-01,  4.46213424e-01, -2.27721393e-01, -4.15065855e-01,  4.51231822e-02,
    -7.58572519e-02, -8.25706005e-01,  2.39756867e-01, -2.05037832e-01, -1.04617819e-01,  6.83525577e-02, -9.81152281e-02, -8.22533015e-03,
    -1.32933688e+00,  2.36516166e+00,  1.80113316e-01,  3.04768145e-01, -2.48687714e-01, -1.75123408e-01, -1.24000229e-01, -1.34161770e-01,
    -2.19073206e-01,  1.29174948e-01, -8.28515232e-01, -2.60407329e-01,  1.27279833e-01,  6.45924509e-02, -4.43961650e-01, -1.69550236e-02,
     2.37088948e-01, -1.86531693e-01, -9.68156457e-02,  1.57957077e-02, -1.18492872e-01,  1.08078629e-01,  1.69537455e-01, -1.29382432e-01,
     1.14863962e-01,  1.50740087e-01,  1.74249113e-01, -1.98238522e-01,  1.56546891e-01, -2.27304786e-01,  1.34421140e-01,  1.83971852e-01,
    -1.15164769e+00,  2.09992051e+00,  1.24123335e-01,  2.37747580e-01, -6.50665700e-01, -3.84563833e-01,  5.74945062e-02,  6.61824346e-02,
    -1.73847497e-01,  4.52477932e-01, -8.28520477e-01, -3.96126062e-01,  1.80251911e-01, -2.83414964e-02,  2.26209149e-01, -3.04002855e-02,
    -2.30586886e-01,  2.46897966e-01, -3.15096080e-02,  1.02863014e-01, -5.18199205e-02,  2.17303932e-02,  7.25527704e-02, -2.90248990e-02,
    -3.22155654e-02,  1.31691277e-01,  1.66907310e-01,  9.41940844e-02,  6.22101724e-02, -2.01208621e-01,  2.10878074e-01, -2.17070580e-01,
    -2.49595642e-02,  4.59810495e-02,  1.22297764e-01, -5.16233146e-02, -1.71736836e-01, -6.80636764e-02,  2.18920708e-02,  6.00402057e-02,
    -1.49109811e-01, -1.79822892e-01,  1.52483881e-01,  2.19283313e-01,  2.27527559e-01, -1.85834706e-01,  1.27799571e-01, -3.65954638e-02,
     1.32311583e-02,  3.65853310e-04,  5.49083352e-02,  2.41979897e-01,  4.03264165e-02, -2.00352073e-01, -1.38119936e-01, -2.07726896e-01,
     1.08789742e-01,  1.10062957e-01,  7.48835206e-02,  3.94983292e-02,  8.72060061e-02, -1.14594400e-01,  2.89974809e-02,  3.45510244e-03,
     1.93412018e+00, -2.41154218e+00,  3.06307971e-01, -8.27840626e-01,  9.81118023e-01,  4.71419811e-01, -5.81083000e-02,  5.24079800e-02,
    -8.49387944e-02, -9.61191893e-01,  6.49312973e-01,  2.73361713e-01, -9.01608728e-03,  1.06042381e-02, -9.51526165e-02, -4.93184626e-02,
    -1.13781005e-01, -3.36709619e-03, -1.33383274e-03,  1.10601187e-01, -2.20518708e-01, -4.86871898e-02,  2.46132404e-01, -1.32337987e-01,
     2.97056139e-02,  1.31320000e-01, -7.34912157e-02,  1.83617473e-01, -1.09425873e-01,  9.55423713e-03,  7.46211410e-02,  4.42247689e-02,
    -1.54630864e+00,  1.68856800e+00,  2.12314233e-01,  6.52895272e-01, -4.77294475e-01,  3.38786721e-01,  3.02480489e-01,  2.90722936e-01,
     3.68712634e-01,  6.14740849e-01, -3.95971477e-01,  3.57150763e-01, -2.79172719e-01,  2.23570049e-01,  1.10212043e-02, -3.98927003e-01,
    -1.38597882e+00,  2.13882470e+00, -3.22530240e-01,  4.28756446e-01, -9.26430762e-01, -5.05070448e-01,  8.44409391e-02,  1.35281444e-01,
    -6.62780330e-02,  5.48598051e-01, -9.93518174e-01, -2.40813613e-01,  2.45650381e-01, -7.12554380e-02,  2.09764242e-01,  1.49154767e-01,
    -2.07574630e+00,  2.22938418e+00, -2.28794217e-01,  4.69412953e-01, -1.01102459e+00, -1.86783567e-01, -2.26205047e-02, -2.25998182e-02,
     1.09155467e-02,  8.26660454e-01, -9.97914076e-01, -1.36673704e-01, -1.98296890e-01,  1.15323968e-01,  3.18568736e-01, -4.49437760e-02,
    -1.49477947e+00,  1.32244444e+00,  5.27793169e-01,  4.99468058e-01,  2.40296796e-02,  4.25818652e-01,  4.35217798e-01,  4.35223222e-01,
     4.46103364e-01,  8.48904133e-01, -2.34847322e-01,  5.87644458e-01, -2.66083658e-01,  1.38373345e-01, -8.43703896e-02, -1.14167102e-01,
     6.72379732e-02,  4.54821885e-02,  2.02192247e-01,  1.96731985e-01, -3.42283547e-02,  1.03632450e-01,  8.44204426e-02,  1.57223791e-01,
    -9.36660171e-03,  2.04341173e-01,  1.49074793e-01,  1.89712435e-01, -1.42415524e-01, -2.15723664e-01, -1.99490786e-03,  1.81388676e-01,
    -1.66462928e-01,  2.20918030e-01,  1.52463287e-01,  1.08665615e-01, -9.61640477e-03, -1.44067734e-01, -2.25267142e-01, -6.06841147e-02,
    -1.48099929e-01, -2.32161283e-02,  1.94737554e-01, -1.40377820e-01, -1.76936358e-01, -1.55924886e-01, -1.63913697e-01,  2.41504312e-02,
     1.35433704e-01, -1.91947758e-01, -6.38471544e-02,  1.80774152e-01, -3.81596684e-02, -1.06170893e-01, -2.38749892e-01, -6.57725930e-02,
    -2.00533301e-01,  1.43696368e-02, -1.99076802e-01,  1.79656416e-01, -4.75483239e-02, -2.08669603e-01,  4.30031419e-02, -1.87830210e-01,
    -3.79622579e-02, -1.87456608e-05, -1.93704635e-01,  9.49265957e-02,  7.22189248e-02,  8.74949396e-02, -2.44922429e-01, -1.97547674e-01,
    -1.96207941e-01, -1.45954221e-01,  2.20553130e-01, -1.89591676e-01, -2.18096673e-01, -2.18074501e-01, -1.26841366e-02,  2.49935299e-01,
     1.29996032e-01, -4.16100621e-02, -2.27472842e-01,  9.39744487e-02,  1.28772259e-01,  1.20713674e-01,  1.70051232e-01, -2.32972965e-01,
     6.66570058e-03, -1.62670419e-01,  1.14568718e-01, -1.82885692e-01, -8.95817131e-02,  1.31637817e-02,  1.80965260e-01,  6.84638619e-02,
     7.20743537e-01, -1.45885539e+00, -7.17842042e-01, -5.71705759e-01, -6.40120432e-02, -7.20054626e-01, -4.15006757e-01, -2.69939780e-01,
    -2.52216905e-01, -8.33578587e-01, -3.72161299e-01, -9.31296110e-01,  1.03258856e-01,  9.92441326e-02,  1.92124769e-03, -1.03696853e-01,
    -9.99648869e-02,  1.23915017e-01,  1.14383698e-02, -2.23149002e-01, -2.03551173e-01, -3.77324224e-02,  2.01539099e-02,  1.43270910e-01,
    -1.62438512e-01,  1.67050093e-01, -1.10734701e-01,  7.72601366e-03, -1.11659706e-01, -1.75452828e-02, -1.26428723e-01, -7.32847750e-02,
     1.08201182e+00, -2.50564289e+00,  3.99771780e-02, -7.68691719e-01,  5.37786007e-01, -1.27161434e-03, -2.79738665e-01, -4.15051848e-01,
    -1.68617845e-01, -8.73181999e-01,  2.93839812e-01,  2.34981924e-01, -1.94225833e-01,  8.86204988e-02, -5.63630402e-01,  1.21155843e-01,
     2.42209196e-01,  1.56232476e-01,  1.47453696e-01, -1.36012316e-01, -9.97783542e-02, -1.01386666e-01,  1.18096471e-01,  1.50429040e-01,
     2.22240120e-01,  1.93331003e-01, -2.28410363e-01, -2.34042943e-01, -1.84848398e-01, -1.24233395e-01,  4.81444299e-02,  2.00999886e-01,
     7.73002803e-02, -2.47367740e-01, -2.04162240e-01,  4.64788377e-02, -1.10534966e-01, -1.34574473e-02, -1.44054830e-01,  1.42133325e-01,
    -1.66772425e-01, -6.19686246e-02,  2.18395054e-01,  1.84502244e-01,  7.80086219e-02, -2.07381725e-01, -2.32248157e-01, -1.75786912e-02,
    -6.25198334e-02,  1.87622800e-01,  7.88895413e-02,  1.21431045e-01, -1.83108643e-01,  6.39435649e-02,  1.35213837e-01, -1.95446517e-03,
     4.55330918e-03,  4.58103754e-02,  4.82544228e-02,  1.39096186e-01,  1.69875082e-02, -2.15985719e-02,  3.09091471e-02,  5.98676428e-02,
     8.85644555e-03,  1.30794078e-01,  1.67368323e-01, -1.07729137e-01, -1.46842927e-01, -2.07450539e-01, -5.69432676e-02,  5.57727814e-02,
    -1.07063740e-01, -2.08356529e-01, -2.39807189e-01,  1.40421242e-01, -1.30170733e-01, -1.41395092e-01, -6.79572821e-02, -1.30425006e-01,
    -1.01493120e+00,  1.96253920e+00, -2.81519920e-01,  4.51704860e-01, -5.75219929e-01, -2.54403919e-01, -2.84671605e-01, -1.60198793e-01,
    -9.78948176e-02,  3.86145741e-01, -8.45439911e-01, -3.66166145e-01,  1.90975532e-01, -2.54214238e-02,  3.32165090e-03,  1.45156816e-01,
     1.61152840e+00, -2.13817120e+00, -3.20120782e-01, -5.76025903e-01,  3.86232853e-01, -2.42255360e-01,  5.48652038e-02, -1.57664359e-01,
    -3.71437997e-01, -8.43214571e-01,  3.29524875e-01, -3.38782042e-01,  1.74056776e-02, -3.97430966e-03, -2.06903249e-01,  3.12103242e-01,
    -5.49701452e-02, -7.11226165e-02,  2.04762816e-01, -2.18814969e-01,  7.07426667e-02,  4.82841730e-02,  2.08527654e-01,  2.39789546e-01,
    -1.04751080e-01, -4.30752337e-02,  1.91507101e-01,  2.18997300e-02, -2.47301668e-01, -6.34396076e-02, -2.12677866e-01, -1.40888244e-01,
    -1.73321471e-01, -1.20147276e+00, -8.53231072e-01, -3.87311310e-01, -1.23561418e+00, -1.12250102e+00, -8.15878570e-01, -6.68507516e-01,
    -8.94130588e-01, -8.20385873e-01, -1.06296134e+00, -1.71921217e+00, -1.45065142e-02,  7.34197572e-02, -2.37263039e-01, -1.18729368e-01,
     1.84579647e+00, -1.90022647e+00, -1.58830225e-01, -6.42205179e-01,  5.21943152e-01,  3.40567939e-02, -6.45857677e-02, -1.89287335e-01,
    -1.26841351e-01, -4.53975677e-01,  5.87615013e-01, -1.08859502e-01,  1.75671592e-01, -9.05991532e-03,  1.66726351e-01, -1.97334632e-01,
     1.32487923e-01, -8.38842988e-02,  2.20234573e-01, -1.12739623e-01, -1.93465889e-01,  1.85762674e-01, -5.43864667e-02, -2.15302408e-01,
     7.95790255e-02, -1.07689619e-01,  1.48433656e-01, -1.65577263e-01, -9.74133909e-02,  1.41078234e-02,  1.58851743e-02, -1.45721436e-01,
     2.61363387e-02, -8.80850554e-02,  2.17926323e-01, -2.37207413e-02,  6.55617416e-02, -2.02929288e-01,  1.74910456e-01, -1.02614552e-01,
     6.87950850e-02, -2.38826305e-01, -1.15665436e-01,  1.33340776e-01, -2.38298208e-01, -1.99615389e-01, -6.00418448e-02,  1.81490988e-01,
    -9.50633049e-01,  2.30294061e+00, -2.03895010e-03,  3.32131058e-01, -4.88223553e-01, -2.08920956e-01,  8.12674016e-02,  2.82995477e-02,
    -3.26492898e-02,  5.77609956e-01, -8.35165918e-01, -1.63916975e-01,  1.92059919e-01, -5.01494408e-02, -6.94336221e-02,  1.86365247e-01,
    -8.99644732e-01,  2.08087444e+00, -1.01929687e-01,  3.36291313e-01, -2.92148143e-01, -6.41043857e-02,  4.83636409e-02,  1.15214705e-01,
    -1.30983129e-01,  9.99209061e-02, -7.21276820e-01, -3.11860383e-01,  7.07178861e-02,  7.58321956e-02, -2.50790775e-01,  4.91400324e-02,
    -1.01915514e+00,  1.89196193e+00,  1.24372005e-01,  3.42757046e-01, -3.30779463e-01,  9.93737355e-02,  1.84750959e-01, -1.99249815e-02,
     2.87644506e-01,  3.39387268e-01, -3.25156420e-01, -2.64017005e-02,  3.67255211e-02,  7.57628381e-02, -2.43792549e-01, -1.31623551e-01,
    -1.40338850e+00,  1.94914556e+00,  9.08329710e-02,  4.34300035e-01, -4.44560230e-01,  3.76029387e-02,  2.44469699e-02,  2.02923834e-01,
     1.28043350e-02,  6.73457563e-01, -4.51590389e-01, -2.02960685e-01,  2.64527261e-01, -3.92387174e-02, -1.39683038e-01, -3.18284988e-01,
     1.39737636e-01,  3.35990787e-02,  1.58699542e-01, -2.31550336e-02, -8.00114870e-02, -9.84993875e-02,  1.58742994e-01,  6.63640499e-02,
    -2.06920147e-01,  1.61364138e-01, -1.53421283e-01, -1.46870434e-01,  2.00109184e-01, -1.98571056e-01,  2.37273335e-01,  2.49084830e-01,
     2.17039436e-01,  8.91448259e-02, -1.33256823e-01, -4.25808430e-02, -2.30088294e-01,  2.24786013e-01, -3.64947915e-02,  1.78833812e-01,
    -1.50926828e-01,  2.63423622e-02, -5.01177907e-02,  5.27709126e-02, -8.71516466e-02, -1.32076442e-01, -7.65597820e-03,  1.07751757e-01,
     1.64763463e+00, -2.43988180e+00,  8.02626833e-02, -5.89684606e-01,  3.67988199e-01, -6.00008965e-02,  4.50079851e-02,  5.42847551e-02,
    -2.01289784e-02, -6.78522468e-01,  8.91029298e-01,  1.16139397e-01, -5.47299422e-02,  2.37551052e-02,  1.03944488e-01,  1.09322906e-01,
    -3.74279171e-01, -1.07889318e+00,  2.49576181e-01,  9.99128819e-02,  6.20519221e-01,  5.72901249e-01,  1.82788581e-01,  2.74066061e-01,
     6.20846927e-01,  6.14723384e-01,  6.17457509e-01,  9.02594805e-01, -3.21433574e-01,  1.37051165e-01,  3.99997741e-01, -9.56917275e-03,
     1.57940292e+00, -2.14048195e+00, -2.68572241e-01, -4.56584811e-01,  6.10022426e-01,  1.06864259e-01, -1.35489047e-01,  3.82918231e-02,
    -1.72338575e-01, -7.09846914e-01,  6.76331997e-01,  1.44004077e-01, -1.68360934e-01,  7.83119276e-02, -1.21423833e-01,  3.84692401e-01,
    -1.11208051e-01,  2.00064808e-01, -1.12452209e-02, -1.70642257e-01, -2.30859280e-01, -1.79362237e-01, -1.66400433e-01,  2.21952915e-01,
     1.58892393e-01,  1.57982111e-04,  1.81730628e-01, -1.03938371e-01,  1.03241384e-01, -2.49623656e-01, -1.60142481e-02,  2.28533119e-01,
     2.31338888e-01,  1.76991880e-01,  7.20628798e-02,  1.15572780e-01, -2.40719318e-02,  1.91714138e-01,  2.45141387e-02, -1.77060038e-01,
    -2.18019038e-01, -8.94453228e-02,  1.98903292e-01,  1.17231280e-01,  7.57805407e-02, -1.89651608e-01,  2.92566717e-02, -2.05662847e-01,
    -9.45514977e-01,  2.00581598e+00, -4.68173623e-01, -2.71301508e-01, -1.28772020e+00, -9.56735134e-01, -6.07798219e-01, -6.20205045e-01,
    -4.44426298e-01, -5.62103570e-01, -1.04578876e+00, -1.18854880e+00, -7.99099207e-02,  3.55886519e-02,  2.75311738e-01,  8.03651750e-01,
    -1.10917771e+00,  2.18481374e+00,  2.11674973e-01,  4.23810542e-01, -3.76762450e-01,  4.75086085e-02, -1.16883116e-02, -8.53314181e-04,
     3.23864877e-01,  4.80594546e-01, -6.10316873e-01, -3.61586623e-02,  8.26339722e-02,  1.22672886e-01,  5.41116334e-02, -3.66701394e-01,
    -7.84877837e-02, -9.17194486e-02, -9.35332179e-02, -1.32244438e-01,  3.90747190e-03, -1.59765691e-01, -1.47566974e-01, -1.49499178e-01,
     7.51831830e-02, -8.33105445e-02,  7.87315667e-02,  8.13999176e-02,  1.50032431e-01, -2.22286850e-01,  2.37945974e-01, -2.09932745e-01,
     1.64386690e+00, -2.04615450e+00, -3.35459918e-01, -6.39070034e-01,  3.37525785e-01, -1.88122876e-02, -3.23814631e-01, -4.75626171e-01,
    -3.99112254e-01, -7.86017478e-01,  4.98417199e-01, -2.37928227e-01,  1.09602235e-01,  7.20148310e-02, -2.35726476e-01,  2.33445361e-01,
     1.15005267e+00, -1.92813766e+00, -3.77428412e-01, -7.27195919e-01,  5.00391662e-01, -2.70821244e-01, -4.94389296e-01, -4.08705235e-01,
    -1.99631527e-01, -9.41303790e-01,  4.93376225e-01, -2.59903818e-01, -1.98933870e-01,  1.24438256e-01, -4.09045607e-01, -1.98783707e-02,
     1.54252887e+00, -1.15238357e+00, -4.74781394e-01, -4.55517054e-01,  3.48256767e-01, -6.01982355e-01, -2.94246078e-01, -2.28322521e-01,
    -3.12797874e-01, -7.40246117e-01,  1.38657331e-01, -9.38859224e-01,  2.66152620e-01, -6.31093979e-02,  6.43617474e-03,  2.13213667e-01,
     1.04022324e-02,  6.12857342e-02,  2.11045325e-01,  1.78798437e-02,  5.95532954e-02, -1.96595132e-01,  4.78548110e-02,  4.22610044e-02,
     1.07091129e-01,  1.07497722e-01,  1.41740888e-01, -8.13986063e-02, -1.39208496e-01, -1.75708801e-01,  2.29962617e-01, -1.84394389e-01,
    -1.39762676e+00,  7.46417046e-01,  6.37069821e-01,  3.85505915e-01,  1.11609071e-01,  2.63258338e-01,  1.05343342e-01,  1.88424915e-01,
     5.53784609e-01,  7.43600726e-01, -1.28604710e-01,  8.65684688e-01, -3.10889542e-01,  1.66098580e-01, -2.06873536e-01, -2.54017800e-01,
};
static const float b0[64] = {
     2.37180442e-01,  1.98361892e-02, -3.24039072e-01, -2.98305660e-01, -5.59261084e-01, -2.69948274e-01, -2.60689352e-02,  3.36512625e-01,
    -3.12244147e-01, -5.34887791e-01, -8.36197734e-02,  1.03693772e-02,  8.44410509e-02, -3.48056316e-01,  7.03714192e-02, -2.21297622e-01,
     1.39545843e-01, -9.11558568e-02, -1.76582009e-01,  2.18433470e-01,  9.25956592e-02, -1.13691002e-01,  4.16884363e-01,  9.63626727e-02,
    -1.70849770e-01,  4.30505663e-01,  8.51148963e-02, -2.20435470e-01,  2.09965527e-01, -7.14646876e-02, -1.89607561e-01, -2.50654787e-01,
    -1.59451753e-01, -8.40196460e-02, -8.85722935e-02,  3.14436853e-02,  3.42593044e-02,  1.57653093e-02, -1.66663691e-01, -9.99158099e-02,
     6.87392354e-02, -8.07551324e-01, -1.56690732e-01,  1.75024509e-01,  2.45946914e-01, -1.75279398e-02,  6.91381097e-02,  2.72345871e-01,
     2.89063960e-01,  4.95845973e-02,  1.18092686e-01,  1.19415157e-01,  5.71200967e-01, -2.09988430e-01, -2.47888654e-01,  2.30018646e-01,
    -5.41494548e-01,  7.06668347e-02,  1.40334815e-01, -4.10977334e-01, -3.37441713e-01, -3.63102019e-01, -1.93591446e-01,  4.14639205e-01,
};

/* Layer 1: [64] -> [64] */
#define LAYER1_IN  64
#define LAYER1_OUT 64
static const float w1[4096] = {
     9.67210531e-03,  9.45472643e-02,  5.69721758e-02,  1.57387704e-01, -1.35187805e-02, -2.25371405e-01, -1.52511150e-01, -2.15444133e-01,
     2.12908417e-01, -1.59186255e-02,  9.87365842e-02,  8.77530351e-02, -9.63096470e-02,  1.22578191e-02,  1.51386008e-01, -6.19590580e-02,
     1.56537369e-01, -1.43763274e-02, -1.00912690e-01,  6.56515658e-02,  4.12014633e-01,  4.81545925e-03, -2.90475339e-01,  3.35545033e-01,
    -3.37020516e-01, -3.40348899e-01, -7.29102194e-02, -1.32783800e-02, -8.71926695e-02, -1.22530296e-01, -1.14986762e-01,  1.70802940e-02,
     1.03934556e-02, -3.21470022e-01,  1.67849958e-02, -1.02301314e-01, -1.95406713e-02,  7.68330544e-02,  1.87932134e-01,  4.20717627e-01,
     1.15189701e-02,  4.34808642e-01,  4.65340391e-02,  5.46465963e-02,  9.93247777e-02,  2.04253048e-01, -3.71548906e-03, -3.10618780e-03,
     2.11507380e-01,  6.17175698e-02,  8.01582187e-02,  1.32699773e-01, -5.23100317e-01, -1.37846828e-01, -3.59295905e-02, -1.22658208e-01,
     3.65067601e-01,  3.90497968e-02, -1.17560402e-01,  1.37049943e-01, -1.02235284e-02,  2.93392777e-01, -1.16671056e-01, -4.56234872e-01,
    -6.92377687e-02,  1.23593114e-01, -2.07440518e-02, -6.95213899e-02, -9.63871852e-02, -5.68385839e-01, -1.28805965e-01,  4.99222279e-01,
    -3.05008665e-02,  5.04480340e-02,  6.00587130e-02, -1.22970983e-01,  1.32496268e-01, -1.34448946e-01,  1.98814437e-01, -5.84103316e-02,
     3.64023000e-01,  1.23845473e-01, -3.44894677e-02, -9.98244584e-02, -6.89852417e-01, -3.18260491e-02,  2.25504115e-01,  5.74822426e-01,
     1.44677714e-01,  1.40175104e-01,  4.57782894e-02,  2.27771401e-02,  1.71905607e-02, -2.84783989e-02,  1.16110630e-01,  8.98533165e-02,
     1.23226494e-01, -5.85589051e-01, -9.40308273e-02,  4.89578992e-02,  1.19498886e-01,  1.02718875e-01,  2.69884259e-01, -6.40115261e-01,
     9.91956294e-02,  4.05911267e-01, -1.13024294e-01,  6.10192418e-02,  3.24718356e-02,  3.39368224e-01,  1.77177325e-01, -1.12950979e-02,
     6.73349738e-01,  4.75107878e-02, -6.38146847e-02, -3.65444213e-01, -1.49251819e-01, -3.46258253e-01, -2.09316611e-02, -5.79257756e-02,
    -2.66973004e-02,  1.68902725e-01,  9.96753722e-02, -9.12739784e-02, -1.80045515e-01,  7.81880245e-02, -2.78709680e-02, -5.01931533e-02,
    -9.01137441e-02, -1.11723416e-01,  6.83174878e-02, -9.78300422e-02,  1.44933984e-01,  6.45205677e-01,  5.99653609e-02, -2.71677040e-02,
    -9.66828614e-02,  8.19558427e-02, -7.85998404e-02, -3.77954170e-02,  2.29353979e-02,  5.72084859e-02, -7.53775015e-02,  1.04769319e-02,
    -2.07870841e-01, -5.41876107e-02,  1.10309392e-01, -1.84661299e-02,  4.47971314e-01,  3.43815684e-02,  1.91536006e-02, -7.19656944e-01,
    -4.57713127e-01,  2.35762253e-01, -4.35620546e-04, -6.12881184e-02,  2.39583552e-02, -1.22330710e-01,  1.02847353e-01,  9.50916782e-02,
     9.99273360e-03,  3.82893980e-01,  9.30864960e-02, -9.80253667e-02, -6.25570491e-02, -2.30168104e-02, -5.74120656e-02, -1.13109954e-01,
    -9.57782418e-02, -7.33931482e-01,  4.59417589e-02, -4.60124016e-03, -1.99600309e-02, -1.82161033e-01, -5.50204404e-02, -3.63608152e-02,
    -3.44497025e-01,  2.53775120e-02, -1.21641606e-02,  2.61279643e-01,  2.94517428e-01,  1.37649164e-01,  1.91773474e-02, -6.68418109e-02,
    -1.18288323e-01, -7.70670474e-02,  6.81988448e-02,  5.47948331e-02,  1.41212225e-01, -4.04137187e-02,  6.96514696e-02,  1.80553898e-01,
    -1.16365403e-02,  3.16736326e-02, -1.39436260e-01, -1.26929907e-02,  6.58998340e-02,  1.12355305e-02, -9.43967998e-02, -1.20238103e-02,
     6.76962137e-02, -1.19300999e-01,  5.80171198e-02,  1.48263993e-03, -1.25861252e-02, -3.81116867e-02, -7.48061910e-02,  5.70065230e-02,
     5.13300411e-02, -7.02119768e-02,  2.94991732e-02,  6.81212991e-02,  5.22201322e-02, -8.22752118e-02,  8.32878500e-02, -4.53471988e-02,
     7.62773007e-02,  6.61644712e-02,  3.97581905e-02, -9.82708633e-02,  1.19023860e-01,  3.27647030e-02, -5.11429608e-02,  1.37007525e-02,
     2.77186334e-02,  5.73133007e-02, -3.28554064e-02,  4.80055362e-02,  1.22063532e-01,  1.46529078e-03, -6.28755614e-02, -1.18893571e-01,
    -2.08891928e-03,  1.26952557e-02, -3.43289487e-02, -2.98905224e-02,  9.57558900e-02, -1.86924189e-02, -1.41502142e-01, -1.11778878e-01,
     8.47012475e-02,  3.84955406e-02, -2.15131789e-02, -1.22814193e-01,  8.41631889e-02, -2.40431521e-02,  1.20186463e-01, -1.02604106e-01,
    -4.46219705e-02, -3.88048701e-02,  7.82383829e-02, -5.15065081e-02,  4.15323861e-02, -8.14411044e-02,  1.66676790e-02, -1.39375702e-01,
     1.20035946e-01,  4.61562872e-02,  1.65875733e-01,  4.05702256e-02,  7.50128701e-02,  3.38048667e-01,  3.01197648e-01, -3.81821871e-01,
     1.69292524e-01,  8.79663080e-02, -9.39493626e-02,  4.55822945e-02, -1.00836478e-01,  1.23963617e-01, -7.04610571e-02,  2.07899809e-02,
    -2.79504329e-01,  1.10330313e-01,  4.37313616e-02,  1.31823868e-02,  6.31329834e-01,  9.17928815e-02,  5.79075981e-03, -2.57292330e-01,
     2.92760786e-02, -1.65893331e-01,  1.31515563e-02, -5.71974814e-02,  8.01604837e-02, -3.13995034e-02, -1.05622537e-01,  8.89749825e-02,
     1.00509733e-01,  5.24543524e-01,  4.82641160e-03,  8.76868516e-02,  1.40131637e-02, -3.24952155e-02, -1.82515532e-01,  6.57383978e-01,
     1.24134719e-02,  4.09042686e-01, -2.83329766e-02,  1.12906992e-01, -1.06163859e-01, -1.47015557e-01, -1.61789302e-02, -7.55982175e-02,
    -4.86619890e-01,  4.09552008e-02, -1.65313929e-02,  1.11003622e-01, -6.51786253e-02,  5.08716583e-01,  6.93496764e-02,  1.15002900e-01,
    -3.13090146e-01, -1.65764451e-01, -1.15182042e-01,  1.31665021e-01,  3.51454318e-01,  2.01195180e-01,  6.71020448e-02, -3.73512320e-02,
    -2.92074978e-02,  9.13703069e-03,  1.31449491e-01,  1.79973394e-01, -8.45002308e-02,  7.57860959e-01,  8.90810862e-02, -3.14362407e-01,
     1.07883491e-01,  4.81982641e-02, -1.15942568e-01,  1.97232991e-01, -9.09473002e-02, -6.76115742e-03, -1.37856558e-01, -2.05582678e-02,
    -1.64400563e-01,  1.21777415e-01,  7.36762732e-02, -2.79803276e-02,  1.38520312e+00, -6.32101446e-02, -9.99193937e-02, -2.45663032e-01,
    -9.19251561e-01, -4.40868437e-01,  4.92928028e-02,  1.19874582e-01, -8.10539573e-02,  3.51208448e-02,  6.32958338e-02, -7.53645152e-02,
     7.11657852e-02, -3.21278811e-01,  2.41195858e-02,  8.96541774e-02, -8.81418586e-02,  4.12114561e-02, -1.10708266e-01,  6.98925972e-01,
    -4.58967686e-02, -2.66800135e-01,  3.01697284e-01, -3.23146731e-02, -2.18790770e-02, -2.09861875e-01,  2.18047090e-02, -6.40275851e-02,
    -1.83488339e-01, -1.17257774e-01, -9.08490717e-02,  4.01296884e-01, -3.66818011e-02,  3.11909884e-01, -3.76033783e-03,  3.31825316e-02,
    -1.68096185e-01,  5.14205247e-02, -2.26719379e-02,  2.03756332e-01,  5.54647930e-02,  3.23439866e-01,  5.04626483e-02, -3.74233067e-01,
    -2.92896926e-02, -4.58214134e-02,  5.36906272e-02,  2.29531676e-02,  1.08396515e-01, -8.09675604e-02, -1.06764406e-01,  9.27163064e-02,
    -9.55141038e-02, -6.36639297e-02,  1.21562630e-01, -8.21168721e-02,  4.88784611e-02, -9.88055766e-02, -4.98104692e-02, -6.64742291e-03,
    -1.80068165e-02,  5.41104376e-02, -6.64390922e-02, -1.03083491e-01,  7.44475275e-02,  1.47367418e-02,  1.10842884e-02,  5.54051399e-02,
     1.71589851e-02, -6.56885356e-02,  3.32751125e-02,  9.29949880e-02, -8.72411132e-02,  1.30755007e-02,  5.75906336e-02,  1.12647474e-01,
    -8.63467008e-02, -1.21297166e-01,  1.02682069e-01,  8.25568289e-02,  4.49327528e-02, -8.07896256e-04, -5.55804223e-02,  4.11649942e-02,
    -9.16388929e-02, -9.54087675e-02, -9.45808440e-02, -1.20132625e-01,  6.59835190e-02,  9.16101187e-02,  3.47691476e-02,  5.82595170e-02,
    -1.14066437e-01, -4.22648638e-02,  3.60434353e-02,  9.54928845e-02, -3.44260782e-02,  6.83475584e-02,  5.27016073e-02, -1.08911291e-01,
     1.09762341e-01, -5.56206256e-02,  7.57988989e-02, -1.08816698e-01, -2.67058611e-03,  3.12022418e-02,  3.42348069e-02,  7.49982297e-02,
     8.24597478e-03,  1.32588506e-01, -4.59673516e-02,  3.79342884e-02, -2.92464141e-02,  4.10900749e-02,  3.69966738e-02,  1.64815217e-01,
    -3.69144678e-02,  4.63389326e-03,  1.18859038e-01,  9.20278057e-02,  1.02823362e-01,  7.41006657e-02,  1.03216164e-01,  3.85608375e-02,
     6.74442649e-02, -9.07619298e-03, -2.25883275e-02,  4.67392206e-02, -3.05113226e-01,  6.80117309e-03,  1.22388333e-01, -6.50759041e-02,
    -1.91808030e-01,  2.84548134e-01, -1.19140938e-01,  8.76531303e-02,  1.11609370e-01,  1.84171349e-02,  4.18293253e-02, -8.39883164e-02,
     4.97279465e-02, -2.32614771e-01,  2.76317745e-02, -9.83164012e-02,  8.67416561e-02, -1.13894314e-01, -2.84502916e-02, -2.83718944e-01,
     8.34804773e-02, -9.99053538e-01,  3.74825373e-02, -2.58210301e-02, -1.03221118e-01, -4.28205617e-02,  8.88269674e-03,  1.34758145e-01,
     7.81241059e-02,  6.21495843e-02, -5.03747910e-02,  1.32563666e-01,  2.92743355e-01, -9.64823514e-02, -3.30325514e-02, -1.07789353e-01,
    -2.34539270e-01,  1.54826790e-01, -1.55034661e-03,  8.57037399e-03, -2.46707685e-02, -1.42980397e-01,  1.03465647e-01,  2.27899313e-01,
     2.24813819e-03, -5.58719933e-02, -3.00370306e-02, -4.98644859e-02, -1.11089170e-01, -8.59912336e-02,  1.65221244e-02, -1.15020767e-01,
     4.28853929e-02, -1.38207525e-02,  5.32318652e-02, -3.73930782e-02,  1.22792482e-01, -1.23390943e-01, -1.01309478e-01,  1.17143527e-01,
    -7.19718933e-02, -8.18122029e-02,  3.31361592e-03, -1.01503834e-01,  1.84463859e-02, -2.01158375e-02,  1.02125451e-01, -2.04003900e-02,
     2.53904015e-02, -8.07257891e-02, -5.54011613e-02,  6.27572834e-02, -5.16231656e-02,  1.17424116e-01, -1.14122033e-03,  4.14132178e-02,
     1.04655966e-01,  2.16275752e-02,  1.21983856e-01,  3.45342606e-02,  3.18990201e-02, -1.05403498e-01,  7.64172077e-02, -1.23495951e-01,
    -7.70492554e-02,  1.00423276e-01, -9.45980102e-02, -6.24885261e-02,  1.24042690e-01,  7.76648521e-02, -1.11958086e-02, -1.53700411e-02,
    -6.50744289e-02, -5.63713163e-02,  4.45181131e-03, -7.35796839e-02,  1.06789827e-01, -2.96192765e-02, -8.36235285e-02,  1.13349289e-01,
    -3.27693522e-02,  5.41004390e-02,  3.21345478e-02, -4.19348627e-02, -2.59746015e-02,  1.00873873e-01, -1.22295111e-01,  5.34994006e-02,
    -9.28360075e-02,  5.40602170e-02, -7.83892870e-02, -2.34344527e-02,  1.44435009e-02, -1.15913630e-01, -3.34933400e-04, -5.21742832e-03,
    -1.35851592e-01, -6.19261190e-02,  6.79021329e-02, -1.37672201e-01, -6.27453029e-02, -7.64521360e-02, -3.35852280e-02,  1.23528153e-01,
    -2.98139900e-02, -3.55966687e-02,  9.92445201e-02, -1.08410865e-01, -1.22174412e-01, -1.12484738e-01, -7.31736496e-02, -8.24659616e-02,
    -1.16597086e-01,  4.54650521e-02,  3.72625589e-02, -2.29886472e-02, -6.24895394e-02, -1.16892561e-01, -1.17314696e-01, -5.25454506e-02,
     1.03679255e-01,  3.13208550e-02, -1.60932541e-06,  9.53061879e-03,  6.61597699e-02,  5.93799353e-02,  3.82804312e-02,  6.43911511e-02,
    -6.68032914e-02, -1.23012111e-01,  4.79451707e-03,  1.14510641e-01, -1.11274362e-01, -1.77791063e-02, -1.01896025e-01,  1.67633723e-02,
     3.32746804e-02, -1.21032268e-01,  4.01701778e-02, -8.04247409e-02, -6.06893301e-02, -1.09915793e-01,  6.78848624e-02,  1.11480460e-01,
     1.02140918e-01, -8.72622132e-02,  4.97378409e-03, -9.23177227e-02,  1.04166314e-01,  9.25881267e-02,  2.35783160e-02, -5.97491860e-02,
    -6.45065010e-02, -1.97279491e-02,  1.19383708e-01, -1.48201166e-02, -4.31855582e-02, -1.69556215e-02,  4.13016751e-02,  7.47579187e-02,
     4.65628207e-02,  8.88794474e-03, -6.86681271e-03, -1.91967878e-02,  8.85042846e-02, -4.10444289e-02,  1.15153708e-01,  9.18606818e-02,
     8.87298770e-03,  3.81970108e-02, -4.41308916e-02,  1.15499198e-01, -6.56531334e-01, -6.14159554e-02,  2.26270199e-01,  5.70157021e-02,
    -1.68819025e-01,  2.30451241e-01,  1.84199214e-03,  2.25855410e-03, -8.93878043e-02,  4.57131863e-02,  3.66429202e-02,  8.30799341e-02,
     6.01992458e-02, -2.40895510e-01, -3.52468491e-02,  1.88136101e-02, -3.71637121e-02, -3.76866460e-02,  6.56105503e-02, -5.36799014e-01,
     2.31285542e-02, -5.69153845e-01,  2.27617044e-02,  8.06163400e-02, -2.75570452e-02, -2.24047285e-02, -3.85268517e-02,  7.40060434e-02,
     2.93171287e-01,  1.12330511e-01,  7.44345933e-02,  7.56104365e-02,  3.67040858e-02, -1.28105566e-01, -8.50872397e-02,  2.01827586e-02,
    -2.39958078e-01, -4.77576144e-02,  8.02502334e-02, -4.61472347e-02, -2.87500098e-02, -2.47727204e-02,  9.88372862e-02,  2.88204908e-01,
     1.09569579e-02,  3.47717665e-02, -8.67728069e-02, -3.36471908e-02,  1.98699720e-02, -4.08671349e-02, -1.15225375e-01,  9.16843116e-02,
    -6.22525401e-02, -1.02935649e-01,  3.69387716e-02, -2.60249618e-02,  7.60174096e-02,  9.59867388e-02, -9.84090269e-02, -1.41931623e-02,
    -8.74757245e-02,  1.01439759e-01, -1.23284653e-01, -3.36526334e-02,  8.28457624e-02,  1.17190167e-01,  4.17700261e-02,  9.61246192e-02,
    -6.62196204e-02, -8.91442001e-02, -1.16270304e-01,  7.24676996e-02,  9.64434296e-02,  2.80016959e-02, -1.04074046e-01, -7.16706812e-02,
    -2.45700479e-02, -1.20375730e-01,  1.16762951e-01,  4.16944027e-02, -1.16426826e-01,  3.80825698e-02,  1.46321608e-02,  7.51105100e-02,
    -4.43591028e-02,  8.83033052e-02,  9.50396508e-02,  2.10407078e-02, -7.90385157e-02,  6.33061454e-02, -1.15543835e-01,  6.77440763e-02,
    -4.80589941e-02,  7.40437508e-02,  2.68601328e-02, -4.74175327e-02,  8.68105590e-02, -1.09424002e-01, -2.51583010e-02,  1.05101079e-01,
     1.28583675e-02,  6.97067752e-02,  1.02406248e-01, -1.05714083e-01,  1.04012743e-01,  1.01513080e-01, -7.58594871e-02,  5.16896062e-02,
     7.80465454e-02, -5.50747067e-02,  2.33054608e-02,  3.05466652e-02,  9.49773192e-02,  1.19279251e-01, -5.36611378e-02,  8.93443823e-03,
     2.32196748e-02, -5.70503175e-02,  1.67201012e-02, -6.09144717e-02,  1.24298289e-01, -1.08512938e-01,  1.58773065e-02,  8.83786678e-02,
     4.59819287e-02, -1.34300590e-02, -8.97032171e-02,  7.53333569e-02, -8.16996992e-02,  8.23836029e-03, -2.67420858e-02, -3.54806036e-02,
     5.22760749e-02, -1.08550817e-01,  1.51353776e-02, -1.05949342e-01, -9.53829736e-02,  3.20982933e-02,  1.05571359e-01,  6.36441112e-02,
     8.48662257e-02, -8.12244415e-02, -1.00489885e-01,  9.75995213e-02, -1.09848395e-01,  9.50163603e-02, -6.95170313e-02,  3.66815180e-02,
    -3.01478356e-02, -9.10107791e-03, -9.48473513e-02,  1.09653041e-01,  1.20964929e-01, -1.02699399e-02,  9.34262872e-02, -3.47226113e-02,
    -7.74648041e-02,  1.91575438e-02, -9.96590555e-02,  4.42133397e-02,  2.63319910e-02,  1.92485303e-02,  1.09505966e-01,  3.13393176e-02,
    -1.52209699e-02, -1.06203869e-01,  6.58477396e-02,  5.57524860e-02, -8.00470710e-02, -3.47260386e-02,  3.46901864e-02, -1.73028409e-02,
    -1.20373473e-01, -1.07782736e-01,  1.33925527e-01,  8.61251429e-02,  1.51162833e-01,  5.46909086e-02,  1.10678095e-02, -1.09489255e-01,
     9.19193923e-02,  1.01260148e-01, -6.17991388e-02, -9.20001268e-02, -6.80440292e-02, -1.18970452e-02,  1.88058577e-02,  9.32744294e-02,
     4.13401723e-02,  5.79744130e-02,  1.24125332e-01,  7.02259243e-02,  5.91842949e-01,  6.68962002e-02, -3.19271302e-03,  1.30035654e-01,
     3.28744829e-01, -2.66143024e-01,  1.14156991e-01, -7.55209774e-02,  4.51400876e-02,  5.97526878e-02,  9.97838154e-02,  1.57078013e-01,
     3.77039760e-02,  2.78767318e-01, -1.06537998e-01,  6.34611398e-02, -3.50278541e-02,  6.87020868e-02,  9.31778327e-02,  6.05413735e-01,
     1.08501315e-01,  1.12606204e+00,  8.92058536e-02, -1.01431280e-01, -4.54470515e-04,  3.67344730e-02, -2.44145840e-02, -4.69153561e-02,
    -2.31574103e-01, -7.22198188e-02,  4.87841070e-02, -1.00109152e-01, -2.11221114e-01,  1.12919711e-01, -3.07508260e-02,  6.30880892e-03,
     3.82787466e-01, -1.33427113e-01, -6.69456720e-02,  1.71148926e-01,  1.17899992e-01,  5.85860536e-02, -4.72491384e-02, -1.71728075e-01,
     3.19370329e-02,  6.46432117e-02, -1.33611690e-02, -2.07549911e-02,  7.08528385e-02,  6.92018986e-01,  2.03968808e-02, -1.71583682e-01,
     1.34367034e-01,  3.08751035e-02, -4.71200049e-03,  1.54915512e-01, -6.53645843e-02,  6.40385747e-02, -9.76170599e-02, -2.03540921e-03,
    -1.62590697e-01, -2.83209085e-02,  3.37706953e-02,  8.60019177e-02,  1.26137602e+00,  9.96433198e-03, -3.40604335e-02, -3.47437054e-01,
    -7.10258961e-01, -2.35759690e-01,  6.56645745e-02,  2.12112069e-03, -7.32862651e-02,  3.77011597e-02, -9.57099721e-02,  3.29811908e-02,
     1.01247445e-01,  9.41876411e-01,  8.28735381e-02, -9.98806953e-03, -2.76657399e-02, -8.82809609e-02, -7.99245387e-02,  7.79053390e-01,
    -3.86951268e-02,  1.86284006e-01,  3.89155209e-01, -5.06374538e-02, -6.05103374e-02, -1.14841692e-01,  2.06508785e-02,  3.91745418e-02,
    -1.98217124e-01, -4.83031273e-02,  3.54999006e-02,  1.75725624e-01, -2.71300644e-01,  3.17420512e-01,  3.47587466e-03, -7.23943859e-02,
    -2.83898532e-01, -1.10831991e-01,  3.01628113e-02,  1.92341894e-01,  2.77423650e-01,  3.71905386e-01, -2.35716552e-02, -2.28095949e-01,
     5.89832067e-02,  6.54097572e-02,  4.71775457e-02, -1.18665621e-01,  2.51111798e-02, -1.12425067e-01, -2.21168082e-02,  9.47667062e-02,
    -1.14237532e-01,  1.04513593e-01, -8.43798816e-02, -1.04004271e-01, -9.48797911e-02,  5.45111746e-02, -5.55516332e-02,  1.20790318e-01,
     5.45323193e-02, -5.25382310e-02,  2.00186819e-02,  2.78420895e-02, -6.39245380e-03, -1.17006451e-01,  6.78403154e-02,  1.22554421e-01,
    -6.13619685e-02,  1.43109225e-02,  6.32993579e-02,  6.77942187e-02,  1.15191206e-01, -5.32438904e-02,  3.16540105e-03,  1.20067559e-02,
    -6.56798482e-03,  4.24060747e-02,  6.43613338e-02, -3.45210880e-02,  3.83255221e-02, -2.24314630e-02,  1.75933205e-02, -1.19785294e-01,
     8.00897181e-02, -8.63318294e-02,  7.99314082e-02,  6.74257576e-02,  1.06869072e-01, -1.11121140e-01,  6.12863600e-02, -9.10448655e-02,
    -8.79385024e-02, -1.24431252e-02, -1.22434378e-01, -2.73323152e-02,  9.40477103e-02,  6.12076148e-02,  5.87666631e-02, -5.78156114e-02,
     1.58817973e-02, -9.26242694e-02,  7.54999816e-02, -1.14911735e-01,  6.36678515e-03, -6.40746504e-02,  5.69856763e-02,  2.06453837e-02,
     1.36909485e-02,  2.75517404e-02, -5.34175634e-02, -6.15451932e-02, -1.54363364e-02,  1.16723344e-01,  7.36952573e-02,  7.19875842e-02,
    -1.02144480e-01, -9.05782729e-02,  1.55268461e-02,  7.15193897e-02, -6.81061447e-02,  1.01044938e-01, -8.44091624e-02, -1.20999858e-01,
     8.55176747e-02,  1.01518154e-01,  1.24821499e-01, -5.07837683e-02,  5.81354797e-02,  1.83393806e-02, -7.02575594e-02, -6.20628893e-03,
     4.44683135e-02,  6.30279034e-02,  5.41041642e-02,  9.26420391e-02,  8.52210075e-02,  9.98287201e-02, -4.90037650e-02, -1.21247843e-01,
     6.82015419e-02, -7.77039081e-02, -5.40864766e-02, -2.90837586e-02, -7.41530657e-02,  6.19555265e-02,  1.36976689e-02,  1.05177775e-01,
    -7.33677894e-02,  1.20315999e-02, -1.02220476e-03,  1.08654112e-01, -4.07567918e-02, -2.65038013e-03, -3.75537127e-02,  1.24379009e-01,
     6.50582016e-02, -1.03864819e-02,  1.69129819e-02, -1.12780929e-03, -7.24027753e-02,  7.89348185e-02, -5.43920398e-02,  7.50018358e-02,
    -3.43636423e-02, -6.28100038e-02, -6.00432009e-02, -2.92901844e-02, -4.45457846e-02, -7.94930160e-02, -9.72456783e-02, -3.45089287e-02,
    -5.97637594e-02,  7.62037486e-02, -4.02023904e-02,  5.93823008e-02, -1.31288990e-01, -1.22891031e-01, -1.39610559e-01, -1.29230514e-01,
     9.32934508e-02, -7.22174495e-02, -5.05104065e-02, -2.53671538e-02, -8.32750276e-02,  5.02064116e-02,  2.97970530e-02,  1.09795332e-01,
    -2.13285442e-02, -1.57613158e-02,  7.09212571e-02, -1.20347604e-01, -1.86863821e-02,  1.03471130e-01, -1.23229817e-01, -5.28260320e-03,
     6.62875846e-02, -6.33204058e-02,  9.64462757e-03, -1.12227395e-01,  3.60444933e-02, -8.53946656e-02,  4.68500983e-03,  7.38208815e-02,
     5.70997894e-02, -1.83496829e-02, -5.75563312e-03, -4.20003980e-02,  3.08472924e-02, -1.18714690e-01,  7.85022303e-02, -1.04032487e-01,
    -1.22273713e-02, -2.04879455e-02,  9.12175477e-02,  8.69760662e-02, -2.81375796e-02, -1.27451271e-01, -1.62268081e-03, -1.33770332e-01,
    -1.07332729e-01,  2.87729204e-02,  1.21165857e-01,  8.32233354e-02,  1.95694226e-03, -1.02309510e-01,  1.09654292e-01, -1.11154690e-01,
     3.34121776e-03, -4.70593497e-02,  2.06519663e-03,  8.39305017e-03,  5.97245879e-02,  3.62590863e-03, -3.99181247e-02,  1.39358826e-02,
     6.66260719e-02,  6.52007461e-02, -1.04165971e-01, -6.50571287e-02, -5.09761274e-02,  2.42978632e-02,  4.51817364e-02, -1.23999417e-02,
     8.10146332e-02, -8.74474943e-02,  2.55699903e-02, -7.56440908e-02,  5.19592762e-02, -3.77105176e-03, -1.11957401e-01,  6.17624521e-02,
     3.38176787e-02,  8.39795470e-02,  2.16228217e-02,  1.02251768e-03, -7.99508393e-02, -1.02775067e-01, -4.53106165e-02,  4.05878574e-02,
    -9.52028781e-02, -1.24013603e-01, -4.30433899e-02,  8.98788869e-02,  5.28264493e-02,  1.00462362e-01,  1.70158446e-02, -1.13138035e-01,
    -5.06409258e-02, -9.48101133e-02,  2.38642097e-02,  5.55598140e-02, -6.10980242e-02, -6.81616068e-02,  6.08140081e-02, -1.12933010e-01,
     4.06131148e-02,  1.07023478e-01, -1.24551222e-01, -9.18224454e-03, -3.57177854e-02, -2.47548819e-02,  9.84098613e-02,  4.92218137e-03,
     8.96847546e-02, -1.20140135e-01,  9.47886854e-02,  2.97970027e-02,  5.20091653e-02,  2.07999945e-02, -7.42900670e-02,  1.17991000e-01,
    -1.20265633e-02,  6.34923577e-02, -2.17796266e-02,  5.16777635e-02,  2.98451483e-02, -1.08526841e-01, -8.33330005e-02, -4.24522310e-02,
     3.64511013e-02,  9.87524167e-03,  5.57854921e-02,  5.47140557e-03, -1.34691030e-01, -8.59871283e-02, -1.09984942e-01, -1.27745688e-01,
     9.50981379e-02,  6.96872249e-02,  5.52194864e-02, -1.04947552e-01,  6.67784885e-02, -2.01486163e-02, -1.22904032e-01,  1.16356358e-01,
    -9.56384167e-02,  5.34035563e-02, -8.62125605e-02,  5.93010783e-02,  8.74854550e-02,  4.61610258e-02, -9.50927064e-02,  4.78585251e-02,
    -7.79519826e-02,  3.55511680e-02, -3.70739996e-02, -5.21139950e-02, -1.35156959e-02, -1.06919155e-01,  6.93453401e-02, -8.08862671e-02,
     3.82731557e-02, -6.56701624e-02, -6.49635345e-02,  5.11346757e-03, -3.42420191e-02,  3.96276414e-02, -8.56371373e-02, -5.20539954e-02,
    -8.22008252e-02, -1.42220780e-01,  7.44023100e-02, -1.00042075e-02, -7.30027258e-02,  6.55498132e-02, -6.33927137e-02, -1.15877073e-02,
    -9.27141383e-02, -6.68902695e-03,  5.41896820e-02,  7.34756067e-02, -2.82369144e-02,  8.68671238e-02,  7.66228884e-02, -7.00485557e-02,
    -9.24046636e-02,  6.42762110e-02,  1.21948481e-01,  6.81209043e-02, -4.56400886e-02, -3.07155773e-02,  3.18993181e-02,  6.66298270e-02,
    -4.62161601e-02, -7.02475607e-02,  7.71036148e-02, -4.58332300e-02, -1.11686915e-01,  1.06082857e-03,  1.11444250e-01, -7.77878761e-02,
     6.81068003e-02, -8.76832157e-02, -9.51943994e-02, -2.57787704e-02,  3.99672687e-02,  4.41685766e-02,  7.45264888e-02, -1.14221156e-01,
    -3.57966721e-02,  3.58551741e-02,  3.89781296e-02, -9.28629935e-02,  3.14964950e-02, -1.83013082e-02, -8.87415260e-02, -8.85744840e-02,
     9.42867845e-02,  7.18636364e-02,  1.19424298e-01,  4.34159636e-02,  5.86270690e-02,  1.44588202e-02,  4.00290787e-02,  3.25383991e-02,
     8.44766051e-02, -1.02883920e-01,  5.72672486e-02,  1.19820923e-01,  1.78729296e-02,  4.80513573e-02, -1.88866109e-02,  1.24188006e-01,
    -1.21324107e-01, -7.44652748e-02, -4.59670871e-02,  3.98756415e-02,  3.12834233e-02, -1.66479200e-02, -3.41515988e-02,  1.55778229e-02,
    -1.10036716e-01,  2.09278762e-02,  7.40616024e-02,  1.14844620e-01, -8.73488635e-02,  6.47745132e-02,  4.66116667e-02,  7.47634321e-02,
    -3.06262821e-02, -1.20063916e-01,  4.22574282e-02,  3.76675129e-02,  7.11948723e-02,  1.29003674e-02,  1.87122673e-02,  1.98645890e-02,
    -1.18353933e-01,  1.08408602e-02, -2.84131672e-02, -1.00264736e-02, -6.49789721e-02,  9.57296044e-02, -1.22132592e-01, -1.14205286e-01,
     3.56542529e-03, -1.31624565e-01,  1.22369185e-01, -1.34751916e-01,  1.53603591e-02, -9.28958356e-02,  3.58445495e-02, -1.45292133e-02,
     3.44042480e-02, -3.12799066e-02, -1.17065981e-01, -3.63061428e-02,  3.54473665e-02, -1.19064003e-01, -1.07934728e-01, -2.50072200e-02,
    -7.13353902e-02,  9.74865910e-03,  4.49480563e-02,  5.28812408e-03,  1.24318719e-01, -1.18639722e-01, -7.47801065e-02,  4.10445854e-02,
    -9.62985009e-02,  9.75214466e-02,  4.27411497e-02, -1.10489368e-01,  1.71329081e-03, -3.58055830e-02,  8.21049660e-02, -9.64608639e-02,
    -6.91234916e-02,  7.95363858e-02,  1.80438031e-02, -3.90055180e-02, -8.06287378e-02, -1.25657529e-01, -8.13897029e-02, -4.64613251e-02,
    -1.10619307e-01,  5.43910116e-02,  2.75265276e-02,  8.92082155e-02, -1.34088010e-01, -8.45138580e-02,  5.50553203e-04,  6.01581782e-02,
    -7.84037560e-02,  9.90742221e-02, -3.63190025e-02,  3.88201959e-02,  1.42577123e-02, -1.18050799e-01, -4.64707911e-02,  9.65832844e-02,
    -4.50056493e-02,  2.14693788e-02,  3.08850724e-02,  1.45537347e-01, -7.59557262e-02, -6.16674662e-01, -1.83556080e-01, -3.58308665e-02,
     4.55965288e-02,  1.03616320e-01,  1.01604760e-02, -8.48800167e-02,  6.33279756e-02, -7.81911537e-02,  7.29634464e-02, -1.05216220e-01,
     8.33821297e-02, -4.48624045e-02, -7.32287765e-04, -3.63668054e-02, -3.59633952e-01, -1.84247792e-02, -1.92000102e-02,  4.75420326e-01,
     3.13766003e-01, -4.76009175e-02, -1.61945820e-04, -7.87840784e-02,  1.24754950e-01, -5.69070876e-03,  9.61104855e-02,  4.77418415e-02,
    -3.86774093e-02, -3.83877486e-01, -1.07043236e-01,  7.58250207e-02, -9.17873308e-02,  5.95870316e-02,  1.51158839e-01, -1.34108275e-01,
     1.11432776e-01,  7.04787731e-01, -6.41097575e-02, -7.93115795e-02, -6.94215298e-03,  2.27193058e-01,  5.68160638e-02, -2.71877423e-02,
     3.20888877e-01, -3.06079537e-02, -1.03797495e-01, -5.78035302e-02, -8.14612880e-02, -1.98890835e-01, -1.38960779e-02, -9.42903906e-02,
     1.28882781e-01,  1.30070940e-01, -4.12195921e-02,  7.46540204e-02, -1.22115396e-01,  6.29853010e-02,  8.85204822e-02, -4.34858762e-02,
     6.19093031e-02, -1.06666476e-01, -1.11931711e-02, -9.51701105e-02,  1.17360651e-02, -6.77871406e-02, -4.85553294e-02,  2.73703933e-02,
    -1.59115791e-02, -5.77542335e-02,  8.79784226e-02, -9.01388973e-02, -3.59247178e-02,  6.89298511e-02, -1.01252198e-02,  3.60476971e-02,
     1.16028488e-01,  9.96673703e-02, -3.09337676e-03, -1.40653104e-02, -2.47011483e-02, -1.01074591e-01, -4.73102927e-03,  8.11387300e-02,
    -8.55303109e-02,  4.59946245e-02, -1.11262143e-01, -8.34758878e-02,  1.01867184e-01, -5.09614050e-02,  6.68239444e-02, -3.05221975e-02,
     2.32693553e-03,  1.75189823e-02,  6.81016445e-02, -9.58093256e-02, -1.00547791e-01, -7.36532360e-02, -6.60520345e-02,  7.54786581e-02,
     3.17918956e-02,  8.70996714e-03, -2.66968459e-02,  8.64775628e-02, -6.54763728e-02, -4.50364202e-02,  4.83977199e-02,  4.99738455e-02,
    -9.71104205e-03,  8.07825178e-02, -3.90335917e-04, -6.01259172e-02,  1.18050545e-01, -6.96130395e-02,  8.81940573e-02, -5.49812615e-03,
     5.90477884e-02,  4.20564264e-02, -1.00596577e-01, -1.55124068e-02, -9.43978131e-02, -8.42660666e-05, -1.00420475e-01,  7.35955983e-02,
    -1.01091757e-01, -5.12116849e-02, -2.92710513e-02,  5.91755956e-02, -2.00220793e-02, -6.53583854e-02,  3.68173867e-02, -1.13882825e-01,
     1.78815126e-02,  1.08720958e-01, -3.71887535e-02,  7.95149654e-02, -1.06707379e-01, -7.35144317e-02, -3.87264490e-02, -3.67060304e-02,
    -7.95283616e-02, -1.23569638e-01, -9.72206593e-02, -1.02040619e-01,  4.99617457e-02,  1.92659348e-02, -5.16020805e-02, -8.69525522e-02,
    -1.06607854e-01, -7.31658041e-02,  9.11787152e-02,  1.06463566e-01, -2.77613848e-02,  6.54481649e-02, -7.25738853e-02, -1.52520388e-02,
     9.21370387e-02, -9.20612067e-02,  8.60995501e-02,  4.13992405e-02,  3.86937410e-02,  1.22502655e-01,  1.24731481e-01, -2.90422589e-02,
     4.79651392e-02,  6.02202713e-02,  8.18811357e-03, -6.92314208e-02,  2.14555711e-02,  7.77190179e-02, -1.49112791e-02, -1.05980456e-01,
     6.24069571e-02,  1.15242898e-02, -4.33292687e-02,  8.16216618e-02, -1.42745376e-02, -6.25427365e-02,  2.29855329e-02,  7.96885341e-02,
     2.83770263e-03, -8.21795464e-02, -1.20564789e-01, -6.46830499e-02, -4.28805351e-02, -2.10387409e-02,  2.06581354e-02,  9.64841247e-02,
     1.32010132e-02, -1.78198016e-03,  2.02897802e-01,  8.53833407e-02, -1.06389625e-02,  6.78371251e-01, -1.13275766e-01, -3.23439658e-01,
     6.58570006e-02, -5.51399961e-02,  1.10284805e-01,  1.28607586e-01,  4.26435843e-02,  1.24449603e-01, -7.66919628e-02,  4.85868156e-02,
    -2.89809294e-02, -2.46668309e-02, -6.91337734e-02,  1.18462279e-01,  1.11065137e+00, -1.16596743e-01, -2.14790970e-01, -5.22778392e-01,
    -5.52657723e-01, -3.25764924e-01, -8.15360695e-02,  3.74520421e-02, -1.54798627e-02,  2.45587528e-02, -5.16064391e-02,  1.46062315e-01,
     2.54148990e-02,  7.62192309e-01,  6.19070083e-02,  1.12492144e-01,  3.61992940e-02, -1.04164720e-01,  4.76652160e-02,  6.61502838e-01,
    -3.67849320e-02, -4.23655733e-02,  3.18533331e-01, -1.95822716e-02, -1.16533265e-01, -2.13609681e-01,  1.01295849e-02, -1.15157656e-01,
    -2.44646609e-01,  8.78609121e-02, -8.11539590e-02,  2.77824283e-01, -1.27663845e-02,  2.13210776e-01,  9.45848376e-02, -8.74061882e-03,
    -1.84001908e-01,  3.45530659e-02, -1.06985122e-01,  1.48233071e-01,  4.51202020e-02,  1.21085234e-01,  2.57424265e-02, -4.58298847e-02,
    -1.22663319e-01, -6.68761600e-03,  2.56663412e-02, -2.24223379e-02,  9.49646533e-02, -3.17701310e-01,  1.91499174e-01,  1.58772826e-01,
    -1.65573552e-01,  1.41732380e-01, -9.08309519e-02, -3.02733760e-02,  1.61638498e-01, -8.24232176e-02,  3.14588984e-03, -6.41348213e-02,
     6.07548431e-02, -7.48426467e-02,  4.20704037e-02,  1.20610148e-02, -6.82467937e-01,  1.14570573e-01,  2.38352329e-01,  1.16228908e-01,
     6.97301865e-01,  1.71987206e-01,  1.07357815e-01, -8.48584175e-02, -1.07408285e-01, -1.08708486e-01, -8.86446312e-02,  3.28228734e-02,
     3.66718173e-02,  1.62673414e-01,  1.21706933e-01,  1.55235976e-02, -6.98457733e-02, -1.13681152e-01, -6.97988272e-02, -3.99599046e-01,
    -1.08842701e-02,  1.51388645e+00, -3.10699791e-01, -9.82114524e-02,  8.16526711e-02, -1.35449558e-01,  9.66988876e-02, -4.92675742e-03,
    -1.33748084e-01, -8.89176577e-02,  9.17200893e-02, -1.29191652e-01,  1.39512986e-01, -5.42672761e-02, -1.02567807e-01, -1.15013570e-02,
     3.58065456e-01, -5.92976622e-02,  8.26164633e-02, -8.31748024e-02,  2.37480059e-01, -1.80893198e-01, -4.30825353e-03,  6.56639785e-02,
     2.46624500e-02,  4.61636186e-02,  3.67627442e-02, -1.49014383e-03, -8.76966566e-02, -4.74226885e-02, -4.28187177e-02, -5.90489656e-02,
     8.85102004e-02, -1.52945027e-01, -5.09008467e-02,  5.23385294e-02,  8.02413300e-02, -9.77296904e-02, -1.42041191e-01, -4.44902033e-02,
    -5.83274290e-03,  3.92282754e-02,  5.46391904e-02,  1.83960348e-02,  6.61019683e-02,  4.62206900e-02, -1.23642527e-01, -1.29872262e-01,
    -9.78480726e-02,  1.11455088e-02,  6.60601556e-02,  1.24100208e-01,  1.22689441e-01,  4.93602157e-02, -3.20613980e-02, -1.41328415e-02,
    -7.50180185e-02,  6.52589649e-02, -7.78876841e-02, -3.09523344e-02,  7.43741542e-02,  7.77736008e-02, -4.25879657e-03, -4.11754437e-02,
    -8.82436931e-02, -7.92489126e-02, -1.82666741e-02,  1.09074965e-01, -2.89220363e-02, -8.60985219e-02, -1.30405262e-01, -4.75928783e-02,
     7.78957307e-02, -5.73836863e-02, -4.70402986e-02,  3.06426156e-02, -7.84748793e-02,  8.18666518e-02, -3.12899351e-02,  7.28202015e-02,
     7.02262223e-02, -3.27877216e-02,  1.11826763e-01, -6.05014376e-02, -7.03114644e-02, -6.64626360e-02, -3.73925269e-03, -4.85478602e-02,
    -8.78136754e-02,  5.46213090e-02, -8.15537423e-02, -3.27800810e-02,  1.21044397e-01,  7.64782578e-02,  1.84966624e-03, -7.44480789e-02,
     8.51764530e-02,  2.11084187e-02,  5.05571663e-02, -6.39522821e-02,  3.27024013e-02, -1.24518350e-01, -6.32223636e-02, -4.71647978e-02,
     5.24926484e-02, -4.77761924e-02, -1.19892716e-01, -1.09755710e-01,  7.64787942e-02,  2.82873064e-02,  1.09590113e-01, -1.31437927e-02,
    -7.71356523e-02, -8.70300084e-02,  1.08918101e-02, -4.04898822e-02,  2.23334879e-02, -8.42200220e-02, -1.18239820e-01,  2.61078775e-03,
     1.14558861e-01, -2.69235820e-02,  8.77225399e-03,  9.09571797e-02,  1.10779017e-01, -1.09235540e-01, -1.22668415e-01,  1.86194330e-02,
    -6.34707958e-02, -7.68085569e-02, -3.30393612e-02,  5.18079698e-02, -3.04347277e-02, -6.98566735e-02,  9.81197208e-02,  4.45563495e-02,
     5.15054613e-02, -4.81426865e-02, -1.23159960e-01,  5.20579815e-02, -2.16192603e-02, -1.18270323e-01, -9.81659442e-02, -7.18832463e-02,
    -9.06286836e-02, -7.43607134e-02,  3.00005227e-02, -5.93190193e-02, -3.25774103e-02, -1.20271891e-02,  2.32101828e-02, -2.20293552e-02,
    -3.92767787e-02, -3.15672457e-02, -3.77969556e-02, -9.82230678e-02,  1.72136985e-02, -6.68390794e-03, -1.03404969e-01,  7.61343911e-02,
    -7.34467953e-02,  7.97647238e-02,  1.41348094e-02,  5.72423637e-02,  4.28936183e-02, -7.39574730e-02,  9.28629190e-02, -1.96483433e-02,
     2.04369240e-02,  4.81414944e-02,  3.66048217e-02, -3.50157768e-02, -1.03101123e-03,  6.00382239e-02, -1.06860720e-01, -5.22698322e-03,
     2.05502938e-02,  1.67661570e-02,  7.59335905e-02,  1.03781566e-01, -6.02285266e-02,  6.12678379e-02, -5.81631921e-02, -2.12303530e-02,
    -8.18237066e-02,  8.63075107e-02, -2.70504206e-02, -8.18411708e-02,  8.69970769e-02,  9.16210860e-02,  9.46134031e-02, -4.82335016e-02,
     2.57834345e-02, -2.39663161e-02,  4.16817330e-03, -9.79911089e-02,  1.01055056e-01, -7.67493844e-02,  5.37673309e-02, -1.26686826e-01,
    -1.10950589e-01,  7.25073665e-02,  4.87580895e-04,  6.37124181e-02,  8.79312214e-03,  7.76891783e-02,  5.35316765e-03,  1.10854670e-01,
    -9.64369476e-02,  4.07537743e-02,  6.17948622e-02,  2.85150670e-02,  6.91599399e-02, -6.20370433e-02,  8.96151513e-02, -1.28041416e-01,
     6.90885186e-02,  2.03702748e-02, -1.55481547e-02, -8.53020549e-02,  5.37294000e-02, -4.67222780e-02, -5.37094623e-02, -6.36378974e-02,
     1.19039655e-01, -1.05671570e-01,  1.28466040e-02, -3.01498771e-02,  5.66389412e-02, -6.16553724e-02,  2.45250314e-02, -1.15188554e-01,
    -1.08033493e-01,  1.03387669e-01, -4.38820422e-02, -9.54278558e-02, -3.61944884e-02, -7.53270537e-02, -5.47952503e-02, -2.44165212e-02,
    -5.19468188e-02,  1.37636960e-02, -1.80222541e-02, -4.67925817e-02, -1.17820352e-02, -7.02587515e-02, -9.35064256e-02, -1.16039589e-01,
     5.29747158e-02, -6.56968355e-02, -4.04348969e-03, -1.00523070e-01,  5.03311157e-02, -8.76793265e-03,  5.08983433e-02, -4.71392423e-02,
     1.57875717e-02, -4.33497876e-02, -8.41358304e-02, -1.02952614e-01,  5.92829287e-03,  9.58279520e-02, -5.48179746e-02, -9.42918360e-02,
     5.99787235e-02,  1.18748382e-01, -5.27937561e-02, -3.33562344e-02,  6.95498288e-02,  1.21261761e-01, -9.00999159e-02, -5.96415848e-02,
    -9.08525735e-02,  2.87167281e-02, -1.12460554e-03,  4.25685942e-03,  2.29025036e-02,  1.16857812e-01, -4.43953723e-02,  5.76152802e-02,
    -3.85747999e-02,  6.95611238e-02,  4.84584011e-02, -1.48820877e-01, -1.45154670e-01, -5.86108044e-02, -3.55718620e-02,  7.24348426e-02,
     5.09634987e-02,  3.31102288e-03, -1.15923434e-01,  2.84595396e-02, -9.41647291e-02, -1.19099602e-01, -1.00223370e-01, -6.58297390e-02,
     3.99159081e-02,  7.54616708e-02, -7.44004846e-02,  5.31697869e-02, -1.50447518e-01, -4.01353985e-02, -1.39845358e-02, -1.33105293e-01,
     3.33198309e-02, -1.31815612e-01, -1.01600572e-01,  3.46792638e-02, -1.07538670e-01,  1.09725416e-01,  3.41881216e-02, -8.51797536e-02,
     7.83201158e-02, -6.22494742e-02,  3.88198048e-02,  1.87805295e-03,  3.42750996e-02, -9.35179144e-02,  1.88078731e-02, -1.21950485e-01,
    -5.59034199e-02, -7.62182921e-02,  9.00569037e-02,  4.39555794e-02, -1.03796422e-02,  9.56351236e-02, -1.40408389e-02,  9.69992802e-02,
    -2.48542521e-02,  9.16582048e-02,  8.75647813e-02, -7.16895536e-02, -1.19047187e-01, -6.84117479e-03, -1.18511394e-01, -1.01639301e-01,
    -1.37399793e-01, -1.28841966e-01, -6.92190379e-02, -1.33696213e-01,  8.45418349e-02,  8.32489356e-02,  1.73991919e-03,  1.88529957e-02,
     6.77553564e-02,  1.73890233e-01, -5.72249219e-02, -1.64643135e-02, -4.53899205e-02, -7.76516438e-01, -2.59741783e-01,  1.59514636e-01,
    -1.69086736e-02,  1.47640958e-01, -1.14400759e-01, -9.57043990e-02, -1.30089680e-02, -1.08168215e-01,  4.50095744e-04,  7.83336014e-02,
     3.32082152e-01,  1.91155672e-02, -5.56934327e-02,  5.01232147e-02, -5.45023978e-01,  6.79442286e-03, -5.21502383e-02,  9.21197891e-01,
     5.13962030e-01, -1.30030870e-01, -1.06837258e-01, -4.48542386e-02,  5.05680740e-02, -2.85075605e-03, -2.44426914e-02, -3.02161798e-02,
     2.47163326e-02, -5.79507291e-01,  1.63708031e-02,  7.15310425e-02,  8.09460804e-02,  4.78983372e-02,  2.42740393e-01, -3.32347214e-01,
     1.06865928e-01,  8.75480294e-01, -3.85072082e-02,  7.66259432e-03, -2.12018937e-02,  4.06167477e-01,  5.01710735e-02,  1.56185433e-01,
     5.04695475e-01, -8.14104378e-02,  8.97302032e-02, -2.75239408e-01, -2.39419267e-01, -3.83667678e-01,  9.75946188e-02,  6.31618798e-02,
     4.11228627e-01,  1.12546213e-01,  5.42022884e-02,  1.17825978e-01, -1.21592812e-01,  2.57495493e-01,  3.61549854e-03, -8.96443352e-02,
    -6.10668808e-02, -9.14406925e-02, -3.17412466e-02, -4.08305228e-03,  8.70533884e-02, -1.86379403e-02,  6.53436333e-02,  7.18683302e-02,
    -9.89971608e-02, -1.15945607e-01, -7.85601884e-02,  1.00718796e-01,  1.11985341e-01, -9.05748904e-02, -4.91408706e-02,  1.12766027e-01,
     6.12134039e-02, -8.01201910e-02, -1.21659487e-02,  1.24237373e-01, -6.63448125e-02,  5.61130792e-02, -1.19811743e-01,  2.88865566e-02,
    -1.99048966e-02, -7.45365769e-02, -1.14168078e-01, -1.13217145e-01,  3.49259228e-02, -4.47899550e-02,  1.24699309e-01, -9.85285640e-02,
     1.03068620e-01,  1.01699531e-02,  6.56835437e-02, -8.65132064e-02, -3.23771089e-02,  1.32443458e-02,  2.01470405e-02,  1.23817325e-01,
    -1.17934540e-01, -3.24970633e-02,  4.96739447e-02, -3.59444320e-03,  1.21673524e-01, -4.98856604e-03, -6.07842356e-02, -1.19352579e-01,
    -2.64331400e-02, -9.86874104e-02, -2.19081938e-02, -2.58400291e-02, -7.82639682e-02,  2.22507864e-02,  6.75957352e-02, -7.75977224e-02,
    -8.61268044e-02,  2.31273025e-02, -4.87255454e-02,  9.21606421e-02,  1.00736126e-01,  3.17393392e-02, -7.56402165e-02, -4.30467874e-02,
    -7.49079883e-03,  7.07918853e-02,  7.42607638e-02,  7.98904002e-02, -1.33439839e-01,  9.51896906e-02,  4.90572602e-02, -2.09592655e-02,
    -1.43115640e-01, -1.04573078e-01,  7.55558312e-02,  1.83759928e-02,  2.34840643e-02, -1.45002753e-01, -1.88272316e-02,  2.25132704e-02,
     8.53838772e-02, -6.74554557e-02, -7.66366571e-02,  8.40196162e-02,  1.85034741e-02, -5.65791577e-02, -8.53781402e-03,  5.43751828e-02,
     1.71841793e-02, -5.55807725e-02, -5.08611500e-02,  2.85432190e-02, -2.08558142e-02, -2.14219242e-02,  1.72667503e-02, -1.36438027e-01,
    -1.14039451e-01,  3.44364047e-02, -1.74970776e-02, -5.02145290e-02,  1.06018186e-02, -7.93534666e-02, -1.03896908e-01, -1.03229925e-01,
    -8.76454562e-02, -1.00052580e-01, -7.39383847e-02,  6.59339577e-02,  5.65004796e-02,  8.52107778e-02, -7.33591318e-02, -1.44659564e-01,
     7.17058852e-02, -1.03771418e-01, -6.49733990e-02,  6.47749379e-02,  1.06820641e-02, -1.05824009e-01, -1.21107414e-01, -7.18306452e-02,
    -3.24718431e-02,  7.63462558e-02, -1.02600977e-01, -1.14639424e-01,  7.20578805e-02, -1.46662638e-01,  2.59746313e-02, -1.97053235e-02,
    -4.69807386e-02,  5.81008755e-02,  5.80518395e-02,  1.05677731e-01, -1.03716664e-01, -2.54359096e-01, -1.14024766e-01, -1.14360459e-01,
     1.28821567e-01, -1.17001720e-02,  1.23550937e-01,  8.89462382e-02,  1.26223471e-02, -1.17884241e-01,  8.89355540e-02,  1.13048539e-01,
    -3.43038291e-02, -1.02920890e-01, -6.69199228e-02,  1.01627573e-01, -4.18557703e-01, -1.05590627e-01, -6.53611273e-02, -5.84952487e-03,
    -4.68680888e-01, -8.82842913e-02, -1.71967000e-02,  1.10187143e-01,  3.07564288e-02, -7.57374316e-02,  7.02855438e-02, -1.46253079e-01,
     4.86316681e-02, -1.93690374e-01,  6.35027289e-02, -6.73848391e-02, -2.92134006e-02,  5.22186160e-02,  8.61981511e-02,  3.56520489e-02,
     1.11677572e-01, -9.11696851e-01, -3.02029331e-03,  9.21676457e-02, -4.30814624e-02,  2.70608682e-02,  9.05658826e-02,  6.26494586e-02,
     1.75449789e-01,  8.63404423e-02,  4.81678993e-02,  2.01123700e-01, -8.11720937e-02, -2.23115683e-01,  1.47302002e-02, -1.23500273e-01,
    -4.91431236e-01, -6.70261309e-02, -3.49611938e-02,  9.74190831e-02, -1.22180223e-01,  1.86432060e-02, -1.19350076e-01, -2.68851500e-02,
    -1.20891199e-01,  6.41262531e-02, -6.93706349e-02, -5.79228662e-02,  7.91400224e-02,  1.02369517e-01, -7.56185427e-02, -8.21723714e-02,
    -1.93230715e-02,  4.84073460e-02, -5.76972961e-03, -5.32272384e-02, -1.11207753e-01, -1.03063680e-01,  3.70454676e-02, -1.03163585e-01,
    -6.94573298e-02,  4.15656865e-02, -7.96603113e-02, -9.21280533e-02, -8.45087320e-02,  1.07768133e-01,  2.17324886e-02, -1.30285174e-01,
    -6.80372445e-03, -1.14244685e-01, -8.92756730e-02, -1.64398551e-03, -1.02672666e-01,  8.02476704e-03, -9.40188766e-03, -4.73436974e-02,
     1.18910238e-01,  6.76294416e-02, -2.03233957e-02, -7.87799060e-02, -2.88521238e-02, -9.91546959e-02,  9.26180184e-02, -8.98204893e-02,
     1.04307815e-01,  2.03867699e-03,  8.96348245e-03, -5.32463342e-02,  1.17512092e-01, -8.33289102e-02,  1.04766302e-01,  9.39569399e-02,
    -1.32821156e-02, -2.64595151e-02, -6.11636639e-02,  4.56427783e-02, -1.21490061e-01,  1.08400494e-01, -8.85579139e-02,  6.69178665e-02,
    -1.27081275e-01,  3.94960307e-02, -1.10669523e-01,  5.37571590e-03, -8.97899494e-02, -1.16081387e-01,  7.73279369e-03, -2.57971920e-02,
     1.04691327e-01, -5.25459461e-02,  5.00844792e-02, -6.49121553e-02, -4.32786345e-02, -1.81178302e-02,  8.01147297e-02, -5.91536537e-02,
    -6.23144582e-02, -2.34531835e-02,  1.20784745e-01,  1.78265870e-02, -6.15647715e-03,  5.30264750e-02,  7.32608810e-02,  6.04510009e-02,
     5.06935194e-02, -6.79762810e-02, -7.22041577e-02,  1.20895237e-01, -5.05108871e-02, -9.04266536e-03, -4.16468531e-02,  6.48027435e-02,
    -1.05203114e-01, -4.82459739e-02,  1.06022209e-02,  1.02536172e-01,  1.07067212e-01,  4.39561903e-02,  1.25537902e-01, -1.15953565e-01,
     1.21945053e-01,  2.46524755e-02, -1.17915481e-01, -3.37899327e-02,  3.12498882e-02, -1.15970805e-01,  7.30453059e-02, -2.17782725e-02,
    -2.55320519e-02, -1.10809922e-01,  7.95082301e-02, -8.55085552e-02, -2.81736255e-03,  4.04395759e-02, -1.56404480e-01, -1.09513268e-01,
    -1.08865671e-01,  6.47309422e-02,  5.98579645e-03,  6.29980788e-02,  1.16950618e-02, -4.54706289e-02,  6.14306927e-02,  5.78981191e-02,
     4.79014926e-02, -6.31042349e-04, -1.15671158e-02,  3.69827412e-02, -9.34670120e-02, -6.47959933e-02, -4.37232256e-02, -5.63259833e-02,
    -5.04084975e-02,  5.40514737e-02, -1.08821273e-01,  5.40473759e-02, -1.19286254e-01, -8.35961998e-02, -9.74656940e-02,  1.18146569e-01,
     1.20613262e-01, -6.67710304e-02, -5.06145954e-02,  1.67539269e-02, -1.08007729e-01,  1.13872528e-01, -2.73034275e-02,  5.82533032e-02,
     1.15118876e-01,  9.86989439e-02, -7.77094960e-02, -3.07225138e-02,  7.78689533e-02,  8.11175853e-02, -1.11553147e-01, -1.15526095e-01,
     1.20319426e-02,  3.05408388e-02,  2.45718956e-02, -1.05164945e-02,  1.12420663e-01,  6.20552897e-02,  8.85312408e-02, -1.12639800e-01,
    -1.01811633e-01, -2.93206871e-02, -7.19803572e-02, -7.20795244e-02,  6.26415014e-03,  7.04854131e-02,  8.24163854e-02, -3.30942869e-03,
    -1.09827086e-01, -5.00196069e-02, -1.21700510e-01, -4.77330536e-02, -7.73417950e-02, -6.43922538e-02, -1.58959925e-02,  4.42450643e-02,
    -7.04812706e-02, -2.01750249e-02, -7.33428895e-02,  5.93275875e-02,  1.09864846e-01,  1.11392438e-01, -2.45793164e-02,  9.99521613e-02,
    -4.67644632e-03,  1.76221132e-02,  3.34104598e-02, -5.02720773e-02,  6.84182346e-03,  3.43096107e-02,  1.19610518e-01, -2.15066969e-03,
     6.88448101e-02, -2.20235833e-03,  6.54239729e-02,  6.19982649e-03,  5.03981896e-02,  7.21494496e-01,  5.54503128e-02, -6.52695866e-03,
    -3.35269123e-02,  8.55874643e-03, -9.72460657e-02,  1.39413655e-01, -9.32674557e-02, -6.54070172e-03, -5.40611222e-02,  9.98774171e-03,
    -1.50966063e-01,  8.06514919e-02,  1.24052867e-01,  3.04905772e-02,  5.13467491e-01,  3.32589447e-03,  9.12868157e-02, -8.33769679e-01,
    -5.01108825e-01,  2.17871010e-01,  1.02580070e-01,  6.01460040e-03, -7.07640797e-02, -5.96171021e-02, -7.15199932e-02, -6.78967237e-02,
    -5.69391102e-02,  4.77165997e-01, -6.92638010e-02,  7.20567852e-02, -1.04142614e-01, -2.58233249e-02, -1.86603248e-01, -4.18801652e-03,
     6.43885136e-03, -7.99405992e-01,  1.15325563e-01,  8.54942948e-02,  1.56190097e-02, -3.87803704e-01, -9.02781412e-02,  6.98022619e-02,
    -4.50823486e-01,  6.00236058e-02, -3.38456035e-02,  1.08594418e-01,  2.11486280e-01,  1.78385198e-01,  1.06590867e-01, -8.30628872e-02,
    -2.93207347e-01,  1.59055237e-02, -6.25326037e-02, -1.19521007e-01,  8.43057185e-02, -1.41024306e-01,  1.02659926e-01,  1.03903197e-01,
    -6.78810030e-02, -1.25294581e-01, -8.56496319e-02, -1.01107702e-01, -8.10091048e-02, -1.16538806e-02,  7.36111999e-02,  2.99578882e-03,
     6.48795888e-02,  1.09408207e-01, -3.40814590e-02,  9.68562365e-02, -7.13995248e-02, -4.48931865e-02,  1.01335950e-01, -9.17560011e-02,
    -6.65834099e-02,  1.00413233e-01,  9.75072086e-02,  6.99988008e-03, -9.67531502e-02,  8.75804424e-02,  3.10924277e-03, -7.16902912e-02,
    -4.62721847e-02, -2.48402674e-02,  5.28564751e-02, -9.47263837e-03,  9.69322920e-02, -9.58575457e-02, -8.09898674e-02, -7.82010481e-02,
    -9.77209955e-02,  1.06196925e-02, -6.29882514e-02, -4.61881906e-02,  1.97091326e-02, -3.23875695e-02, -2.73610000e-02, -1.01687513e-01,
     7.61835873e-02,  5.03716171e-02, -8.45117345e-02, -7.40049332e-02, -8.06411803e-02, -6.21646792e-02, -1.06131427e-01,  9.43111628e-02,
    -2.31614504e-02, -1.19441897e-01,  1.05377913e-01, -5.09952791e-02, -9.25791189e-02,  9.91335418e-03,  6.08579665e-02, -3.94475609e-02,
     4.77270260e-02,  1.15080327e-01,  2.21226811e-02,  8.37573186e-02,  9.03714001e-02,  1.07814208e-01,  5.50606847e-02, -9.26956013e-02,
     9.72193629e-02, -8.18076730e-03,  5.35718165e-02,  1.51191428e-01,  9.19667706e-02, -6.07840717e-01, -2.32373193e-01, -3.04241348e-02,
     1.28737256e-01,  1.67504966e-01, -1.12158433e-01, -4.40252200e-02,  6.64909184e-03, -2.09482834e-02, -3.40591557e-02, -4.79846299e-02,
     3.19551587e-01,  6.81113303e-02, -8.29946250e-02,  5.63237518e-02, -3.09209079e-01, -7.87429512e-02, -3.66588831e-02,  7.29238510e-01,
     5.59923351e-01, -6.15157560e-02,  1.38074756e-02,  5.31258732e-02, -1.16938919e-01,  8.52531195e-03,  1.02008186e-01, -4.04411368e-02,
     7.71574676e-03, -3.18019301e-01,  1.15167499e-01, -6.17188066e-02, -1.04546629e-01, -4.93015349e-02,  1.56858161e-01, -6.70057759e-02,
     4.31983173e-02,  1.47221494e+00,  8.88584927e-02, -5.53315282e-02,  1.14385203e-01,  3.23444098e-01,  4.04197946e-02,  1.40808746e-01,
     3.30221921e-01,  1.06934190e-01,  3.78556997e-02, -1.91534489e-01, -1.99669823e-01, -2.35387370e-01, -3.22082937e-02, -6.83401525e-02,
     5.12866378e-01,  7.86178485e-02,  6.85434341e-02,  1.69421863e-02,  6.08060043e-03,  3.16579461e-01,  8.26540887e-02, -2.32863054e-01,
     1.10339642e-01, -2.99920142e-02, -5.85479289e-02,  4.96609360e-02,  6.81799054e-02, -1.13730848e-01,  4.34782058e-02,  1.20090291e-01,
    -7.74867833e-02,  6.42360449e-02,  5.34947067e-02, -1.09151796e-01,  2.21548229e-02, -1.16040558e-01,  1.17584601e-01,  8.22763145e-03,
    -7.08520710e-02, -5.16986102e-02,  8.26745629e-02,  8.41006935e-02,  7.75133669e-02,  4.28015143e-02, -4.33996320e-02,  2.34777778e-02,
    -9.00796503e-02, -2.03088969e-02,  3.07588726e-02, -1.02879524e-01, -2.24208236e-02,  5.61451465e-02,  3.97429168e-02,  6.90218508e-02,
    -1.15157619e-01,  9.34362710e-02, -3.43033671e-03,  4.83747870e-02, -6.95744008e-02,  6.77872300e-02,  3.10471654e-03,  4.76067811e-02,
     4.59074825e-02, -7.86181390e-02,  1.11957878e-01,  1.08432367e-01,  8.39156955e-02, -4.47486490e-02, -7.38161951e-02,  8.97207707e-02,
    -8.22552890e-02,  7.23375380e-02, -1.19049370e-01,  3.62131894e-02,  6.27292693e-03, -1.12954453e-01,  1.15703270e-01, -1.62583888e-02,
    -9.50494409e-02, -1.09836027e-01,  5.54644316e-02, -7.43960589e-02, -7.13767707e-02,  5.74335903e-02, -2.67107636e-02, -7.51377642e-03,
    -1.17374465e-01, -1.20531008e-01,  1.05439819e-01,  1.04891539e-01, -3.87373529e-02, -4.72898409e-02, -5.25492392e-02, -2.88200360e-02,
     4.01938669e-02, -4.15554456e-02, -9.05261785e-02, -9.47154015e-02,  1.10940851e-01, -1.10722734e-02,  2.83377208e-02,  1.16189674e-01,
    -1.28811477e-02,  6.11650795e-02,  1.06095672e-01,  1.08349174e-01, -9.86605585e-02, -1.20050818e-01,  3.19195576e-02, -1.78521127e-02,
     5.47083421e-03,  9.96233076e-02, -3.58220935e-02, -5.48023283e-02, -1.20767891e-01, -2.34627724e-02, -6.87195510e-02,  1.93651915e-02,
    -1.18967056e-01, -1.64490789e-02,  6.82227165e-02, -8.94188136e-02,  1.11515358e-01, -4.65808064e-02, -9.29409415e-02, -1.20870158e-01,
    -6.16137087e-02, -1.23346478e-01, -1.22446120e-01,  1.07888907e-01,  9.56117362e-02,  4.83908355e-02,  7.24475784e-03, -4.23503891e-02,
     3.41094611e-03, -6.65067136e-03, -3.70469838e-02, -5.26464134e-02,  4.09597568e-02, -8.99020731e-02,  6.33344054e-02,  7.74027854e-02,
     3.48024927e-02,  7.97439218e-02, -5.90250343e-02,  2.18016393e-02, -2.08599735e-02, -1.04289867e-01,  6.18766993e-02, -1.59114730e-02,
     1.20211244e-01,  1.83046162e-02, -1.97480023e-02, -6.39910698e-02,  1.60662830e-03, -6.03096336e-02, -4.51925844e-02, -1.14801064e-01,
    -7.51553625e-02,  8.00137669e-02,  1.07495934e-01, -4.25287187e-02, -8.39840919e-02, -3.53358984e-02, -1.00329995e-01, -7.77732432e-02,
    -1.15291834e-01,  6.03517443e-02,  1.61501467e-02, -1.63280368e-02,  5.45151830e-02,  5.76427132e-02,  1.02234691e-01,  4.16392088e-03,
     3.93245220e-02, -3.99861336e-02, -1.18787840e-01, -4.83454317e-02, -1.68023854e-02, -2.90684700e-02,  1.56551600e-04,  8.87965113e-02,
    -7.75968134e-02,  1.19692996e-01,  6.03421181e-02,  9.26490277e-02,  9.97507572e-03,  3.64382714e-02,  1.29710287e-02,  5.81028163e-02,
    -6.00743294e-02,  4.55258191e-02, -3.29926163e-02, -7.64911920e-02,  5.24427891e-02, -8.10046196e-02,  6.43346608e-02,  6.00169152e-02,
     8.76528770e-02,  7.33380020e-02, -4.15558070e-02, -1.02860659e-01, -3.71686369e-02, -5.59045225e-02, -9.57438648e-02, -9.00151432e-02,
    -4.43067998e-02, -1.35968477e-02, -1.73233151e-02, -8.14413279e-02, -1.74896717e-02,  6.80589676e-02, -6.80654943e-02,  7.47112334e-02,
    -1.02348745e-01, -6.98767751e-02,  1.09088510e-01, -1.62820965e-02, -2.72035599e-02, -5.82101941e-03, -6.67140335e-02,  1.48922503e-02,
    -6.76981211e-02,  3.44734192e-02,  6.33471310e-02, -1.01239339e-01,  5.75513691e-02,  1.11843601e-01, -1.05414405e-01,  5.79797179e-02,
    -8.10511410e-03,  2.20669955e-02,  1.36107802e-02,  9.43246782e-02,  2.59663463e-02, -1.03987679e-01,  3.95550579e-02, -7.01744258e-02,
     7.44441897e-02,  9.79851484e-02,  1.13068864e-01, -4.63076383e-02,  4.93496358e-02, -1.16794512e-01, -1.04545742e-01, -9.36117768e-03,
    -4.79135364e-02, -8.44371319e-02, -5.89119047e-02,  9.25920755e-02, -4.46114838e-02, -8.08621943e-02, -9.67507213e-02, -9.10613388e-02,
    -5.43636084e-02, -7.02496320e-02, -1.89364851e-02, -8.17783326e-02, -3.64970565e-02, -9.94230807e-02,  1.13826737e-01, -9.12322998e-02,
    -1.54978782e-02,  6.99367672e-02,  1.06250435e-01, -1.71719193e-02, -8.60598534e-02,  4.98290658e-02,  7.37237930e-02,  8.43774229e-02,
     8.84283483e-02, -9.79587883e-02,  1.22059613e-01, -5.16843200e-02,  1.04939103e-01, -7.44410604e-02,  2.48715281e-02,  8.46721530e-02,
     8.39014500e-02, -7.51224905e-02, -9.45494324e-02,  2.82053053e-02,  7.81601518e-02, -1.00778684e-01,  5.37448376e-02,  1.15703255e-01,
    -1.05319455e-01, -5.12885898e-02,  2.29258388e-02, -4.00763899e-02, -8.02924633e-02,  8.67860019e-03, -1.98610574e-02,  2.13521123e-02,
     3.67747396e-02,  1.18872002e-01, -6.04942888e-02,  9.10599679e-02, -6.82211369e-02,  8.23744535e-02,  2.00414509e-02,  1.06659338e-01,
     1.89359486e-02, -1.01961732e-01, -3.10137272e-02,  7.89436549e-02,  2.31094807e-02, -8.20553899e-02,  6.55034930e-02, -7.63185620e-02,
     2.06878781e-03,  1.18760601e-01,  1.18629158e-01,  1.06360659e-01, -1.39659047e-02,  1.26686543e-02,  9.61598754e-02,  1.51226968e-02,
     4.56978083e-02, -5.04928678e-02, -7.34847337e-02, -2.78114527e-02, -5.07302731e-02, -1.15865633e-01, -1.09699652e-01, -8.07458162e-03,
    -9.96152610e-02,  1.16919383e-01,  4.11830395e-02, -1.18625164e-02, -1.07030481e-01,  3.09796631e-02, -1.88101828e-03,  1.09412670e-01,
    -9.63289142e-02, -5.42113632e-02, -3.48101705e-02, -2.09071189e-02,  1.24384850e-01,  2.16844380e-02, -1.00900173e-01,  8.32342803e-02,
    -7.74063468e-02, -8.19955766e-02,  2.05538556e-01,  8.70236233e-02,  2.51680743e-02,  5.26528955e-01,  1.31585807e-01, -2.28832081e-01,
     2.51355022e-01, -1.93825420e-02,  9.85190570e-02,  6.03277534e-02,  1.63763557e-02,  1.36206374e-02,  5.32526299e-02, -8.65717977e-02,
    -1.14706784e-01, -1.68933421e-02,  4.01857048e-02,  3.30155045e-02,  1.08967817e+00,  1.11596584e-02, -1.48233816e-01, -4.15903777e-01,
    -6.25292540e-01, -2.06277832e-01,  8.06121677e-02,  6.10129386e-02,  1.29416287e-02, -7.81917572e-02,  3.84573592e-03,  1.62448168e-01,
    -5.42841405e-02,  7.85324037e-01,  2.91701555e-02, -4.02332097e-02, -8.28543007e-02, -4.34291512e-02, -1.43341869e-01,  5.89461863e-01,
     9.93557274e-02,  4.86891083e-02,  2.06823334e-01,  7.09247291e-02,  3.79375964e-02, -1.31240949e-01, -9.88748148e-02,  5.23855276e-02,
    -7.54700154e-02,  2.32473016e-02,  3.57994437e-02,  3.84309232e-01, -2.14783400e-01,  2.96633333e-01,  2.17094421e-02, -8.63173604e-03,
    -2.65718222e-01, -1.15662389e-01, -3.54673713e-02,  1.84144020e-01,  1.98923394e-01,  3.29940677e-01,  7.76156038e-02, -7.62120932e-02,
     1.20768800e-01, -9.59059596e-02,  3.70675474e-02,  5.59243709e-02, -1.13814041e-01,  3.00586522e-02, -2.21627355e-02, -3.17200422e-02,
    -1.08952403e-01, -1.24365225e-01,  1.20144546e-01,  1.09061807e-01, -7.70632625e-02,  5.21344095e-02,  4.36262786e-02,  5.92603832e-02,
     1.15497380e-01, -4.49792743e-02, -8.64330679e-02,  4.88314629e-02,  1.11037403e-01, -5.73740005e-02,  1.16633266e-01, -6.73506260e-02,
    -8.91925991e-02, -8.59345347e-02,  1.03230596e-01, -4.90910411e-02, -1.06173784e-01, -4.40689772e-02, -1.06462061e-01, -8.15233141e-02,
    -8.90712440e-02,  8.86142254e-02,  1.05702877e-03, -2.31978744e-02, -1.45550519e-02, -7.65570104e-02, -1.16438434e-01, -7.88713694e-02,
     2.12737620e-02, -6.72802776e-02, -8.27776343e-02, -7.69989640e-02, -7.39874989e-02,  4.01118398e-03, -8.69458318e-02,  9.42167044e-02,
    -9.60675329e-02, -2.51067281e-02, -1.05601981e-01, -3.68157774e-02, -9.39271003e-02,  2.46885419e-03,  5.51464558e-02,  6.98092431e-02,
    -6.87033981e-02,  1.68131590e-02,  1.21818736e-01, -6.90426677e-02, -2.80788094e-02,  8.89439434e-02,  1.74819082e-02, -8.15099329e-02,
     3.97433192e-02,  1.41305208e-01, -7.56009594e-02, -1.53280228e-01, -3.83816808e-02, -2.32036054e-01, -1.36136442e-01,  3.88838381e-01,
    -1.24627680e-01, -8.06252062e-02, -1.78492963e-02, -1.58817410e-01,  1.13874912e-01,  5.31048588e-02, -3.07720266e-02,  7.40690380e-02,
     2.89493203e-02, -8.69552940e-02,  6.22113794e-02, -9.02080238e-02, -1.31533360e+00,  6.72360957e-02,  2.32780069e-01,  7.34628588e-02,
     3.22862417e-01,  3.54158849e-01,  4.34914380e-02,  4.25310880e-02,  2.60263532e-02,  4.46771532e-02,  2.79349983e-02,  3.44905742e-02,
     1.69126391e-02, -2.06270456e-01,  6.96671754e-02,  6.45687580e-02,  5.57248406e-02, -8.57648551e-02, -1.74071956e-02, -7.89922357e-01,
     9.20236856e-02, -2.00747728e-01, -5.82014248e-02,  1.00306913e-01, -7.05464780e-02, -3.22786942e-02,  9.56160873e-02,  7.24986345e-02,
     2.63300985e-01, -8.64118785e-02,  3.59413028e-03, -2.71214247e-01,  7.70808160e-02, -2.79009253e-01, -6.39946461e-02, -9.84943658e-02,
    -2.59357721e-01,  2.22539291e-01,  7.53905028e-02, -1.23246916e-01, -1.14066593e-01, -3.44212085e-01,  3.02589983e-02,  3.89902979e-01,
    -9.45237726e-02,  1.44907251e-01, -1.28354654e-01,  1.21657670e-01, -6.21804520e-02, -5.56646764e-01, -3.51955980e-01,  1.65391922e-01,
     5.20573594e-02,  6.53922185e-02,  9.91445929e-02,  4.73251641e-02, -5.39385676e-02, -1.78885594e-01,  1.63080290e-01, -3.73164415e-02,
     2.69308150e-01, -1.20126128e-01, -7.08523691e-02,  7.54650682e-02, -4.56161529e-01,  7.04727471e-02, -1.83187835e-02,  6.08889401e-01,
    -4.68524128e-01,  1.40244411e-02, -2.11824477e-02,  4.62289900e-02, -4.21556532e-02, -5.33004701e-02,  8.86648670e-02,  7.90741518e-02,
     9.17792767e-02, -5.74564457e-01,  8.37797672e-02,  9.99956131e-02, -1.21411487e-01,  7.03659356e-02,  9.13835363e-04, -5.12152433e-01,
    -2.68687904e-02, -3.35574329e-01,  2.20672879e-02,  2.04444081e-02,  4.33652848e-02,  2.14766905e-01,  1.31927431e-01, -7.30655715e-02,
     6.86685681e-01, -8.67973715e-02, -1.29517764e-02, -3.13670933e-01, -1.30692154e-01, -5.14379621e-01,  1.00915879e-02, -7.99923986e-02,
    -1.14731314e-02,  1.76215157e-01, -8.97040516e-02, -1.66876547e-04, -1.26963243e-01,  5.70808612e-02,  3.69201303e-02,  5.32159694e-02,
     2.61621624e-02, -8.68607610e-02, -8.22526589e-02, -4.07384261e-02,  1.01992354e-01, -2.35072523e-02,  9.00771767e-02,  1.26433894e-02,
     9.51619446e-02, -4.69392311e-04,  8.04065764e-02, -3.72816026e-02,  4.65572253e-02, -9.99747142e-02, -1.14371240e-01, -1.04165316e-01,
     9.35560018e-02, -3.48917395e-02,  3.23788971e-02,  3.63021344e-02,  5.31371534e-02, -4.10419554e-02, -1.02972366e-01,  8.38063210e-02,
    -7.14643598e-02,  1.38750467e-02, -4.53632921e-02, -7.91105330e-02, -3.89701128e-02, -2.41685808e-02,  6.27470165e-02,  3.29716615e-02,
    -2.47271210e-02, -1.02230921e-01, -1.14776492e-01,  8.19370151e-02, -2.41815597e-02, -8.87059122e-02,  2.61292439e-02, -9.21624154e-02,
     4.20655906e-02, -1.13649771e-01, -1.34957656e-01, -2.88194418e-02,  1.02697864e-01,  7.51073658e-02, -9.64413956e-02, -2.76150033e-02,
     6.26305491e-02, -1.29203796e-02,  8.53106380e-02,  2.30495874e-02, -8.22516754e-02, -7.05226511e-02, -4.04123962e-03,  4.50347215e-02,
    -9.82896462e-02,  4.32595201e-02,  9.38363820e-02,  7.11080432e-02, -1.11188859e-01,  4.57420796e-02,  2.54089832e-02,  8.13865960e-02,
    -9.17353332e-02, -6.11999705e-02, -6.74626455e-02,  9.65295956e-02,  1.28452584e-01, -6.27583116e-02, -4.19984385e-02, -1.63808037e-02,
     1.84614778e-01,  8.83509219e-02,  4.74880338e-02,  1.13873236e-01,  6.23654425e-02,  1.45824909e-01,  5.24134710e-02,  1.99440867e-02,
     2.75598802e-02,  4.64620590e-02, -6.85938001e-02, -5.45454621e-02,  4.80012804e-01, -7.24613369e-02, -1.76988035e-01,  3.05585027e-01,
     2.37871543e-01, -2.79020369e-01, -4.88381684e-02,  1.90000236e-02,  4.73948568e-02,  5.34586012e-02, -1.18022347e-02,  9.76824611e-02,
     2.70049870e-02,  1.75323576e-01, -1.09770462e-01, -6.06206805e-02,  1.33315295e-01, -9.97436047e-03, -1.46316281e-02,  4.13581461e-01,
     5.83473891e-02,  9.18801546e-01,  2.02316195e-02,  4.14581299e-02, -1.63742304e-02,  1.06219009e-01, -7.43702948e-02,  4.20465395e-02,
    -1.45007074e-01,  1.24889180e-01,  9.81154144e-02, -1.94344223e-01, -7.65937120e-02,  1.46895647e-01,  3.10376287e-02, -9.59070474e-02,
     3.69063914e-01, -1.21433966e-01,  6.15613759e-02,  8.58896822e-02,  1.23281717e-01,  1.11881562e-01,  1.12354070e-01, -6.00627176e-02,
     9.46730673e-02,  7.22646713e-03, -4.73325402e-02, -1.05974406e-01, -6.68068081e-02, -5.11146486e-02, -1.22230887e-01,  7.18715787e-02,
     7.11797923e-02,  9.92064178e-03,  1.12142652e-01,  1.10233799e-01,  1.04947880e-01,  1.06902793e-01,  5.22059351e-02, -9.70029831e-02,
    -1.14250138e-01, -1.09083340e-01,  3.52939516e-02,  3.79660577e-02,  1.22846454e-01,  1.05109006e-01, -9.17251706e-02, -5.19852340e-02,
     9.83067900e-02, -7.38409907e-02, -3.59055847e-02,  3.66973728e-02,  1.20317698e-01, -7.01436400e-02, -1.08150050e-01, -6.04920685e-02,
    -1.66181624e-02,  4.18710113e-02, -5.96410781e-02, -1.03652611e-01,  9.02340412e-02,  8.68261456e-02, -7.06146657e-03, -1.02468818e-01,
     1.12396747e-01,  2.32536495e-02, -3.91976535e-03,  1.64059997e-02, -2.11723745e-02, -1.16213307e-01, -9.75521952e-02, -9.58745778e-02,
    -1.19014218e-01,  1.23826876e-01, -1.01222187e-01, -6.14675879e-02, -6.47284091e-02, -1.08634040e-01,  9.42506641e-02,  9.50303972e-02,
    -1.11630067e-01,  6.20169789e-02, -1.11286968e-01,  3.45304757e-02,  4.42010611e-02, -7.44018704e-02, -1.03272498e-03,  5.66365272e-02,
    -8.58868659e-03, -1.41481161e-02, -7.11049438e-02,  1.76255107e-02, -7.59743303e-02,  4.77104485e-02, -7.54922330e-02, -8.11399817e-02,
     1.23879746e-01,  1.24930263e-01,  1.16016746e-01, -3.02352458e-02,  5.52815348e-02, -1.17255628e-01, -7.10581690e-02,  9.60154086e-02,
    -1.78526640e-02,  3.54854763e-02, -2.85663605e-02, -2.25946605e-02,  6.07840717e-03, -6.93376660e-02, -3.19757015e-02,  1.13079295e-01,
    -2.31553316e-02, -6.36952668e-02, -3.89597714e-02, -1.10976219e-01, -1.10946462e-01, -1.08082384e-01,  8.89911205e-02, -2.50969827e-03,
    -5.83670437e-02, -8.25286061e-02,  1.05636224e-01,  4.32013869e-02,  6.85939938e-02, -6.99651390e-02,  5.08444011e-03, -3.73318195e-02,
    -7.61896223e-02, -6.65863454e-02,  7.79956281e-02,  3.80339175e-02, -1.39637291e-03, -3.28779966e-02, -1.03878528e-01, -1.12924427e-02,
    -9.20966268e-04,  9.94486213e-02,  5.64776808e-02,  6.44209534e-02,  8.31889659e-02, -5.11618555e-02,  9.89098251e-02,  7.64255971e-02,
     2.77747959e-02, -9.65133607e-02, -2.12498456e-02, -1.05979666e-01,  9.54847038e-02, -1.14878014e-01, -1.22860461e-01, -8.27721655e-02,
     9.07671750e-02,  8.31655934e-02,  6.78988397e-02,  7.35842437e-02,  4.39091250e-02,  7.55087316e-01,  9.02178884e-02, -3.25484164e-02,
     9.12461244e-03, -1.34684354e-01, -2.63070762e-02, -6.84510320e-02, -2.58365627e-02,  1.23457119e-01, -1.20464876e-01,  4.72755134e-02,
    -2.62930065e-01,  4.33234870e-03,  9.68882889e-02, -6.61164522e-02,  3.96844149e-01,  3.13787758e-02, -4.05620830e-03, -8.13914478e-01,
    -3.92170280e-01,  7.98462182e-02, -1.07906908e-02, -6.12227172e-02,  1.35511011e-02, -7.70089030e-03,  8.85832757e-02,  9.26566646e-02,
     2.48985142e-02,  3.99958223e-01,  5.95248789e-02, -7.89895952e-02, -1.03537347e-02,  3.54832560e-02, -8.20875019e-02,  4.00349386e-02,
    -5.63540757e-02, -9.55388963e-01,  5.61889671e-02, -4.19304967e-02, -1.10196650e-01, -3.44840467e-01, -1.44314826e-01,  2.68018637e-02,
    -4.28286761e-01, -7.42006600e-02, -2.29189247e-02,  1.47891864e-01,  3.04250151e-01,  2.25425571e-01,  8.78356993e-02, -5.21710217e-02,
    -9.94020626e-02, -8.49034712e-02,  1.96494162e-02,  1.00175202e-01,  1.89030305e-01, -1.95105802e-02, -4.88431305e-02,  3.56637575e-02,
    -6.78785443e-02, -3.85436453e-02,  8.30000490e-02, -6.00425340e-02, -5.99106066e-02,  2.15370152e-02,  4.48592287e-03, -5.56965694e-02,
     1.10129692e-01,  7.74260331e-03,  3.04626375e-02, -1.22940861e-01, -1.28524541e-03,  6.02386333e-02,  2.57811304e-02,  1.17075652e-01,
    -1.31908581e-01, -8.09360594e-02, -5.48624992e-03,  7.40375519e-02, -9.01113823e-02,  1.92595720e-02,  4.74585816e-02, -6.50177822e-02,
    -5.03166653e-02,  5.84948026e-02, -6.36007190e-02,  1.24853015e-01, -5.44394702e-02, -3.73269320e-02, -9.47978720e-02, -6.29743189e-02,
    -4.03508991e-02, -1.21622123e-01,  6.85504973e-02,  5.17091751e-02, -1.47521654e-02, -5.79364151e-02, -6.94032162e-02,  1.02440119e-01,
    -1.24808311e-01,  5.77292107e-02,  6.90566897e-02, -1.12177223e-01, -8.18457454e-02, -8.06608200e-02, -4.97206897e-02,  7.88849071e-02,
    -1.25770777e-01,  1.23655170e-01, -1.79209262e-02,  6.24346137e-02, -2.38598399e-02,  4.93970364e-02,  9.95939523e-02, -1.06670260e-01,
    -2.17954647e-02,  8.04170314e-03,  9.98672247e-02, -4.46343310e-02, -1.08684108e-01, -1.09755881e-01, -6.29714727e-02,  4.21434306e-02,
     1.43777728e-02, -1.05238661e-01,  1.36244856e-02,  7.80863017e-02, -1.00193813e-01, -6.53036088e-02,  1.05306972e-02,  7.21550509e-02,
     6.47307038e-02,  5.55626862e-02,  3.33777368e-02, -1.36571512e-01, -4.24249060e-02, -7.27287382e-02, -9.61705372e-02,  1.85457766e-02,
    -1.08369805e-01, -6.87113851e-02, -2.91056782e-02,  4.32945341e-02,  4.84975278e-02,  9.41515565e-02,  1.11595936e-01, -3.91095458e-03,
    -8.51996168e-02,  5.48413023e-02,  5.03358394e-02,  1.15473092e-01, -3.52693349e-02,  6.38260245e-02, -1.15946233e-01, -1.35873824e-01,
    -4.69144434e-02, -1.24329560e-01,  3.95777822e-03,  1.22857690e-02,  7.59402588e-02,  1.08423710e-01,  5.28215244e-02, -1.05960198e-01,
     2.86578834e-02,  6.90549985e-02,  3.17535810e-02, -4.42310125e-02,  1.20768875e-01,  1.75995678e-02,  1.02709152e-01,  3.79580595e-02,
    -2.64490359e-02,  1.11628279e-01,  1.06550187e-01, -1.37228355e-01,  1.10068098e-01, -1.10653132e-01,  2.89136320e-02, -8.05987269e-02,
    -4.61843051e-02, -4.54534180e-02, -1.13949314e-01,  8.97412002e-02,  1.05166361e-01,  1.70531776e-02, -1.02728486e-01, -1.18866980e-01,
     3.54559124e-02, -7.81781822e-02, -1.22482643e-01,  8.17291737e-02, -6.79775178e-02, -7.37693906e-03,  9.48051363e-02, -8.35350901e-02,
     6.18044138e-02, -8.05305243e-02, -9.78754461e-02, -4.70567644e-02, -1.04270816e-01, -1.27841681e-02, -9.00038183e-02,  2.65274942e-02,
     7.81788081e-02,  1.04781583e-01,  1.58547908e-02, -8.89751017e-02, -7.46511966e-02, -2.25431621e-02, -1.24922633e-01,  8.12697709e-02,
    -1.19740516e-01,  7.06374943e-02,  5.33019900e-02,  1.17672667e-01,  6.16236180e-02,  1.01581708e-01,  1.10433474e-01,  2.17474997e-03,
     5.08403480e-02, -6.35620952e-03, -1.05884776e-01,  1.07649624e-01, -4.55182493e-02, -7.04400539e-02, -1.58865452e-02,  8.53523314e-02,
    -1.13994285e-01, -1.05803758e-02,  9.27023590e-03, -1.15563288e-01, -5.43551445e-02,  1.01615325e-01, -3.68829072e-02, -2.44876742e-02,
    -3.99956107e-03,  6.78901374e-02,  1.13942564e-01, -1.04024470e-01,  4.86894399e-02,  3.05706263e-03, -1.14378065e-01,  6.38474375e-02,
     7.81595409e-02,  4.91512567e-02,  7.07605481e-03, -9.94463414e-02, -6.92665577e-03, -7.72609860e-02,  7.08477199e-02,  2.90308893e-02,
     9.89693552e-02, -9.01272297e-02, -9.80541110e-02, -2.09427923e-02, -3.55563760e-02, -1.00686550e-01,  4.92026359e-02,  3.51369679e-02,
    -2.73505896e-02,  4.25265729e-03, -1.08093306e-01,  5.59210926e-02, -1.13512874e-02, -4.80562449e-04, -6.79810345e-03,  9.33117270e-02,
    -7.34919310e-02,  9.01648998e-02,  1.06762975e-01,  9.25724059e-02, -8.57491940e-02,  6.33367151e-02, -6.99550807e-02, -4.30226177e-02,
    -8.09649378e-02, -7.15175271e-03, -3.53794843e-02, -7.69243240e-02, -1.24809727e-01, -8.55319053e-02,  1.02891415e-01, -3.72779667e-02,
    -9.02536511e-03,  9.28294957e-02,  9.72447544e-02, -1.90953612e-02,  1.42477304e-02, -9.33958739e-02,  8.19853246e-02, -9.87699777e-02,
     7.13450313e-02,  1.11643285e-01,  8.11465085e-03, -6.98590875e-02,  9.97947007e-02, -2.72028595e-02, -8.04585367e-02, -2.01131403e-03,
    -5.99242002e-02,  3.31760049e-02,  1.75823420e-02, -1.00770652e-01,  5.08948863e-02,  3.82587016e-02,  1.08254850e-02,  8.25840384e-02,
    -1.06806576e-01,  1.11633927e-01, -2.76885927e-02,  6.10469282e-02,  1.07250005e-01,  6.68044090e-02,  1.77667737e-02, -1.00638017e-01,
    -5.88038862e-02,  1.60890862e-01,  3.01895346e-02,  3.93915400e-02, -5.89812733e-02, -4.89529222e-01, -2.03759640e-01,  1.97372779e-01,
    -3.10728662e-02,  1.63472109e-02,  7.54331052e-03, -8.43168199e-02,  1.17954604e-01,  6.43542558e-02,  8.53700042e-02,  1.02024838e-01,
     1.45663828e-01,  1.47670209e-02,  2.97241211e-02,  1.21491849e-01, -7.34203041e-01, -8.66164416e-02,  1.06727809e-01,  5.13269484e-01,
     1.92576483e-01, -1.17198683e-01,  6.83654249e-02,  6.08103573e-02,  8.08094591e-02,  1.71802640e-02,  6.78937649e-03, -2.54065846e-03,
    -2.02774107e-02, -5.31205356e-01, -9.16535556e-02,  1.13938957e-01,  1.33345336e-01,  1.24911860e-01,  1.74977973e-01, -5.49877286e-01,
     8.99989754e-02,  2.95027465e-01,  4.13054414e-02,  8.45997334e-02, -7.44795948e-02,  1.97797239e-01, -4.72100265e-02,  1.64325491e-01,
     5.86069822e-01,  1.19065687e-01, -6.24211133e-03, -1.87310025e-01, -2.87007038e-02, -2.66625941e-01, -7.77992606e-02, -4.19584662e-02,
    -2.34916195e-01,  3.59017514e-02,  7.40310550e-02, -6.56847209e-02, -1.02200471e-01,  1.64970040e-01, -3.94229591e-03,  2.51724478e-02,
    -2.27561146e-02, -1.10515200e-01,  7.05905333e-02,  9.78407562e-02,  8.25868025e-02,  1.54907957e-01,  9.04555395e-02, -1.74463630e-01,
     1.04505926e-01,  1.83778275e-02,  8.98148119e-03,  7.74817467e-02, -1.07373275e-01,  1.23555511e-02,  1.17303394e-02, -1.03745133e-01,
    -3.24860848e-02, -1.07630566e-01,  1.05313867e-01,  2.98180282e-02,  8.06613386e-01,  3.91277969e-02, -2.35856399e-01, -1.29398718e-01,
     1.91113383e-01, -2.32746556e-01,  4.69101667e-02,  7.95847178e-02, -1.86763704e-02,  6.85407817e-02,  1.29928915e-02,  1.34038642e-01,
     6.18882626e-02,  6.06107950e-01, -1.43066794e-02, -3.57310623e-02, -1.16934337e-01, -3.17998081e-02,  1.28415808e-01,  6.63176298e-01,
    -7.26917684e-02,  9.64568615e-01,  8.40944648e-02,  3.54233086e-02,  7.28496909e-02,  6.20473502e-03, -7.17458036e-03, -3.06086317e-02,
    -2.32543603e-01,  3.28892320e-02, -8.54978561e-02, -2.10770071e-02, -1.51679233e-01,  2.92021692e-01, -7.74911642e-02,  1.20097771e-01,
     3.63698840e-01,  4.57874797e-02, -1.21771887e-01,  9.17903557e-02,  1.97692364e-01,  1.51181176e-01,  3.82107198e-02, -1.55554071e-01,
    -4.67587262e-02,  7.98528455e-03, -1.28358854e-02,  5.26001677e-02,  4.87095639e-02,  4.98255491e-01,  1.03998519e-01, -3.00656080e-01,
     1.31044552e-01,  1.00245908e-01, -5.21671772e-02,  3.17359529e-02, -6.82609156e-02,  8.52213949e-02,  7.63456225e-02,  1.85446143e-02,
    -1.62689090e-01, -9.45513695e-02,  3.43789756e-02, -5.85672259e-02,  1.08604753e+00, -2.86633223e-02, -2.24691704e-01,  2.06403024e-02,
     1.00093886e-01, -2.79265165e-01, -9.33454931e-03,  5.57985902e-03, -8.28166753e-02, -3.22508216e-02,  1.17659353e-01,  5.71194887e-02,
    -4.29838896e-02,  6.25346005e-01, -6.21447712e-02, -5.12003899e-03,  6.14483915e-02, -6.82357997e-02,  1.00250930e-01,  5.15612662e-01,
    -1.17011338e-01,  9.61530209e-01,  8.75626430e-02, -2.38091648e-02, -1.05070204e-01, -2.35110950e-02,  6.63811117e-02,  4.10903879e-02,
    -3.48387241e-01, -4.06764895e-02,  5.57799041e-02, -1.23820774e-01, -2.01108545e-01,  1.89386219e-01, -4.58915681e-02, -5.86601198e-02,
     3.20790350e-01, -5.32399304e-03,  5.16193807e-02,  5.82417399e-02,  1.97013378e-01,  5.29194064e-02, -1.54328346e-03, -2.35815585e-01,
    -1.23441577e-01,  1.17212543e-02,  9.24807414e-02, -1.22114316e-01, -3.79730901e-03, -6.63452968e-02, -4.27159593e-02,  1.17934875e-01,
     9.15468410e-02,  4.16138507e-02,  2.58372724e-03, -4.89326240e-03, -1.27663016e-01, -9.70565453e-02, -2.78493576e-02,  1.21250823e-01,
     7.54185766e-02,  7.36289918e-02,  3.01772207e-02,  1.17628798e-01, -7.51843750e-02, -1.87680423e-02, -1.78291332e-02, -8.20166916e-02,
    -1.02872945e-01, -1.10167265e-02, -1.06715381e-01, -9.54888165e-02,  1.97162926e-02, -1.55931860e-02,  3.14381868e-02,  4.56995927e-02,
     1.09102249e-01,  5.02968505e-02, -7.10781813e-02,  1.23613834e-01,  1.08420528e-01,  6.12130314e-02,  3.15245241e-02,  3.59258130e-02,
     6.04388714e-02,  1.69017259e-02,  2.69820262e-02, -3.82021517e-02,  3.54056209e-02, -8.94175544e-02,  8.82992074e-02,  1.79670996e-03,
    -2.62120720e-02, -8.75283778e-02,  5.95008582e-02,  2.81492788e-02,  5.12253819e-03, -4.05763015e-02, -6.72384202e-02,  5.29861450e-02,
     6.71985094e-03, -8.84763449e-02,  1.22100338e-01, -1.13592483e-01,  1.24880942e-02, -9.08892080e-02, -5.62510788e-02, -8.81098136e-02,
};
static const float b1[64] = {
    -3.27189237e-01, -9.70626771e-02,  1.34490028e-01,  4.87408042e-02, -2.34929934e-01, -2.02812664e-02,  8.89657736e-02,  4.30651516e-01,
    -4.51989770e-02, -1.98172610e-02,  3.88152510e-01,  3.68766487e-02, -1.06655255e-01, -6.19670689e-01, -1.64471671e-01,  1.08320042e-01,
    -5.34532070e-02, -5.21512367e-02,  7.54948407e-02,  7.55729154e-02,  1.01190031e-01,  7.94031024e-02, -1.04450129e-01,  9.48766917e-02,
     7.42635131e-02, -2.76703984e-01, -3.49708408e-01, -1.52941301e-01,  1.10949337e-01,  4.80749160e-02,  1.04807168e-01, -1.28041252e-01,
    -1.34859592e-01,  8.74123424e-02, -7.12656677e-02,  3.30514610e-01, -1.20564692e-01, -7.43805245e-03, -8.23470801e-02,  1.06895417e-01,
    -7.95271322e-02, -4.52842265e-01, -6.10548556e-02, -9.52228755e-02, -8.83831084e-03,  7.87286907e-02, -6.12103790e-02, -1.63884476e-01,
     1.01464733e-01,  1.96135715e-01,  1.66306794e-01, -1.40569359e-01, -6.01600111e-01,  5.45842499e-02,  7.18111545e-02,  9.57598090e-02,
    -3.47663164e-02, -3.44020799e-02,  5.85494787e-02, -3.99214029e-03, -2.22672541e-02, -4.52411562e-01, -4.99719530e-01, -1.23358287e-01,
};

/* Layer 2: [64] -> [3] */
#define LAYER2_IN  64
#define LAYER2_OUT 3
static const float w2[192] = {
     3.74920994e-01,  1.91754133e-01, -5.16702950e-01,  1.37259692e-01,  1.04840614e-01,  3.17652822e-01,  3.88450921e-03, -2.74928063e-01,
     4.13586348e-02, -3.72130685e-02, -1.80402040e-01, -2.08193827e-02,  4.15773690e-02,  3.93740803e-01,  3.07734221e-01,  1.01990690e-02,
    -9.85900313e-02, -7.30026290e-02, -4.68004197e-02, -8.16671457e-03,  1.09032333e-01, -1.84173733e-02,  1.78635970e-01, -3.90718728e-02,
     6.24045730e-04,  1.64927453e-01,  3.70378435e-01, -2.94036996e-02, -1.23403966e-03, -8.68148431e-02, -2.20493972e-03, -8.03636834e-02,
     1.78772047e-01, -3.78909707e-02,  2.24088542e-02, -1.99315205e-01,  8.00185651e-02,  4.23116647e-02,  3.96856815e-02, -4.40217882e-01,
    -6.33935779e-02,  1.67704076e-01,  5.09124994e-02,  1.18626781e-01,  5.25266379e-02,  4.88234460e-02, -7.40324259e-02,  1.50355279e-01,
     5.50608635e-02, -1.16219543e-01, -5.69363907e-02,  7.98279271e-02,  2.41334558e-01,  4.64124382e-02, -4.82227504e-02, -3.12601298e-01,
     1.91211924e-02, -1.11543909e-01,  3.49915773e-02,  3.26403379e-02,  9.27307829e-02,  2.74683088e-01,  1.08499952e-01, -6.71481863e-02,
    -6.22355379e-02,  3.27550620e-01,  1.10381983e-01,  8.70182216e-02, -9.40053880e-01, -2.71860695e+00, -9.95168835e-02,  2.75534272e-01,
    -4.22865301e-02, -4.82765511e-02,  1.75005451e-01,  7.34454989e-02,  2.61856616e-03, -4.15769398e-01, -2.04702687e+00,  4.19001542e-02,
     7.67444372e-02, -6.84958175e-02, -7.27726966e-02,  7.35327974e-02,  1.11078843e-01, -9.42560807e-02,  1.34921595e-01,  7.64402300e-02,
    -5.88060915e-02, -1.02143562e+00, -6.95521459e-02, -1.20137036e-02, -6.39487654e-02, -9.04572234e-02, -9.39527750e-02, -1.15781382e-01,
     3.93691137e-02, -4.21775877e-02,  4.19990905e-02,  1.68103814e-01,  6.82099015e-02,  1.16189979e-02, -1.11781195e-01,  3.73018473e-01,
    -4.82255667e-02, -6.41785860e-02, -2.77458429e-02, -9.40177441e-02, -4.27406877e-02, -4.36909497e-03,  2.96641886e-03, -1.42590058e+00,
    -1.12457111e-01,  6.78269446e-01,  8.77567977e-02, -5.34560345e-02, -3.19358110e-01, -6.83589578e-02, -6.01243824e-02,  4.43831563e-01,
     7.56224468e-02, -1.02906125e-02, -9.11165774e-03,  7.66713917e-02,  1.63528055e-01, -2.30825514e-01, -4.62275773e-01,  3.16963531e-02,
    -1.01433516e+00, -1.33159554e+00,  8.02331507e-01,  5.05104288e-02,  3.76405001e-01,  2.05898181e-01, -7.50956386e-02, -1.75334346e-02,
    -1.07523650e-01,  1.10545352e-01, -3.72621804e-01,  4.54514623e-02, -1.21859908e-02, -1.00356769e-02,  2.59341091e-01, -5.53411245e-02,
     6.60234541e-02,  6.19344153e-02, -6.68187886e-02, -2.63146814e-02, -7.06648976e-02,  4.48873676e-02, -4.00361419e-01,  1.12681791e-01,
     4.43205237e-03,  3.41940939e-01, -1.16639316e+00,  6.85754940e-02,  4.24239188e-02,  6.14476949e-02, -2.33692527e-02,  5.34187704e-02,
    -1.56018317e+00, -9.80170518e-02, -9.98735875e-02, -5.26312232e-01, -1.46871973e-02,  8.69653374e-02,  8.35320055e-02,  8.00532699e-01,
     4.24977243e-02, -5.28030396e-01, -1.22137010e-01,  7.22406507e-02, -1.23798996e-01, -4.47697192e-02,  5.82718700e-02,  4.13284898e-01,
     5.44199049e-02, -1.53134215e+00, -2.08222747e+00,  6.38569444e-02, -1.00708321e-01, -1.22686639e-01, -2.00580209e-02,  7.37041533e-01,
     2.86634918e-02, -1.41119026e-02, -5.34229875e-02,  1.19548291e-01, -9.28810298e-01,  1.59111932e-01,  2.54661310e-02, -2.32350416e-02,
};
static const float b2[3] = {
    -4.65586752e-01,  4.83528167e-01,  1.98133543e-01,
};
